{"learner":{"attributes":{"scikit_learn":"{\"_estimator_type\": \"regressor\"}"},"feature_names":["neutral","comp_importance","elo_diff","home_elo","away_elo","home_played","away_played","home_rest_days","away_rest_days","home_form5_ppg","away_form5_ppg","home_form5_gf","away_form5_gf","home_form5_ga","away_form5_ga","home_form10_ppg","away_form10_ppg","home_form10_gf","away_form10_gf","home_form10_ga","away_form10_ga","home_xg5","away_xg5","home_xga5","away_xga5","h2h_home_winrate","h2h_home_gd","home_off_elo","away_off_elo","home_def_elo","away_def_elo","off_def_diff","home_advantage","home_squad_value","away_squad_value","squad_value_logratio"],"feature_types":["float","float","float","float","float","float","float","float","float","float","float","float","float","float","float","float","float","float","float","float","float","float","float","float","float","float","float","float","float","float","float","float","float","float","float","float"],"gradient_booster":{"model":{"cats":{"enc":[],"feature_segments":[],"sorted_idx":[]},"gbtree_model_param":{"num_parallel_tree":"1","num_trees":"400"},"iteration_indptr":[0,1,2,3,4,5,6,7,8,9,10,11,12,13,14,15,16,17,18,19,20,21,22,23,24,25,26,27,28,29,30,31,32,33,34,35,36,37,38,39,40,41,42,43,44,45,46,47,48,49,50,51,52,53,54,55,56,57,58,59,60,61,62,63,64,65,66,67,68,69,70,71,72,73,74,75,76,77,78,79,80,81,82,83,84,85,86,87,88,89,90,91,92,93,94,95,96,97,98,99,100,101,102,103,104,105,106,107,108,109,110,111,112,113,114,115,116,117,118,119,120,121,122,123,124,125,126,127,128,129,130,131,132,133,134,135,136,137,138,139,140,141,142,143,144,145,146,147,148,149,150,151,152,153,154,155,156,157,158,159,160,161,162,163,164,165,166,167,168,169,170,171,172,173,174,175,176,177,178,179,180,181,182,183,184,185,186,187,188,189,190,191,192,193,194,195,196,197,198,199,200,201,202,203,204,205,206,207,208,209,210,211,212,213,214,215,216,217,218,219,220,221,222,223,224,225,226,227,228,229,230,231,232,233,234,235,236,237,238,239,240,241,242,243,244,245,246,247,248,249,250,251,252,253,254,255,256,257,258,259,260,261,262,263,264,265,266,267,268,269,270,271,272,273,274,275,276,277,278,279,280,281,282,283,284,285,286,287,288,289,290,291,292,293,294,295,296,297,298,299,300,301,302,303,304,305,306,307,308,309,310,311,312,313,314,315,316,317,318,319,320,321,322,323,324,325,326,327,328,329,330,331,332,333,334,335,336,337,338,339,340,341,342,343,344,345,346,347,348,349,350,351,352,353,354,355,356,357,358,359,360,361,362,363,364,365,366,367,368,369,370,371,372,373,374,375,376,377,378,379,380,381,382,383,384,385,386,387,388,389,390,391,392,393,394,395,396,397,398,399,400],"tree_info":[0,0,0,0,0,0,0,0,0,0,0,0,0,0,0,0,0,0,0,0,0,0,0,0,0,0,0,0,0,0,0,0,0,0,0,0,0,0,0,0,0,0,0,0,0,0,0,0,0,0,0,0,0,0,0,0,0,0,0,0,0,0,0,0,0,0,0,0,0,0,0,0,0,0,0,0,0,0,0,0,0,0,0,0,0,0,0,0,0,0,0,0,0,0,0,0,0,0,0,0,0,0,0,0,0,0,0,0,0,0,0,0,0,0,0,0,0,0,0,0,0,0,0,0,0,0,0,0,0,0,0,0,0,0,0,0,0,0,0,0,0,0,0,0,0,0,0,0,0,0,0,0,0,0,0,0,0,0,0,0,0,0,0,0,0,0,0,0,0,0,0,0,0,0,0,0,0,0,0,0,0,0,0,0,0,0,0,0,0,0,0,0,0,0,0,0,0,0,0,0,0,0,0,0,0,0,0,0,0,0,0,0,0,0,0,0,0,0,0,0,0,0,0,0,0,0,0,0,0,0,0,0,0,0,0,0,0,0,0,0,0,0,0,0,0,0,0,0,0,0,0,0,0,0,0,0,0,0,0,0,0,0,0,0,0,0,0,0,0,0,0,0,0,0,0,0,0,0,0,0,0,0,0,0,0,0,0,0,0,0,0,0,0,0,0,0,0,0,0,0,0,0,0,0,0,0,0,0,0,0,0,0,0,0,0,0,0,0,0,0,0,0,0,0,0,0,0,0,0,0,0,0,0,0,0,0,0,0,0,0,0,0,0,0,0,0,0,0,0,0,0,0,0,0,0,0,0,0,0,0,0,0,0,0,0,0,0,0,0,0,0,0,0,0,0,0,0,0,0,0,0,0,0,0,0,0,0,0,0,0,0,0,0,0,0,0,0,0,0,0],"trees":[{"base_weights":[4.8800568E-5,-1.08051024E-1,2.868206E-1,-2.2266573E-1,-3.04572E-2,2.0753519E-1,7E-1,-3.1841654E-1,-1.85214E-1,1.8290666E-1,-6.35757E-2,1.702869E-1,6.6840523E-1,7E-1,4.6181196E-1,-1.1300191E-2,-8.488115E-3,1.53644495E-2,-5.6833657E-3,4.06997E-3,2.0574437E-2,-3.1705794E-3,-4.8461737E-4,7.336532E-3,2.4931715E-3,1.3147143E-2,2.1E-2,7.857833E-3,2.1E-2,1.1678192E-2,1.767296E-2],"categories":[],"categories_nodes":[],"categories_segments":[],"categories_sizes":[],"default_left":[0,0,0,0,0,0,0,0,0,0,0,0,0,0,1,0,0,0,0,0,0,0,0,0,0,0,0,0,0,0,0],"id":0,"left_children":[1,3,5,7,9,11,13,15,17,19,21,23,25,27,29,-1,-1,-1,-1,-1,-1,-1,-1,-1,-1,-1,-1,-1,-1,-1,-1],"loss_changes":[4.3328325E3,9.0272424E2,1.2647705E3,1.4688745E2,4.277306E2,5.518181E2,1.736355E2,2.370398E1,8.702588E1,1.9313626E2,1.0463266E2,1.9258508E2,8.180432E1,1.53220215E1,2.8109192E1,0E0,0E0,0E0,0E0,0E0,0E0,0E0,0E0,0E0,0E0,0E0,0E0,0E0,0E0,0E0,0E0],"parents":[2147483647,0,0,1,1,2,2,3,3,4,4,5,5,6,6,7,7,8,8,9,9,10,10,11,11,12,12,13,13,14,14],"right_children":[2,4,6,8,10,12,14,16,18,20,22,24,26,28,30,-1,-1,-1,-1,-1,-1,-1,-1,-1,-1,-1,-1,-1,-1,-1,-1],"split_conditions":[1.0726798E2,-7.902961E1,3.112217E2,-2.2608409E2,4.2E1,3.5E0,1.416047E3,-3.2247278E2,3E0,5.6E0,1.6432804E1,1.5213033E3,3.3333333E0,6E-1,2.6E0,-1.1300191E-2,-8.488115E-3,1.53644495E-2,-5.6833657E-3,4.06997E-3,2.0574437E-2,-3.1705794E-3,-4.8461737E-4,7.336532E-3,2.4931715E-3,1.3147143E-2,2.1E-2,7.857833E-3,2.1E-2,1.1678192E-2,1.767296E-2],"split_indices":[31,31,31,31,6,14,30,31,6,14,31,30,26,26,26,0,0,0,0,0,0,0,0,0,0,0,0,0,0,0,0],"split_type":[0,0,0,0,0,0,0,0,0,0,0,0,0,0,0,0,0,0,0,0,0,0,0,0,0,0,0,0,0,0,0],"sum_hessian":[1.3976689E5,1.01504836E5,3.8262047E4,4.0976344E4,6.0528492E4,3.2150453E4,6.111594E3,1.1518957E4,2.9457389E4,8.1322773E3,5.2396215E4,2.9747574E4,2.4028792E3,3.0434111E3,3.068183E3,4.356324E3,7.1626323E3,1.769425E2,2.9280445E4,7.435124E3,6.9715344E2,2.7751662E4,2.4644553E4,1.6062841E4,1.3684733E4,1.2350587E3,1.1678206E3,8.1393555E1,2.9620176E3,1.9569841E3,1.111199E3],"tree_param":{"num_deleted":"0","num_feature":"36","num_nodes":"31","size_leaf_vector":"1"}},{"base_weights":[-1.5301206E-4,-1.2999327E-1,1.9490635E-1,2.459144E-1,-1.5479314E-1,1.3538098E-1,6.6465E-1,1.5970787E-1,7E-1,-2.2830617E-1,-8.5264035E-2,9.534292E-2,4.081696E-1,3.4926197E-1,7E-1,8.9314635E-5,8.266317E-3,1.0360504E-2,2.1E-2,-9.737483E-3,-5.962465E-3,-3.0248374E-4,-3.4985326E-3,5.4660197E-3,6.197298E-4,2.1E-2,1.1122191E-2,7.7661704E-3,1.6128944E-2,1.275891E-2,2.1E-2],"categories":[],"categories_nodes":[],"categories_segments":[],"categories_sizes":[],"default_left":[0,0,0,0,0,0,0,0,0,0,0,0,0,0,0,0,0,0,0,0,0,0,0,0,0,0,0,0,0,0,0],"id":1,"left_children":[1,3,5,7,9,11,13,15,17,19,21,23,25,27,29,-1,-1,-1,-1,-1,-1,-1,-1,-1,-1,-1,-1,-1,-1,-1,-1],"loss_changes":[3.550997E3,7.84772E2,1.5666521E3,2.1356601E2,4.0360693E2,5.4312256E2,2.6105566E2,8.012506E1,4.2757812E1,1.09162964E2,9.566641E1,2.8132147E2,7.200342E1,3.7151E1,4.4817383E1,0E0,0E0,0E0,0E0,0E0,0E0,0E0,0E0,0E0,0E0,0E0,0E0,0E0,0E0,0E0,0E0],"parents":[2147483647,0,0,1,1,2,2,3,3,4,4,5,5,6,6,7,7,8,8,9,9,10,10,11,11,12,12,13,13,14,14],"right_children":[2,4,6,8,10,12,14,16,18,20,22,24,26,28,30,-1,-1,-1,-1,-1,-1,-1,-1,-1,-1,-1,-1,-1,-1,-1,-1],"split_conditions":[6.395322E1,2E1,3E0,5.8E0,-1.06748665E2,3.57644E2,2.4E0,1.75E0,8E0,-3.1720773E2,1.44E2,1.5222329E3,1.3813494E3,1.5541216E3,1.4068186E3,8.9314635E-5,8.266317E-3,1.0360504E-2,2.1E-2,-9.737483E-3,-5.962465E-3,-3.0248374E-4,-3.4985326E-3,5.4660197E-3,6.197298E-4,2.1E-2,1.1122191E-2,7.7661704E-3,1.6128944E-2,1.275891E-2,2.1E-2],"split_indices":[2,6,20,14,2,2,26,14,5,2,6,30,30,3,3,0,0,0,0,0,0,0,0,0,0,0,0,0,0,0,0],"split_type":[0,0,0,0,0,0,0,0,0,0,0,0,0,0,0,0,0,0,0,0,0,0,0,0,0,0,0,0,0,0,0],"sum_hessian":[1.4020644E5,8.4175664E4,5.603076E4,5.2090986E3,7.896657E4,4.9730285E4,6.300476E3,4.4124185E3,7.966798E2,3.838251E4,4.0584055E4,4.3366582E4,6.3637036E3,2.1891077E3,4.1113687E3,1.8756354E3,2.5367832E3,3.4284653E2,4.5383328E2,9.013383E3,2.936913E4,1.1944461E4,2.8639596E4,2.0048762E4,2.3317822E4,6.961288E2,5.6675747E3,1.4808787E3,7.08229E2,5.993983E2,3.5119702E3],"tree_param":{"num_deleted":"0","num_feature":"36","num_nodes":"31","size_leaf_vector":"1"}},{"base_weights":[4.0819554E-4,-9.73397E-2,2.945808E-1,-2.0813812E-1,-1.4477347E-2,2.1538603E-1,7E-1,-3.1549612E-1,-1.7245294E-1,-5.1604927E-2,1.4389755E-1,1.6493502E-1,4.8967573E-1,4.460039E-1,7E-1,-1.1143449E-2,-8.439309E-3,1.6116519E-2,-5.307087E-3,-2.8666295E-3,-3.6798406E-4,3.4138265E-3,1.656269E-2,3.6945983E-3,8.624373E-3,1.2150088E-2,2.1E-2,1.2263012E-2,2.1E-2,5.373283E-3,2.1E-2],"categories":[],"categories_nodes":[],"categories_segments":[],"categories_sizes":[],"default_left":[0,0,0,0,0,0,0,0,1,0,0,0,0,0,0,0,0,0,0,0,0,0,0,0,0,0,0,0,0,0,0],"id":2,"left_children":[1,3,5,7,9,11,13,15,17,19,21,23,25,27,29,-1,-1,-1,-1,-1,-1,-1,-1,-1,-1,-1,-1,-1,-1,-1,-1],"loss_changes":[4.0226506E3,9.640432E2,1.1849683E3,1.720708E2,3.5326352E2,4.076859E2,1.5381543E2,2.1332397E1,1.06590454E2,8.4142426E1,1.4013469E2,1.2740588E2,8.673462E1,3.2805542E1,2.2597656E1,0E0,0E0,0E0,0E0,0E0,0E0,0E0,0E0,0E0,0E0,0E0,0E0,0E0,0E0,0E0,0E0],"parents":[2147483647,0,0,1,1,2,2,3,3,4,4,5,5,6,6,7,7,8,8,9,9,10,10,11,11,12,12,13,13,14,14],"right_children":[2,4,6,8,10,12,14,16,18,20,22,24,26,28,30,-1,-1,-1,-1,-1,-1,-1,-1,-1,-1,-1,-1,-1,-1,-1,-1],"split_conditions":[1.2168248E2,-6.400161E1,3E0,-2.2608409E2,2E0,3.0283084E2,3.3333333E0,-3.2247278E2,1E-1,1.6432804E1,5E0,2E0,4.108601E2,5.242129E2,3.3333334E-1,-1.1143449E-2,-8.439309E-3,1.6116519E-2,-5.307087E-3,-2.8666295E-3,-3.6798406E-4,3.4138265E-3,1.656269E-2,3.6945983E-3,8.624373E-3,1.2150088E-2,2.1E-2,1.2263012E-2,2.1E-2,5.373283E-3,2.1E-2],"split_indices":[31,31,20,31,20,31,26,31,16,31,20,20,31,2,15,0,0,0,0,0,0,0,0,0,0,0,0,0,0,0,0],"split_type":[0,0,0,0,0,0,0,0,0,0,0,0,0,0,0,0,0,0,0,0,0,0,0,0,0,0,0,0,0,0,0],"sum_hessian":[1.3989317E5,1.0500327E5,3.48899E4,4.4927492E4,6.0075785E4,2.9465771E4,5.4241284E3,1.1206167E4,3.3721324E4,4.866743E4,1.1408355E4,2.4889385E4,4.5763853E3,2.3908125E3,3.033316E3,4.246318E3,6.9598486E3,2.0938503E2,3.351194E4,2.2985992E4,2.5681438E4,1.0625989E4,7.823663E2,1.8562467E4,6.3269194E3,3.3281213E3,1.2482639E3,2.2108423E3,1.7997021E2,8.4092545E1,2.9492234E3],"tree_param":{"num_deleted":"0","num_feature":"36","num_nodes":"31","size_leaf_vector":"1"}},{"base_weights":[6.866247E-4,-1.0117383E-1,2.7348068E-1,-2.077776E-1,-1.8614972E-2,2.0400451E-1,7E-1,-3.0035612E-1,-1.6583066E-1,-4.3861583E-2,2.2140601E-1,1.2054337E-1,3.508053E-1,4.4931304E-1,7E-1,-1.11684995E-2,-8.0528455E-3,-5.117686E-3,2.1E-2,7.1301666E-4,-2.0801828E-3,2.7453967E-3,1.0989919E-2,6.293375E-3,1.8921583E-3,9.226031E-3,2.0560639E-2,1.10227065E-2,1.9358194E-2,1.2986572E-2,2.1E-2],"categories":[],"categories_nodes":[],"categories_segments":[],"categories_sizes":[],"default_left":[0,0,0,0,0,0,0,0,0,0,0,0,0,0,0,0,0,0,0,0,0,0,0,0,0,0,0,0,0,0,0],"id":3,"left_children":[1,3,5,7,9,11,13,15,17,19,21,23,25,27,29,-1,-1,-1,-1,-1,-1,-1,-1,-1,-1,-1,-1,-1,-1,-1,-1],"loss_changes":[3.8809453E3,8.9502527E2,1.1467463E3,1.7231116E2,3.473049E2,4.011317E2,1.4404639E2,3.167981E1,1.3189026E2,8.935541E1,1.02651184E2,1.07052124E2,1.7158765E2,3.6669983E1,1.8662598E1,0E0,0E0,0E0,0E0,0E0,0E0,0E0,0E0,0E0,0E0,0E0,0E0,0E0,0E0,0E0,0E0],"parents":[2147483647,0,0,1,1,2,2,3,3,4,4,5,5,6,6,7,7,8,8,9,9,10,10,11,11,12,12,13,13,14,14],"right_children":[2,4,6,8,10,12,14,16,18,20,22,24,26,28,30,-1,-1,-1,-1,-1,-1,-1,-1,-1,-1,-1,-1,-1,-1,-1,-1],"split_conditions":[1.1140314E2,-6.400161E1,3.1E0,-2.0412807E2,2.4285715E0,2.1844891E2,3.3333333E0,-3.2247278E2,5.6666665E0,1.5111237E3,1.6E0,1.5019576E3,4.108601E2,2.8694574E2,1.3625853E3,-1.11684995E-2,-8.0528455E-3,-5.117686E-3,2.1E-2,7.1301666E-4,-2.0801828E-3,2.7453967E-3,1.0989919E-2,6.293375E-3,1.8921583E-3,9.226031E-3,2.0560639E-2,1.10227065E-2,1.9358194E-2,1.2986572E-2,2.1E-2],"split_indices":[31,31,20,31,20,31,26,31,14,30,26,30,31,31,3,0,0,0,0,0,0,0,0,0,0,0,0,0,0,0,0],"split_type":[0,0,0,0,0,0,0,0,0,0,0,0,0,0,0,0,0,0,0,0,0,0,0,0,0,0,0,0,0,0,0],"sum_hessian":[1.3966603E5,1.0169432E5,3.7971715E4,4.438319E4,5.731113E4,3.274212E4,5.2295957E3,1.3837392E4,3.05458E4,5.1857332E4,5.4537964E3,2.0875516E4,1.18666045E4,2.2989263E3,2.9306692E3,4.2507163E3,9.586675E3,3.038742E4,1.5838057E2,1.4190334E4,3.7666996E4,2.8769133E3,2.5768833E3,8.1767847E3,1.269873E4,1.0509247E4,1.3573572E3,1.6234006E3,6.755257E2,2.6742856E2,2.6632407E3],"tree_param":{"num_deleted":"0","num_feature":"36","num_nodes":"31","size_leaf_vector":"1"}},{"base_weights":[-1.0490782E-3,-1.0151342E-1,2.6485005E-1,-1.8987004E-1,-5.2159345E-3,1.9737169E-1,6.756568E-1,-2.989183E-1,-1.5115388E-1,2.0416304E-1,-4.0569495E-2,1.5325786E-1,4.5462722E-1,4.1488975E-1,7E-1,-1.0838727E-2,-7.982438E-3,3.5869554E-4,-5.1447283E-3,2.8745073E-3,9.505767E-3,9.5895934E-4,-1.9476952E-3,2.9992587E-3,7.598811E-3,1.1255863E-2,1.9778388E-2,1.0185852E-2,1.8719872E-2,2.1E-2,9.424221E-3],"categories":[],"categories_nodes":[],"categories_segments":[],"categories_sizes":[],"default_left":[0,0,0,0,0,0,0,0,0,0,0,0,0,0,0,0,0,0,0,0,0,0,0,0,0,0,0,0,0,0,0],"id":4,"left_children":[1,3,5,7,9,11,13,15,17,19,21,23,25,27,29,-1,-1,-1,-1,-1,-1,-1,-1,-1,-1,-1,-1,-1,-1,-1,-1],"loss_changes":[3.7403005E3,8.6464136E2,1.0642041E3,2.2369727E2,3.599547E2,3.7420154E2,1.9094116E2,2.8341064E1,1.2974377E2,8.5741425E1,7.349283E1,1.5003851E2,7.821979E1,3.752133E1,2.5862793E1,0E0,0E0,0E0,0E0,0E0,0E0,0E0,0E0,0E0,0E0,0E0,0E0,0E0,0E0,0E0,0E0],"parents":[2147483647,0,0,1,1,2,2,3,3,4,4,5,5,6,6,7,7,8,8,9,9,10,10,11,11,12,12,13,13,14,14],"right_children":[2,4,6,8,10,12,14,16,18,20,22,24,26,28,30,-1,-1,-1,-1,-1,-1,-1,-1,-1,-1,-1,-1,-1,-1,-1,-1],"split_conditions":[1.1140314E2,-3.636464E1,3.1E0,-2.0412807E2,4.3E1,3.0283084E2,3.4E0,-3.1096442E2,5.5E1,2.2E0,1.44E2,1.7142857E0,4.108601E2,1.6117134E3,1.64E2,-1.0838727E-2,-7.982438E-3,3.5869554E-4,-5.1447283E-3,2.8745073E-3,9.505767E-3,9.5895934E-4,-1.9476952E-3,2.9992587E-3,7.598811E-3,1.1255863E-2,1.9778388E-2,1.0185852E-2,1.8719872E-2,2.1E-2,9.424221E-3],"split_indices":[31,31,20,31,6,31,26,31,6,14,6,20,31,3,6,0,0,0,0,0,0,0,0,0,0,0,0,0,0,0,0],"split_type":[0,0,0,0,0,0,0,0,0,0,0,0,0,0,0,0,0,0,0,0,0,0,0,0,0,0,0,0,0,0,0],"sum_hessian":[1.4001398E5,1.01619734E5,3.8394246E4,5.299439E4,4.8625344E4,3.2978703E4,5.4155405E3,1.3883443E4,3.911095E4,7.023628E3,4.1601715E4,2.815271E4,4.8259937E3,2.3934666E3,3.0220737E3,4.7848345E3,9.098609E3,4.335903E3,3.4775047E4,3.581864E3,3.4417642E3,1.0456838E4,3.1144879E4,1.8370137E4,9.782574E3,3.4786555E3,1.347338E3,1.761316E3,6.3215063E2,2.8460762E3,1.7599763E2],"tree_param":{"num_deleted":"0","num_feature":"36","num_nodes":"31","size_leaf_vector":"1"}},{"base_weights":[-9.0683876E-5,-9.995867E-2,2.613545E-1,-2.1319345E-1,-2.6150018E-2,1.9554794E-1,6.8918276E-1,-2.9666662E-1,-1.6970812E-1,2.4042447E-1,-5.0384212E-2,1.397012E-1,4.1393912E-1,4.1193518E-1,7E-1,-1.0687374E-2,-7.793245E-3,4.565224E-3,-5.3817653E-3,1.5521977E-2,4.674323E-3,-2.8732002E-3,-8.7340646E-5,2.963178E-3,7.7596763E-3,1.060916E-2,1.9386241E-2,7.0243534E-3,1.4498364E-2,1.3744603E-2,2.1E-2],"categories":[],"categories_nodes":[],"categories_segments":[],"categories_sizes":[],"default_left":[0,0,0,0,0,0,0,0,0,1,0,0,0,0,0,0,0,0,0,0,0,0,0,0,0,0,0,0,0,0,0],"id":5,"left_children":[1,3,5,7,9,11,13,15,17,19,21,23,25,27,29,-1,-1,-1,-1,-1,-1,-1,-1,-1,-1,-1,-1,-1,-1,-1,-1],"loss_changes":[3.6560183E3,8.46803E2,1.0895042E3,1.4507776E2,3.962818E2,4.0906958E2,1.17506836E2,3.0004395E1,8.1975586E1,1.197204E2,1.2115956E2,1.300412E2,9.5441284E1,1.801564E1,4.4078613E1,0E0,0E0,0E0,0E0,0E0,0E0,0E0,0E0,0E0,0E0,0E0,0E0,0E0,0E0,0E0,0E0],"parents":[2147483647,0,0,1,1,2,2,3,3,4,4,5,5,6,6,7,7,8,8,9,9,10,10,11,11,12,12,13,13,14,14],"right_children":[2,4,6,8,10,12,14,16,18,20,22,24,26,28,30,-1,-1,-1,-1,-1,-1,-1,-1,-1,-1,-1,-1,-1,-1,-1,-1],"split_conditions":[1.1140314E2,-7.902961E1,3.1111112E0,-2.0412807E2,2E1,2.7245566E2,1E0,-2.998692E2,1.6E1,2.857143E-1,1.6432804E1,2E0,4.108601E2,1.25E0,1.4666981E3,-1.0687374E-2,-7.793245E-3,4.565224E-3,-5.3817653E-3,1.5521977E-2,4.674323E-3,-2.8732002E-3,-8.7340646E-5,2.963178E-3,7.7596763E-3,1.060916E-2,1.9386241E-2,7.0243534E-3,1.4498364E-2,1.3744603E-2,2.1E-2],"split_indices":[31,31,20,31,6,31,25,31,6,16,31,20,31,17,27,0,0,0,0,0,0,0,0,0,0,0,0,0,0,0,0],"split_type":[0,0,0,0,0,0,0,0,0,0,0,0,0,0,0,0,0,0,0,0,0,0,0,0,0,0,0,0,0,0,0],"sum_hessian":[1.4002166E5,1.0131972E5,3.8701938E4,3.998073E4,6.1338992E4,3.3543836E4,5.1581006E3,1.369205E4,2.628868E4,5.1108677E3,5.6228125E4,2.671416E4,6.829675E3,1.428243E3,3.7298574E3,5.232712E3,8.459338E3,7.673843E2,2.5521295E4,1.1947742E3,3.9160938E3,2.874439E4,2.7483732E4,1.9876953E4,6.837208E3,5.424037E3,1.405638E3,4.102277E2,1.0180153E3,7.60985E2,2.9688723E3],"tree_param":{"num_deleted":"0","num_feature":"36","num_nodes":"31","size_leaf_vector":"1"}},{"base_weights":[-3.2336742E-5,-1.062346E-1,2.344226E-1,-2.0604223E-1,-3.400427E-2,1.6768007E-1,6.142326E-1,-3.0819893E-1,-1.6837098E-1,1.20721236E-1,-7.445046E-2,1.0162296E-1,3.3500287E-1,4.6629032E-1,7E-1,-1.0959675E-2,-8.236266E-3,2.5233456E-3,-5.4433346E-3,1.215134E-2,2.5900835E-3,-3.109647E-3,-5.4857694E-4,4.9816268E-3,1.2213781E-3,8.345787E-3,1.683741E-2,2.1E-2,9.941554E-3,2.1E-2,1.0761651E-2],"categories":[],"categories_nodes":[],"categories_segments":[],"categories_sizes":[],"default_left":[0,0,0,0,0,0,0,0,0,1,0,0,0,0,0,0,0,0,0,0,0,0,0,0,0,0,0,0,0,0,0],"id":6,"left_children":[1,3,5,7,9,11,13,15,17,19,21,23,25,27,29,-1,-1,-1,-1,-1,-1,-1,-1,-1,-1,-1,-1,-1,-1,-1,-1],"loss_changes":[3.469883E3,6.9142053E2,1.1011995E3,1.5491321E2,3.4822745E2,4.0840063E2,1.6257007E2,2.0754639E1,9.713031E1,1.1270308E2,7.235414E1,1.0397351E2,1.342716E2,1.6178741E2,3.3757202E1,0E0,0E0,0E0,0E0,0E0,0E0,0E0,0E0,0E0,0E0,0E0,0E0,0E0,0E0,0E0,0E0],"parents":[2147483647,0,0,1,1,2,2,3,3,4,4,5,5,6,6,7,7,8,8,9,9,10,10,11,11,12,12,13,13,14,14],"right_children":[2,4,6,8,10,12,14,16,18,20,22,24,26,28,30,-1,-1,-1,-1,-1,-1,-1,-1,-1,-1,-1,-1,-1,-1,-1,-1],"split_conditions":[9.581787E1,-7.509339E1,3E0,-2.2608409E2,7.1E1,2.3097745E2,2.8694574E2,-3.2247278E2,2.6E1,3E-1,3.5101826E1,1.5213033E3,3.698801E2,1.7E1,1.61E2,-1.0959675E-2,-8.236266E-3,2.5233456E-3,-5.4433346E-3,1.215134E-2,2.5900835E-3,-3.109647E-3,-5.4857694E-4,4.9816268E-3,1.2213781E-3,8.345787E-3,1.683741E-2,2.1E-2,9.941554E-3,2.1E-2,1.0761651E-2],"split_indices":[31,31,20,31,6,31,31,31,6,16,31,30,31,6,6,0,0,0,0,0,0,0,0,0,0,0,0,0,0,0,0],"split_type":[0,0,0,0,0,0,0,0,0,0,0,0,0,0,0,0,0,0,0,0,0,0,0,0,0,0,0,0,0,0,0],"sum_hessian":[1.393527E5,9.59089E4,4.3443805E4,4.0266684E4,5.5642215E4,3.6951848E4,6.4919604E3,1.0846369E4,2.9420314E4,1.1530542E4,4.411167E4,2.6493947E4,1.0457898E4,3.8587888E3,2.6331714E3,4.0176294E3,6.8287397E3,1.4481152E3,2.79722E4,1.2428546E3,1.02876875E4,2.902067E4,1.5091004E4,1.2874019E4,1.3619929E4,8.360743E3,2.0971553E3,1.113922E3,2.7448667E3,2.340129E3,2.9304248E2],"tree_param":{"num_deleted":"0","num_feature":"36","num_nodes":"31","size_leaf_vector":"1"}},{"base_weights":[9.714357E-5,-5.7563752E-2,3.2943285E-1,-1.0150556E-1,1.0731147E-1,1.2399837E-1,4.7810584E-1,-3.2647405E-2,-1.5800814E-1,1.9063118E-1,4.0069737E-2,2.761626E-2,2.2396947E-1,3.8897845E-1,7E-1,-3.135846E-3,2.638698E-3,-7.2526224E-3,-3.0381083E-3,2.5556926E-3,8.356767E-3,-1.3847956E-3,3.5438375E-3,-2.7903114E-4,6.1541484E-3,1.6843738E-2,5.690901E-3,8.976641E-3,1.6589364E-2,1.2619185E-2,2.1E-2],"categories":[],"categories_nodes":[],"categories_segments":[],"categories_sizes":[],"default_left":[0,1,0,0,0,0,1,0,0,0,0,0,0,0,0,0,0,0,0,0,0,0,0,0,0,0,0,0,0,0,0],"id":7,"left_children":[1,3,5,7,9,11,13,15,17,19,21,23,25,27,29,-1,-1,-1,-1,-1,-1,-1,-1,-1,-1,-1,-1,-1,-1,-1,-1],"loss_changes":[2.656447E3,8.6248486E2,6.36532E2,3.656975E2,1.4034473E2,8.432535E1,3.4396094E2,3.672905E2,2.4529553E2,1.0370166E2,9.3326904E1,2.921308E1,4.9583755E1,1.4284534E2,4.524292E1,0E0,0E0,0E0,0E0,0E0,0E0,0E0,0E0,0E0,0E0,0E0,0E0,0E0,0E0,0E0,0E0],"parents":[2147483647,0,0,1,1,2,2,3,3,4,4,5,5,6,6,7,7,8,8,9,9,10,10,11,11,12,12,13,13,14,14],"right_children":[2,4,6,8,10,12,14,16,18,20,22,24,26,28,30,-1,-1,-1,-1,-1,-1,-1,-1,-1,-1,-1,-1,-1,-1,-1,-1],"split_conditions":[2.25E0,1E0,1.8E0,1.5637938E3,1.5192605E3,1.5012518E3,4.3E0,1.514855E3,1.5281898E3,1.5275317E3,1.5936497E3,6.666667E-1,1.3862002E3,1.55218E3,8.888889E-1,-3.135846E-3,2.638698E-3,-7.2526224E-3,-3.0381083E-3,2.5556926E-3,8.356767E-3,-1.3847956E-3,3.5438375E-3,-2.7903114E-4,6.1541484E-3,1.6843738E-2,5.690901E-3,8.976641E-3,1.6589364E-2,1.2619185E-2,2.1E-2],"split_indices":[20,26,26,30,30,27,20,27,27,27,27,25,30,27,15,0,0,0,0,0,0,0,0,0,0,0,0,0,0,0,0],"split_type":[0,0,0,0,0,0,0,0,0,0,0,0,0,0,0,0,0,0,0,0,0,0,0,0,0,0,0,0,0,0,0],"sum_hessian":[1.3988616E5,1.190444E5,2.0841758E4,9.399394E4,2.505046E4,8.751239E3,1.2090519E4,4.2365652E4,5.1628285E4,1.1186881E4,1.386358E4,4.4562485E3,4.2949907E3,9.714276E3,2.376243E3,2.654487E4,1.5820785E4,2.0850043E4,3.0778242E4,5.0877305E3,6.0991504E3,6.587208E3,7.2763716E3,3.689857E3,7.663913E2,3.9453827E2,3.9004524E3,6.280044E3,3.4342322E3,5.850031E2,1.7912397E3],"tree_param":{"num_deleted":"0","num_feature":"36","num_nodes":"31","size_leaf_vector":"1"}},{"base_weights":[1.2615811E-3,-9.578384E-2,2.481963E-1,-1.9936204E-1,-1.7900253E-2,1.7769414E-1,5.545134E-1,-3.0479932E-1,-1.652178E-1,-4.3344885E-2,1.8978956E-1,1.4821965E-1,5.688453E-1,4.2856213E-1,7E-1,-1.1287311E-2,-8.288579E-3,-5.0783134E-3,2.1E-2,-2.7652886E-3,-2.6865647E-4,4.3619424E-3,1.5161297E-2,2.862447E-3,6.6865524E-3,1.0750978E-2,2.1E-2,1.15480255E-2,2.1E-2,1.6148074E-2,2.1E-2],"categories":[],"categories_nodes":[],"categories_segments":[],"categories_sizes":[],"default_left":[0,0,0,0,0,0,0,0,0,0,0,0,0,1,0,0,0,0,0,0,0,0,0,0,0,0,0,0,0,0,0],"id":8,"left_children":[1,3,5,7,9,11,13,15,17,19,21,23,25,27,29,-1,-1,-1,-1,-1,-1,-1,-1,-1,-1,-1,-1,-1,-1,-1,-1],"loss_changes":[3.351691E3,8.099682E2,8.520637E2,1.5509082E2,3.028798E2,3.697417E2,2.0509741E2,2.1368042E1,1.1824933E2,8.574046E1,8.755969E1,1.1759497E2,8.514697E1,6.76615E1,1.5623413E1,0E0,0E0,0E0,0E0,0E0,0E0,0E0,0E0,0E0,0E0,0E0,0E0,0E0,0E0,0E0,0E0],"parents":[2147483647,0,0,1,1,2,2,3,3,4,4,5,5,6,6,7,7,8,8,9,9,10,10,11,11,12,12,13,13,14,14],"right_children":[2,4,6,8,10,12,14,16,18,20,22,24,26,28,30,-1,-1,-1,-1,-1,-1,-1,-1,-1,-1,-1,-1,-1,-1,-1,-1],"split_conditions":[1.1140314E2,-6.400161E1,3.0283084E2,-2.2608409E2,2.5E0,3.6666667E0,4.108601E2,-3.5396228E2,7E0,5.92647E0,5.6E0,1.6666666E0,3.3333333E0,4.5E0,3E0,-1.1287311E-2,-8.288579E-3,-5.0783134E-3,2.1E-2,-2.7652886E-3,-2.6865647E-4,4.3619424E-3,1.5161297E-2,2.862447E-3,6.6865524E-3,1.0750978E-2,2.1E-2,1.15480255E-2,2.1E-2,1.6148074E-2,2.1E-2],"split_indices":[31,31,31,31,14,14,31,31,14,31,14,14,26,26,26,0,0,0,0,0,0,0,0,0,0,0,0,0,0,0,0],"split_type":[0,0,0,0,0,0,0,0,0,0,0,0,0,0,0,0,0,0,0,0,0,0,0,0,0,0,0,0,0,0,0],"sum_hessian":[1.3986228E5,1.0040406E5,3.9458215E4,4.3092855E4,5.7311207E4,3.2076941E4,7.381272E3,1.0539377E4,3.2553479E4,5.1056883E4,6.254323E3,2.9830496E4,2.2464448E3,4.9101055E3,2.4711665E3,3.0029207E3,7.5364565E3,3.2407283E4,1.461961E2,2.109768E4,2.9959203E4,5.4843394E3,7.69984E2,1.7474494E4,1.2356001E4,1.063969E3,1.182476E3,4.330721E3,5.7938434E2,6.150254E2,1.8561411E3],"tree_param":{"num_deleted":"0","num_feature":"36","num_nodes":"31","size_leaf_vector":"1"}},{"base_weights":[3.5386355E-4,-9.651637E-2,2.438232E-1,-1.8282892E-1,-7.957288E-3,1.8645188E-1,6.2077403E-1,-2.9015756E-1,-1.448826E-1,-3.2843567E-2,1.86492E-1,1.3053772E-1,3.9354733E-1,3.6476618E-1,7E-1,-1.087001E-2,-7.734661E-3,-4.483928E-3,1.4787265E-2,7.625457E-4,-1.6647852E-3,2.5910207E-3,9.117976E-3,2.6089007E-3,5.9997886E-3,1.0716949E-2,2.1E-2,9.643779E-3,1.7977437E-2,1.2056702E-2,2.1E-2],"categories":[],"categories_nodes":[],"categories_segments":[],"categories_sizes":[],"default_left":[0,0,0,0,0,0,0,0,0,0,0,0,0,0,0,0,0,0,0,0,0,0,0,0,0,0,0,0,0,0,0],"id":9,"left_children":[1,3,5,7,9,11,13,15,17,19,21,23,25,27,29,-1,-1,-1,-1,-1,-1,-1,-1,-1,-1,-1,-1,-1,-1,-1,-1],"loss_changes":[3.2993992E3,7.6495953E2,8.6099243E2,2.0636768E2,2.3904152E2,4.001339E2,1.3408862E2,3.0799927E1,1.09493164E2,5.7789646E1,6.587863E1,8.234479E1,9.2469604E1,1.4950562E1,6.1478027E1,0E0,0E0,0E0,0E0,0E0,0E0,0E0,0E0,0E0,0E0,0E0,0E0,0E0,0E0,0E0,0E0],"parents":[2147483647,0,0,1,1,2,2,3,3,4,4,5,5,6,6,7,7,8,8,9,9,10,10,11,11,12,12,13,13,14,14],"right_children":[2,4,6,8,10,12,14,16,18,20,22,24,26,28,30,-1,-1,-1,-1,-1,-1,-1,-1,-1,-1,-1,-1,-1,-1,-1,-1],"split_conditions":[1.1140314E2,-3.9246674E1,3.4E0,-2.0412807E2,2.6E0,2.7245566E2,1E0,-3.2247278E2,5E0,1.47E2,1E0,1.6666666E0,4.7549918E2,3E0,1.4677383E3,-1.087001E-2,-7.734661E-3,-4.483928E-3,1.4787265E-2,7.625457E-4,-1.6647852E-3,2.5910207E-3,9.117976E-3,2.6089007E-3,5.9997886E-3,1.0716949E-2,2.1E-2,9.643779E-3,1.7977437E-2,1.2056702E-2,2.1E-2],"split_indices":[31,31,14,31,14,31,25,31,14,5,25,14,31,11,27,0,0,0,0,0,0,0,0,0,0,0,0,0,0,0,0],"split_type":[0,0,0,0,0,0,0,0,0,0,0,0,0,0,0,0,0,0,0,0,0,0,0,0,0,0,0,0,0,0,0],"sum_hessian":[1.3989238E5,1.0007549E5,3.981688E4,5.0680027E4,4.9395465E4,3.4558605E4,5.258272E3,1.3236061E4,3.744397E4,4.3791688E4,5.603778E3,2.7212953E4,7.3456543E3,1.4902572E3,3.768015E3,4.092034E3,9.144026E3,3.7177664E4,2.6630484E2,1.225849E4,3.1533197E4,3.0258264E3,2.5779514E3,1.6723393E4,1.0489561E4,6.6626025E3,6.830516E2,1.2599294E3,2.303277E2,6.962886E2,3.0717263E3],"tree_param":{"num_deleted":"0","num_feature":"36","num_nodes":"31","size_leaf_vector":"1"}},{"base_weights":[-9.679065E-5,-9.8594606E-2,2.3265676E-1,-2.0534277E-1,-2.9710528E-2,1.6974562E-1,5.658857E-1,-3.0482748E-1,-1.6753244E-1,1.1539841E-1,-6.7658424E-2,1.02404475E-1,3.1796306E-1,3.6459103E-1,7E-1,7.7088894E-3,-9.247007E-3,1.9650122E-3,-5.3569768E-3,1.8845235E-3,8.921721E-3,-3.2527968E-3,-6.667214E-4,4.6836114E-3,1.4912527E-3,7.966938E-3,1.5422051E-2,9.820581E-3,2.1E-2,2.1E-2,5.258903E-3],"categories":[],"categories_nodes":[],"categories_segments":[],"categories_sizes":[],"default_left":[0,0,0,0,0,0,0,0,0,0,0,0,0,0,0,0,0,0,0,0,0,0,0,0,0,0,0,0,0,0,0],"id":10,"left_children":[1,3,5,7,9,11,13,15,17,19,21,23,25,27,29,-1,-1,-1,-1,-1,-1,-1,-1,-1,-1,-1,-1,-1,-1,-1,-1],"loss_changes":[3.1990076E3,7.209524E2,8.697283E2,1.4459619E2,3.2816174E2,3.4834723E2,2.2384717E2,2.0341064E1,7.166046E1,1.18201584E2,8.749898E1,6.793056E1,1.1190442E2,4.1688324E1,5.0934204E1,0E0,0E0,0E0,0E0,0E0,0E0,0E0,0E0,0E0,0E0,0E0,0E0,0E0,0E0,0E0,0E0],"parents":[2147483647,0,0,1,1,2,2,3,3,4,4,5,5,6,6,7,7,8,8,9,9,10,10,11,11,12,12,13,13,14,14],"right_children":[2,4,6,8,10,12,14,16,18,20,22,24,26,28,30,-1,-1,-1,-1,-1,-1,-1,-1,-1,-1,-1,-1,-1,-1,-1,-1],"split_conditions":[1.0535285E2,-7.902961E1,3E0,-2.2608409E2,7.1E1,2.3097745E2,3.6E0,8E0,2.6E1,3E0,1.6432804E1,1.5222329E3,3.698801E2,4.108601E2,1.61E2,7.7088894E-3,-9.247007E-3,1.9650122E-3,-5.3569768E-3,1.8845235E-3,8.921721E-3,-3.2527968E-3,-6.667214E-4,4.6836114E-3,1.4912527E-3,7.966938E-3,1.5422051E-2,9.820581E-3,2.1E-2,2.1E-2,5.258903E-3],"split_indices":[31,31,20,31,6,31,26,6,6,14,31,30,31,31,6,0,0,0,0,0,0,0,0,0,0,0,0,0,0,0,0],"split_type":[0,0,0,0,0,0,0,0,0,0,0,0,0,0,0,0,0,0,0,0,0,0,0,0,0,0,0,0,0,0,0],"sum_hessian":[1.3953595E5,9.804525E4,4.1490703E4,3.845319E4,5.959206E4,3.4902824E4,6.5878823E3,1.0587859E4,2.7865332E4,1.2353081E4,4.7238977E4,2.4000238E4,1.0902584E4,3.0465718E3,3.5413108E3,6.3357635E1,1.0524502E4,1.2594778E3,2.6605854E4,9.58511E3,2.767971E3,2.4897309E4,2.2341668E4,1.1884137E4,1.2116102E4,8.605569E3,2.2970142E3,2.7716558E3,2.749159E2,3.355527E3,1.8578365E2],"tree_param":{"num_deleted":"0","num_feature":"36","num_nodes":"31","size_leaf_vector":"1"}},{"base_weights":[-2.1101175E-4,-9.417051E-2,2.3238507E-1,-2.102715E-1,-2.7213663E-2,4.9450272E-1,1.5626645E-1,-3.0146417E-1,-1.7376642E-1,1.2798542E-1,-6.290749E-2,3.33682E-1,7E-1,1.01971924E-1,2.5797674E-1,-1.0916906E-2,-7.907539E-3,1.4815824E-2,-5.3374316E-3,2.9965208E-3,1.5681474E-2,-3.1888639E-3,-4.3593388E-4,1.676472E-2,8.356577E-3,9.464358E-3,2.1E-2,1.4498595E-2,2.56163E-3,6.7044487E-3,1.167897E-2],"categories":[],"categories_nodes":[],"categories_segments":[],"categories_sizes":[],"default_left":[0,0,0,0,0,0,0,0,0,0,0,0,0,0,1,0,0,0,0,0,0,0,0,0,0,0,0,0,0,0,0],"id":11,"left_children":[1,3,5,7,9,11,13,15,17,19,21,23,25,27,29,-1,-1,-1,-1,-1,-1,-1,-1,-1,-1,-1,-1,-1,-1,-1,-1],"loss_changes":[3.0390222E3,7.699522E2,7.982141E2,1.2054956E2,3.4800375E2,3.300193E2,1.7120837E2,2.4392944E1,7.1739746E1,1.3024509E2,1.07199524E2,6.5584045E1,5.9321045E1,1.2781233E2,4.8796204E1,0E0,0E0,0E0,0E0,0E0,0E0,0E0,0E0,0E0,0E0,0E0,0E0,0E0,0E0,0E0,0E0],"parents":[2147483647,0,0,1,1,2,2,3,3,4,4,5,5,6,6,7,7,8,8,9,9,10,10,11,11,12,12,13,13,14,14],"right_children":[2,4,6,8,10,12,14,16,18,20,22,24,26,28,30,-1,-1,-1,-1,-1,-1,-1,-1,-1,-1,-1,-1,-1,-1,-1,-1],"split_conditions":[1.1140314E2,-8.678908E1,1.4124905E3,-2.2608409E2,6.2E1,1.5213322E3,2.1844891E2,-3.2247278E2,3E0,5.6E0,1.6432804E1,3.2E1,6.666667E-1,1.6E1,2.8E0,-1.0916906E-2,-7.907539E-3,1.4815824E-2,-5.3374316E-3,2.9965208E-3,1.5681474E-2,-3.1888639E-3,-4.3593388E-4,1.676472E-2,8.356577E-3,9.464358E-3,2.1E-2,1.4498595E-2,2.56163E-3,6.7044487E-3,1.167897E-2],"split_indices":[31,31,30,31,6,27,31,31,6,14,31,6,25,6,26,0,0,0,0,0,0,0,0,0,0,0,0,0,0,0,0],"split_type":[0,0,0,0,0,0,0,0,0,0,0,0,0,0,0,0,0,0,0,0,0,0,0,0,0,0,0,0,0,0,0],"sum_hessian":[1.3905434E5,9.9044805E4,4.000954E4,3.622672E4,6.2818082E4,9.002737E3,3.10068E4,1.0354089E4,2.5872629E4,1.1745462E4,5.107262E4,5.295483E3,3.707255E3,2.0216777E4,1.0790023E4,3.9066243E3,6.447465E3,1.5902544E2,2.5713604E4,1.0966029E4,7.7943335E2,2.6923854E4,2.4148768E4,1.0398252E3,4.2556577E3,4.0352063E2,3.3037341E3,8.414536E2,1.9375322E4,8.547506E3,2.2425168E3],"tree_param":{"num_deleted":"0","num_feature":"36","num_nodes":"31","size_leaf_vector":"1"}},{"base_weights":[-1.20431934E-4,-1.20585956E-1,1.5480395E-1,2.297141E-1,-1.3874337E-1,9.010036E-2,4.1218248E-1,4.481917E-1,1.22999735E-1,-2.406527E-1,-9.231032E-2,4.5150142E-2,2.2620009E-1,2.436564E-1,5.5552053E-1,5.109818E-3,2.1E-2,-4.582828E-4,5.99561E-3,-9.713386E-3,-6.176586E-3,-8.416815E-4,-3.6930332E-3,3.4009025E-3,-5.894976E-5,5.6017176E-3,1.2550022E-2,3.968384E-3,8.7199705E-3,1.2792752E-2,2.1E-2],"categories":[],"categories_nodes":[],"categories_segments":[],"categories_sizes":[],"default_left":[0,0,0,1,0,0,0,0,0,0,0,0,0,0,0,0,0,0,0,0,0,0,0,0,0,0,0,0,0,0,0],"id":12,"left_children":[1,3,5,7,9,11,13,15,17,19,21,23,25,27,29,-1,-1,-1,-1,-1,-1,-1,-1,-1,-1,-1,-1,-1,-1,-1,-1],"loss_changes":[2.6094023E3,5.0032556E2,1.0184929E3,9.0324234E1,3.5383447E2,2.9899536E2,2.966577E2,1.08385666E2,2.769468E1,6.757898E1,1.01638275E2,1.1808485E2,9.195715E1,2.9537384E1,1.5272192E2,0E0,0E0,0E0,0E0,0E0,0E0,0E0,0E0,0E0,0E0,0E0,0E0,0E0,0E0,0E0,0E0],"parents":[2147483647,0,0,1,1,2,2,3,3,4,4,5,5,6,6,7,7,8,8,9,9,10,10,11,11,12,12,13,13,14,14],"right_children":[2,4,6,8,10,12,14,16,18,20,22,24,26,28,30,-1,-1,-1,-1,-1,-1,-1,-1,-1,-1,-1,-1,-1,-1,-1,-1],"split_conditions":[5.6146748E1,1.3E1,2.4285715E0,3.75E-1,-1.7567865E2,2.697467E2,2.6666667E0,1.3E1,1.5E0,-3.437192E2,1.54E2,1.5222329E3,4.727739E2,1.4712661E3,4E0,5.109818E-3,2.1E-2,-4.582828E-4,5.99561E-3,-9.713386E-3,-6.176586E-3,-8.416815E-4,-3.6930332E-3,3.4009025E-3,-5.894976E-5,5.6017176E-3,1.2550022E-2,3.968384E-3,8.7199705E-3,1.2792752E-2,2.1E-2],"split_indices":[2,6,20,16,2,2,26,5,14,2,6,30,2,27,14,0,0,0,0,0,0,0,0,0,0,0,0,0,0,0,0],"split_type":[0,0,0,0,0,0,0,0,0,0,0,0,0,0,0,0,0,0,0,0,0,0,0,0,0,0,0,0,0,0,0],"sum_hessian":[1.3981452E5,7.865471E4,6.1159812E4,3.8754958E3,7.477921E4,4.88744E4,1.2285413E4,1.270725E3,2.6047708E3,2.340554E4,5.1373676E4,3.6741098E4,1.2133303E4,5.647826E3,6.6375874E3,6.7449567E2,5.962293E2,9.308263E2,1.6739445E3,6.899792E3,1.6505746E4,1.664363E4,3.4730043E4,1.5009272E4,2.1731824E4,1.0066911E4,2.0663916E3,1.6774158E3,3.9704102E3,3.8976523E3,2.739935E3],"tree_param":{"num_deleted":"0","num_feature":"36","num_nodes":"31","size_leaf_vector":"1"}},{"base_weights":[-2.3223704E-4,-9.872474E-2,2.0821026E-1,-2.0281948E-1,-3.0428316E-2,4.5397598E-1,1.3514054E-1,-2.9532444E-1,-1.6818291E-1,1.1487491E-1,-7.009107E-2,3.4299347E-1,6.9827086E-1,8.6933844E-2,2.4886769E-1,-1.0611746E-2,-7.828228E-3,-1.1955595E-3,-5.654286E-3,1.199325E-2,2.381856E-3,-3.1339535E-3,-7.72976E-4,1.632197E-2,7.830415E-3,2.1E-2,1.5257336E-2,6.30954E-3,1.5519265E-3,9.908275E-3,5.9630633E-3],"categories":[],"categories_nodes":[],"categories_segments":[],"categories_sizes":[],"default_left":[0,0,0,0,0,0,0,0,0,1,0,0,0,0,0,0,0,0,0,0,0,0,0,0,0,0,0,0,0,0,0],"id":13,"left_children":[1,3,5,7,9,11,13,15,17,19,21,23,25,27,29,-1,-1,-1,-1,-1,-1,-1,-1,-1,-1,-1,-1,-1,-1,-1,-1],"loss_changes":[2.856937E3,6.7185236E2,8.018508E2,1.199093E2,3.2888388E2,2.772141E2,1.8869592E2,2.0385742E1,7.093884E1,1.2366292E2,6.830109E1,1.15881714E2,5.7043213E1,1.0499979E2,4.172534E1,0E0,0E0,0E0,0E0,0E0,0E0,0E0,0E0,0E0,0E0,0E0,0E0,0E0,0E0,0E0,0E0],"parents":[2147483647,0,0,1,1,2,2,3,3,4,4,5,5,6,6,7,7,8,8,9,9,10,10,11,11,12,12,13,13,14,14],"right_children":[2,4,6,8,10,12,14,16,18,20,22,24,26,28,30,-1,-1,-1,-1,-1,-1,-1,-1,-1,-1,-1,-1,-1,-1,-1,-1],"split_conditions":[9.581787E1,-8.087418E1,1.4190148E3,-2.2608409E2,7.3E1,3.3100873E2,2.1844891E2,-3.2247278E2,7.9E1,3E-1,1.787274E1,3.2E1,7.9E1,9E1,1.4790505E3,-1.0611746E-2,-7.828228E-3,-1.1955595E-3,-5.654286E-3,1.199325E-2,2.381856E-3,-3.1339535E-3,-7.72976E-4,1.632197E-2,7.830415E-3,2.1E-2,1.5257336E-2,6.30954E-3,1.5519265E-3,9.908275E-3,5.9630633E-3],"split_indices":[31,31,30,31,6,31,31,31,6,16,31,6,6,6,30,0,0,0,0,0,0,0,0,0,0,0,0,0,0,0,0],"split_type":[0,0,0,0,0,0,0,0,0,0,0,0,0,0,0,0,0,0,0,0,0,0,0,0,0,0,0,0,0,0,0],"sum_hessian":[1.3915698E5,9.45032E4,4.465379E4,3.743867E4,5.706453E4,1.0232424E4,3.4421363E4,1.0197189E4,2.7241482E4,1.2236095E4,4.4828438E4,7.0376445E3,3.1947793E3,2.4175578E4,1.0245785E4,3.7753901E3,6.4218E3,3.7199822E3,2.35215E4,1.35392E3,1.0882175E4,2.5247627E4,1.9580809E4,2.0366635E3,5.000981E3,1.625391E3,1.5693884E3,5.3653584E3,1.881022E4,3.901102E3,6.344683E3],"tree_param":{"num_deleted":"0","num_feature":"36","num_nodes":"31","size_leaf_vector":"1"}},{"base_weights":[-7.609903E-4,-1.1987026E-1,1.4958559E-1,1.9041352E-1,-1.4032283E-1,8.8386275E-2,3.8814828E-1,3.960864E-1,1.06562346E-1,-2.4161988E-1,-9.3653575E-2,4.9398717E-2,2.3219402E-1,2.2113888E-1,5.142253E-1,3.7603292E-3,1.8820643E-2,4.8766104E-3,-1.6496954E-3,-9.678634E-3,-6.244166E-3,-9.5435296E-4,-3.6720054E-3,3.4055908E-3,1.01845726E-4,9.914024E-3,5.1584546E-3,3.909949E-3,8.335946E-3,1.2843882E-2,2.1E-2],"categories":[],"categories_nodes":[],"categories_segments":[],"categories_sizes":[],"default_left":[0,0,0,1,0,0,0,0,0,0,0,0,0,0,0,0,0,0,0,0,0,0,0,0,0,0,0,0,0,0,0],"id":14,"left_children":[1,3,5,7,9,11,13,15,17,19,21,23,25,27,29,-1,-1,-1,-1,-1,-1,-1,-1,-1,-1,-1,-1,-1,-1,-1,-1],"loss_changes":[2.50677E3,4.9569153E2,9.033705E2,8.326288E1,3.4638684E2,2.7609665E2,2.6587915E2,8.749382E1,3.1060581E1,6.260962E1,8.9178375E1,1.1428658E2,6.2127502E1,2.7964905E1,1.6822266E2,0E0,0E0,0E0,0E0,0E0,0E0,0E0,0E0,0E0,0E0,0E0,0E0,0E0,0E0,0E0,0E0],"parents":[2147483647,0,0,1,1,2,2,3,3,4,4,5,5,6,6,7,7,8,8,9,9,10,10,11,11,12,12,13,13,14,14],"right_children":[2,4,6,8,10,12,14,16,18,20,22,24,26,28,30,-1,-1,-1,-1,-1,-1,-1,-1,-1,-1,-1,-1,-1,-1,-1,-1],"split_conditions":[5.6146748E1,1.7E1,2.4444444E0,3.75E-1,-1.7567865E2,2.9069537E2,2.5E0,1E1,1.5078865E3,-3.437192E2,1.54E2,1.5222329E3,1.4802026E3,1E0,4.6666665E0,3.7603292E-3,1.8820643E-2,4.8766104E-3,-1.6496954E-3,-9.678634E-3,-6.244166E-3,-9.5435296E-4,-3.6720054E-3,3.4055908E-3,1.01845726E-4,9.914024E-3,5.1584546E-3,3.909949E-3,8.335946E-3,1.2843882E-2,2.1E-2],"split_indices":[2,6,20,16,2,2,26,5,30,2,6,30,30,26,20,0,0,0,0,0,0,0,0,0,0,0,0,0,0,0,0],"split_type":[0,0,0,0,0,0,0,0,0,0,0,0,0,0,0,0,0,0,0,0,0,0,0,0,0,0,0,0,0,0,0],"sum_hessian":[1.3998103E5,7.8104445E4,6.187659E4,4.8294253E3,7.327502E4,4.9244977E4,1.2631612E4,1.3976067E3,3.4318188E3,2.310996E4,5.016506E4,3.87428E4,1.0502175E4,5.4349272E3,7.196685E3,6.445659E2,7.530407E2,2.548533E3,8.8328577E2,6.7561187E3,1.6353843E4,1.5919649E4,3.424541E4,1.6183913E4,2.2558889E4,3.9896724E3,6.5125024E3,2.0909783E3,3.3439492E3,5.6423584E3,1.5543268E3],"tree_param":{"num_deleted":"0","num_feature":"36","num_nodes":"31","size_leaf_vector":"1"}},{"base_weights":[-5.232239E-4,-1.0608805E-1,1.8206154E-1,-2.1438776E-1,-4.9676187E-2,1.142306E-1,4.0355465E-1,-2.9587865E-1,-1.7368807E-1,1.2091339E-1,-7.86826E-2,5.975508E-2,2.4902326E-1,3.400382E-1,7E-1,-1.0720361E-2,-7.771104E-3,4.0967995E-3,-5.43178E-3,8.261707E-3,1.9940985E-3,-3.4992087E-3,-1.009965E-3,3.338192E-3,6.6201406E-4,6.789858E-3,1.4441315E-2,1.7769832E-2,8.192386E-3,2.1E-2,1.1350589E-2],"categories":[],"categories_nodes":[],"categories_segments":[],"categories_sizes":[],"default_left":[0,0,0,0,0,0,0,0,0,0,0,0,0,0,0,0,0,0,0,0,0,0,0,0,0,0,0,0,0,0,0],"id":15,"left_children":[1,3,5,7,9,11,13,15,17,19,21,23,25,27,29,-1,-1,-1,-1,-1,-1,-1,-1,-1,-1,-1,-1,-1,-1,-1,-1],"loss_changes":[2.692695E3,5.408032E2,7.688943E2,1.00500854E2,2.880207E2,2.877008E2,2.5926245E2,2.2772156E1,4.627002E1,7.112502E1,8.50014E1,5.4180946E1,5.9358704E1,1.7117627E2,3.8825928E1,0E0,0E0,0E0,0E0,0E0,0E0,0E0,0E0,0E0,0E0,0E0,0E0,0E0,0E0,0E0,0E0],"parents":[2147483647,0,0,1,1,2,2,3,3,4,4,5,5,6,6,7,7,8,8,9,9,10,10,11,11,12,12,13,13,14,14],"right_children":[2,4,6,8,10,12,14,16,18,20,22,24,26,28,30,-1,-1,-1,-1,-1,-1,-1,-1,-1,-1,-1,-1,-1,-1,-1,-1],"split_conditions":[7.676898E1,-1.0659731E2,2.4285715E0,-2.2608409E2,4.5E1,2.1497311E2,4.108601E2,-3.2247278E2,1.6E1,6E0,-3.0920122E0,1.520292E3,4.108601E2,1.7E1,1.48E2,-1.0720361E-2,-7.771104E-3,4.0967995E-3,-5.43178E-3,8.261707E-3,1.9940985E-3,-3.4992087E-3,-1.009965E-3,3.338192E-3,6.6201406E-4,6.789858E-3,1.4441315E-2,1.7769832E-2,8.192386E-3,2.1E-2,1.1350589E-2],"split_indices":[31,31,20,31,6,31,31,31,6,6,31,30,31,6,6,0,0,0,0,0,0,0,0,0,0,0,0,0,0,0,0],"split_type":[0,0,0,0,0,0,0,0,0,0,0,0,0,0,0,0,0,0,0,0,0,0,0,0,0,0,0,0,0,0,0],"sum_hessian":[1.3970025E5,8.852074E4,5.1179516E4,3.0316402E4,5.8204336E4,3.9181832E4,1.1997686E4,1.0095809E4,2.0220594E4,8.458122E3,4.9746215E4,2.790547E4,1.127636E4,1.0141551E4,1.8561351E3,3.7802183E3,6.31559E3,4.6887094E2,1.9751723E4,2.203081E3,6.2550405E3,2.6988422E4,2.2757793E4,1.1788747E4,1.6116724E4,1.027477E4,1.0015912E3,2.1254292E3,8.0161216E3,1.4771123E3,3.7902292E2],"tree_param":{"num_deleted":"0","num_feature":"36","num_nodes":"31","size_leaf_vector":"1"}},{"base_weights":[2.3238647E-3,-1.0369095E-1,1.8379968E-1,-2.1357259E-1,-4.9582705E-2,1.326839E-1,4.6736315E-1,-2.9086104E-1,-1.729092E-1,1.1056285E-1,-7.756861E-2,7.404585E-2,2.733877E-1,3.1008065E-1,6.249772E-1,-1.0534134E-2,-7.642992E-3,4.717217E-3,-5.395225E-3,2.2647914E-3,1.11536225E-2,-3.6535573E-3,-1.2557771E-3,5.614394E-3,1.4177123E-3,7.0300205E-3,1.3158416E-2,8.757115E-3,2.1E-2,1.4840339E-2,2.1E-2],"categories":[],"categories_nodes":[],"categories_segments":[],"categories_sizes":[],"default_left":[0,0,0,0,0,0,0,0,0,0,0,0,0,0,0,0,0,0,0,0,0,0,0,0,0,0,0,0,0,0,0],"id":16,"left_children":[1,3,5,7,9,11,13,15,17,19,21,23,25,27,29,-1,-1,-1,-1,-1,-1,-1,-1,-1,-1,-1,-1,-1,-1,-1,-1],"loss_changes":[2.6854067E3,5.2384125E2,7.4599634E2,9.131482E1,2.646098E2,3.5980237E2,1.9467749E2,2.171228E1,4.3627014E1,8.043253E1,7.934802E1,9.326233E1,8.2674805E1,3.2227264E1,8.3291626E1,0E0,0E0,0E0,0E0,0E0,0E0,0E0,0E0,0E0,0E0,0E0,0E0,0E0,0E0,0E0,0E0],"parents":[2147483647,0,0,1,1,2,2,3,3,4,4,5,5,6,6,7,7,8,8,9,9,10,10,11,11,12,12,13,13,14,14],"right_children":[2,4,6,8,10,12,14,16,18,20,22,24,26,28,30,-1,-1,-1,-1,-1,-1,-1,-1,-1,-1,-1,-1,-1,-1,-1,-1],"split_conditions":[7.676898E1,-1.1099499E2,3E0,-2.2608409E2,4.7E1,2.1844891E2,4E0,-3.2247278E2,1.4E1,4.111111E0,-1.9950138E1,7.6E1,3.698801E2,4.7549918E2,4.7777777E0,-1.0534134E-2,-7.642992E-3,4.717217E-3,-5.395225E-3,2.2647914E-3,1.11536225E-2,-3.6535573E-3,-1.2557771E-3,5.614394E-3,1.4177123E-3,7.0300205E-3,1.3158416E-2,8.757115E-3,2.1E-2,1.4840339E-2,2.1E-2],"split_indices":[31,31,20,31,6,31,26,31,6,20,31,6,31,31,20,0,0,0,0,0,0,0,0,0,0,0,0,0,0,0,0],"split_type":[0,0,0,0,0,0,0,0,0,0,0,0,0,0,0,0,0,0,0,0,0,0,0,0,0,0,0,0,0,0,0],"sum_hessian":[1.395785E5,8.810792E4,5.147059E4,2.9070121E4,5.9037797E4,4.3610695E4,7.859894E3,1.0019679E4,1.9050441E4,8.781858E3,5.0255938E4,3.0783328E4,1.2827367E4,3.9355696E3,3.9243245E3,3.7494705E3,6.270208E3,3.9130106E2,1.865914E4,7.7435625E3,1.0382963E3,2.2452295E4,2.7803645E4,5.8938506E3,2.4889477E4,1.0377021E4,2.4503457E3,3.7891555E3,1.4641394E2,2.5104382E3,1.4138861E3],"tree_param":{"num_deleted":"0","num_feature":"36","num_nodes":"31","size_leaf_vector":"1"}},{"base_weights":[-2.5400224E-3,-8.9767635E-2,2.0401898E-1,-1.9808169E-1,-2.9295444E-2,3.8598484E-1,1.259744E-1,-2.892595E-1,-1.6233596E-1,-5.2712575E-2,1.5957429E-1,3.2069603E-1,7E-1,8.6580314E-2,2.2438306E-1,-1.0429048E-2,-7.602987E-3,1.1550845E-3,-5.184524E-3,5.67764E-4,-2.3679612E-3,8.750321E-3,2.2660482E-3,1.5218162E-2,7.625798E-3,2.1E-2,1.3788862E-2,6.171268E-3,1.7010684E-3,5.780581E-3,1.0604099E-2],"categories":[],"categories_nodes":[],"categories_segments":[],"categories_sizes":[],"default_left":[0,0,0,0,0,0,0,0,0,0,0,0,0,0,0,0,0,0,0,0,0,0,0,0,0,0,0,0,0,0,0],"id":17,"left_children":[1,3,5,7,9,11,13,15,17,19,21,23,25,27,29,-1,-1,-1,-1,-1,-1,-1,-1,-1,-1,-1,-1,-1,-1,-1,-1],"loss_changes":[2.5060469E3,6.405303E2,5.8642126E2,1.1414441E2,2.7756723E2,2.594303E2,1.1202725E2,2.0545898E1,5.2994568E1,1.04876434E2,7.683449E1,1.27694336E2,5.0054565E1,7.3458755E1,3.373645E1,0E0,0E0,0E0,0E0,0E0,0E0,0E0,0E0,0E0,0E0,0E0,0E0,0E0,0E0,0E0,0E0],"parents":[2147483647,0,0,1,1,2,2,3,3,4,4,5,5,6,6,7,7,8,8,9,9,10,10,11,11,12,12,13,13,14,14],"right_children":[2,4,6,8,10,12,14,16,18,20,22,24,26,28,30,-1,-1,-1,-1,-1,-1,-1,-1,-1,-1,-1,-1,-1,-1,-1,-1],"split_conditions":[1.1140314E2,-8.678908E1,1.4364432E3,-2.2608409E2,2.5E0,4.108601E2,2.3097745E2,-3.2247278E2,2.8E1,1.2E2,2E1,3.2E1,1.05E2,9E1,3.5472577E2,-1.0429048E-2,-7.602987E-3,1.1550845E-3,-5.184524E-3,5.67764E-4,-2.3679612E-3,8.750321E-3,2.2660482E-3,1.5218162E-2,7.625798E-3,2.1E-2,1.3788862E-2,6.171268E-3,1.7010684E-3,5.780581E-3,1.0604099E-2],"split_indices":[31,31,30,31,14,31,31,31,6,6,6,6,6,6,31,0,0,0,0,0,0,0,0,0,0,0,0,0,0,0,0],"split_type":[0,0,0,0,0,0,0,0,0,0,0,0,0,0,0,0,0,0,0,0,0,0,0,0,0,0,0,0,0,0,0],"sum_hessian":[1.3908644E5,9.779095E4,4.129549E4,3.5035414E4,6.2755543E4,1.2394045E4,2.8901443E4,9.865097E3,2.5170316E4,5.583369E4,6.921853E3,1.0300834E4,2.0932112E3,2.0640643E4,8.2608E3,3.7485479E3,6.1165483E3,1.2483206E3,2.3921996E4,1.4959884E4,4.0873805E4,2.6903574E3,4.231496E3,2.7050583E3,7.595776E3,1.2194105E3,8.7380054E2,4.1375737E3,1.6503068E4,6.634263E3,1.6265371E3],"tree_param":{"num_deleted":"0","num_feature":"36","num_nodes":"31","size_leaf_vector":"1"}},{"base_weights":[-1.5229039E-4,-1.050607E-1,1.6581355E-1,-2.189704E-1,-5.5716388E-2,1.02118805E-1,3.7572172E-1,-2.8927547E-1,-1.7552969E-1,-7.222748E-2,1.02276765E-1,5.6223925E-2,2.2141887E-1,3.2238284E-1,6.799337E-1,-1.0903225E-2,-7.837033E-3,-5.3403717E-3,1.6492799E-2,-3.4126672E-3,-9.4494625E-4,2.6888717E-3,2.1E-2,3.3419307E-3,5.127565E-4,5.7647047E-3,1.1348742E-2,7.921519E-3,1.5483813E-2,2.1E-2,1.1115345E-2],"categories":[],"categories_nodes":[],"categories_segments":[],"categories_sizes":[],"default_left":[0,0,0,0,0,0,0,0,0,0,1,0,0,0,0,0,0,0,0,0,0,0,0,0,0,0,0,0,0,0,0],"id":18,"left_children":[1,3,5,7,9,11,13,15,17,19,21,23,25,27,29,-1,-1,-1,-1,-1,-1,-1,-1,-1,-1,-1,-1,-1,-1,-1,-1],"loss_changes":[2.4388804E3,4.8239124E2,7.2529395E2,7.917444E1,1.5622615E2,2.2788113E2,2.0470544E2,2.0505127E1,2.8973755E1,9.170383E1,4.9658012E1,6.489969E1,5.300763E1,1.213219E2,3.8503174E1,0E0,0E0,0E0,0E0,0E0,0E0,0E0,0E0,0E0,0E0,0E0,0E0,0E0,0E0,0E0,0E0],"parents":[2147483647,0,0,1,1,2,2,3,3,4,4,5,5,6,6,7,7,8,8,9,9,10,10,11,11,12,12,13,13,14,14],"right_children":[2,4,6,8,10,12,14,16,18,20,22,24,26,28,30,-1,-1,-1,-1,-1,-1,-1,-1,-1,-1,-1,-1,-1,-1,-1,-1],"split_conditions":[7.000999E1,-1.2470421E2,2.4285715E0,-2.2608409E2,2.3333333E0,2.1497311E2,4.108601E2,-3.5396228E2,7E0,-1.9950138E1,7.6E0,1.5192605E3,3.698801E2,4.25E0,1.4124905E3,-1.0903225E-2,-7.837033E-3,-5.3403717E-3,1.6492799E-2,-3.4126672E-3,-9.4494625E-4,2.6888717E-3,2.1E-2,3.3419307E-3,5.127565E-4,5.7647047E-3,1.1348742E-2,7.921519E-3,1.5483813E-2,2.1E-2,1.1115345E-2],"split_indices":[31,31,20,31,20,31,31,31,12,31,20,30,31,14,30,0,0,0,0,0,0,0,0,0,0,0,0,0,0,0,0],"split_type":[0,0,0,0,0,0,0,0,0,0,0,0,0,0,0,0,0,0,0,0,0,0,0,0,0,0,0,0,0,0,0],"sum_hessian":[1.4007328E5,8.5823734E4,5.424954E4,2.5939598E4,5.9884137E4,4.162139E4,1.262815E4,9.904446E3,1.603515E4,5.4218562E4,5.6655747E3,3.0059092E4,1.1562299E4,1.0746056E4,1.8820945E3,2.7140706E3,7.190376E3,1.5981201E4,5.3949913E1,2.6845129E4,2.7373436E4,5.567776E3,9.779845E1,1.2472205E4,1.7586887E4,9.746475E3,1.8158235E3,8.261161E3,2.4848948E3,1.5169341E3,3.651605E2],"tree_param":{"num_deleted":"0","num_feature":"36","num_nodes":"31","size_leaf_vector":"1"}},{"base_weights":[1.0925347E-3,-1.0825634E-1,1.6114405E-1,-2.1843705E-1,-5.8935195E-2,9.924892E-2,3.624286E-1,-3.370987E-1,-1.9303495E-1,6.930984E-2,-8.916927E-2,5.420266E-2,2.2802949E-1,2.352671E-1,5.217556E-1,1.9643739E-2,-1.0182364E-2,6.388739E-3,-5.944312E-3,7.6448983E-3,9.223416E-4,-3.6205805E-3,-1.4086022E-3,3.0197888E-3,5.7355786E-4,5.773492E-3,1.1856163E-2,4.305226E-3,9.373502E-3,1.3036265E-2,2.1E-2],"categories":[],"categories_nodes":[],"categories_segments":[],"categories_sizes":[],"default_left":[0,0,0,0,0,0,0,0,0,0,0,0,0,0,0,0,0,0,0,0,0,0,0,0,0,0,0,0,0,0,0],"id":19,"left_children":[1,3,5,7,9,11,13,15,17,19,21,23,25,27,29,-1,-1,-1,-1,-1,-1,-1,-1,-1,-1,-1,-1,-1,-1,-1,-1],"loss_changes":[2.441591E3,4.5038788E2,7.0543933E2,7.7185425E1,2.2200354E2,2.5123166E2,2.6968335E2,1.0588806E1,4.3831055E1,7.8144745E1,6.163974E1,5.229773E1,6.668036E1,5.2420044E1,1.2887708E2,0E0,0E0,0E0,0E0,0E0,0E0,0E0,0E0,0E0,0E0,0E0,0E0,0E0,0E0,0E0,0E0],"parents":[2147483647,0,0,1,1,2,2,3,3,4,4,5,5,6,6,7,7,8,8,9,9,10,10,11,11,12,12,13,13,14,14],"right_children":[2,4,6,8,10,12,14,16,18,20,22,24,26,28,30,-1,-1,-1,-1,-1,-1,-1,-1,-1,-1,-1,-1,-1,-1,-1,-1],"split_conditions":[6.3139862E1,-1.2470421E2,2.6E0,-2.998692E2,6.7E1,2.1844891E2,3.4E0,1E-1,1E1,5E0,-1.0635854E1,1.5222329E3,3.698801E2,1.5E0,5.3333335E0,1.9643739E-2,-1.0182364E-2,6.388739E-3,-5.944312E-3,7.6448983E-3,9.223416E-4,-3.6205805E-3,-1.4086022E-3,3.0197888E-3,5.7355786E-4,5.773492E-3,1.1856163E-2,4.305226E-3,9.373502E-3,1.3036265E-2,2.1E-2],"split_indices":[31,31,14,31,6,31,26,16,6,6,31,30,31,17,14,0,0,0,0,0,0,0,0,0,0,0,0,0,0,0,0],"split_type":[0,0,0,0,0,0,0,0,0,0,0,0,0,0,0,0,0,0,0,0,0,0,0,0,0,0,0,0,0,0,0],"sum_hessian":[1.395059E5,8.288104E4,5.6624867E4,2.5627404E4,5.7253633E4,4.330886E4,1.331601E4,4.516599E3,2.1110807E4,1.09223955E4,4.633124E4,3.2086658E4,1.12222E4,7.4069097E3,5.9091E3,9.853603E0,4.5067456E3,2.6184033E2,2.0848965E4,1.8787816E3,9.043614E3,2.6526043E4,1.9805193E4,1.3804888E4,1.8281771E4,9.254692E3,1.9675073E3,3.3852222E3,4.0216875E3,4.499454E3,1.4096459E3],"tree_param":{"num_deleted":"0","num_feature":"36","num_nodes":"31","size_leaf_vector":"1"}},{"base_weights":[1.0917844E-3,-9.2640765E-2,1.815663E-1,-2.0383385E-1,-4.0780596E-2,1.31846E-1,4.329774E-1,-2.834931E-1,-1.6472858E-1,1.21627316E-1,-6.958935E-2,7.575254E-2,2.3709266E-1,2.9627138E-1,5.685029E-1,7.558963E-3,-8.610572E-3,3.749792E-3,-5.144206E-3,8.191727E-3,2.0808456E-3,-3.1617442E-3,-9.851037E-4,5.0680297E-3,1.4515741E-3,6.747724E-3,2.1E-2,3.917494E-3,1.0324106E-2,1.4205799E-2,2.1E-2],"categories":[],"categories_nodes":[],"categories_segments":[],"categories_sizes":[],"default_left":[0,0,0,0,0,0,0,0,0,0,0,0,0,0,0,0,0,0,0,0,0,0,0,0,0,0,0,0,0,0,0],"id":20,"left_children":[1,3,5,7,9,11,13,15,17,19,21,23,25,27,29,-1,-1,-1,-1,-1,-1,-1,-1,-1,-1,-1,-1,-1,-1,-1,-1],"loss_changes":[2.3608157E3,5.296609E2,5.9627185E2,9.0958374E1,2.9308545E2,2.3512506E2,1.4575659E2,1.8230896E1,3.8317627E1,7.467679E1,7.000226E1,6.6252594E1,8.60849E1,3.1068604E1,6.8150635E1,0E0,0E0,0E0,0E0,0E0,0E0,0E0,0E0,0E0,0E0,0E0,0E0,0E0,0E0,0E0,0E0],"parents":[2147483647,0,0,1,1,2,2,3,3,4,4,5,5,6,6,7,7,8,8,9,9,10,10,11,11,12,12,13,13,14,14],"right_children":[2,4,6,8,10,12,14,16,18,20,22,24,26,28,30,-1,-1,-1,-1,-1,-1,-1,-1,-1,-1,-1,-1,-1,-1,-1,-1],"split_conditions":[9.362756E1,-1.0659731E2,3E0,-2.2608409E2,4.5E1,2.1497311E2,4E0,8E0,1.6E1,6E0,-1.4363228E0,9E1,5.351417E2,1.4514436E3,5E0,7.558963E-3,-8.610572E-3,3.749792E-3,-5.144206E-3,8.191727E-3,2.0808456E-3,-3.1617442E-3,-9.851037E-4,5.0680297E-3,1.4515741E-3,6.747724E-3,2.1E-2,3.917494E-3,1.0324106E-2,1.4205799E-2,2.1E-2],"split_indices":[31,31,20,31,6,31,26,6,6,6,31,6,31,27,20,0,0,0,0,0,0,0,0,0,0,0,0,0,0,0,0],"split_type":[0,0,0,0,0,0,0,0,0,0,0,0,0,0,0,0,0,0,0,0,0,0,0,0,0,0,0,0,0,0,0],"sum_hessian":[1.3955634E5,9.1851945E4,4.7704406E4,2.921319E4,6.2638758E4,3.9829125E4,7.8752803E3,9.616886E3,1.9596303E4,9.436686E3,5.320207E4,2.5982773E4,1.3846352E4,3.9221511E3,3.9531294E3,6.2451393E1,9.554435E3,4.454386E2,1.9150865E4,2.4202483E3,7.0164375E3,2.6948547E4,2.6253523E4,5.897393E3,2.0085379E4,1.3529657E4,3.1669455E2,8.799381E2,3.042213E3,2.6703376E3,1.2827917E3],"tree_param":{"num_deleted":"0","num_feature":"36","num_nodes":"31","size_leaf_vector":"1"}},{"base_weights":[3.888529E-4,-9.225146E-2,1.8181235E-1,-1.8785843E-1,-3.1623457E-2,1.3145567E-1,4.3186685E-1,-2.84994E-1,-1.5290135E-1,8.676315E-2,-6.383023E-2,7.774429E-2,2.5470152E-1,3.7427995E-1,7E-1,-1.0316437E-2,-7.515807E-3,1.2076817E-2,-4.7189766E-3,6.217185E-3,1.2624421E-3,-1.222403E-3,-3.7774872E-3,5.1598046E-3,1.594741E-3,7.2655967E-3,2.1E-2,9.9439565E-3,2.1E-2,2.1E-2,1.3700278E-2],"categories":[],"categories_nodes":[],"categories_segments":[],"categories_sizes":[],"default_left":[0,0,0,0,0,0,0,0,0,0,0,0,0,0,0,0,0,0,0,0,0,0,0,0,0,0,0,0,0,0,0],"id":21,"left_children":[1,3,5,7,9,11,13,15,17,19,21,23,25,27,29,-1,-1,-1,-1,-1,-1,-1,-1,-1,-1,-1,-1,-1,-1,-1,-1],"loss_changes":[2.3459165E3,5.355736E2,5.940426E2,1.2170581E2,2.1559677E2,2.5996045E2,1.4245935E2,1.9170471E1,6.447803E1,6.508967E1,6.3700638E1,6.3377655E1,6.846893E1,1.0752057E2,2.0037048E1,0E0,0E0,0E0,0E0,0E0,0E0,0E0,0E0,0E0,0E0,0E0,0E0,0E0,0E0,0E0,0E0],"parents":[2147483647,0,0,1,1,2,2,3,3,4,4,5,5,6,6,7,7,8,8,9,9,10,10,11,11,12,12,13,13,14,14],"right_children":[2,4,6,8,10,12,14,16,18,20,22,24,26,28,30,-1,-1,-1,-1,-1,-1,-1,-1,-1,-1,-1,-1,-1,-1,-1,-1],"split_conditions":[9.581787E1,-8.087418E1,3E0,-2.2608409E2,7.1E1,2.3097745E2,4.367929E2,-3.2247278E2,3E0,1E1,1E0,8.3E1,5.351417E2,6.125E0,1.08E2,-1.0316437E-2,-7.515807E-3,1.2076817E-2,-4.7189766E-3,6.217185E-3,1.2624421E-3,-1.222403E-3,-3.7774872E-3,5.1598046E-3,1.594741E-3,7.2655967E-3,2.1E-2,9.9439565E-3,2.1E-2,2.1E-2,1.3700278E-2],"split_indices":[31,31,20,31,6,31,31,31,6,6,0,6,31,20,6,0,0,0,0,0,0,0,0,0,0,0,0,0,0,0,0],"split_type":[0,0,0,0,0,0,0,0,0,0,0,0,0,0,0,0,0,0,0,0,0,0,0,0,0,0,0,0,0,0,0],"sum_hessian":[1.3957667E5,9.239665E4,4.7180023E4,3.5854305E4,5.654234E4,3.9272707E4,7.90732E3,9.486613E3,2.6367691E4,1.2092109E4,4.445023E4,2.7353496E4,1.191921E4,6.7055444E3,1.2017751E3,3.4992117E3,5.987402E3,2.0641527E2,2.6161277E4,3.2704058E3,8.821703E3,3.2404107E4,1.2046125E4,5.6580137E3,2.1695482E4,1.160542E4,3.137898E2,6.033048E3,6.724965E2,8.5607416E2,3.4570096E2],"tree_param":{"num_deleted":"0","num_feature":"36","num_nodes":"31","size_leaf_vector":"1"}},{"base_weights":[-7.329528E-4,-1.00430995E-1,1.5239881E-1,-2.1201697E-1,-5.32048E-2,8.382225E-2,3.2100725E-1,-3.297785E-1,-1.868274E-1,1.581845E-1,-7.24973E-2,3.927345E-2,1.8646395E-1,2.1790332E-1,4.5186538E-1,-1.1676869E-2,-8.999811E-3,1.7448324E-3,-5.886168E-3,9.806319E-3,2.9763724E-3,-3.7531726E-4,-2.9540604E-3,3.8549837E-3,6.0057745E-4,8.175323E-3,4.1432884E-3,5.38743E-3,9.960448E-3,1.2078075E-2,2.1E-2],"categories":[],"categories_nodes":[],"categories_segments":[],"categories_sizes":[],"default_left":[0,0,0,0,0,0,0,0,0,1,0,0,0,0,0,0,0,0,0,0,0,0,0,0,0,0,0,0,0,0,0],"id":22,"left_children":[1,3,5,7,9,11,13,15,17,19,21,23,25,27,29,-1,-1,-1,-1,-1,-1,-1,-1,-1,-1,-1,-1,-1,-1,-1,-1],"loss_changes":[2.133235E3,4.4596973E2,6.370624E2,7.4590454E1,2.4252217E2,1.7909952E2,2.1483289E2,7.7332764E0,4.7648804E1,4.9444756E1,8.489429E1,4.692559E1,4.9287506E1,3.891266E1,1.1131055E2,0E0,0E0,0E0,0E0,0E0,0E0,0E0,0E0,0E0,0E0,0E0,0E0,0E0,0E0,0E0,0E0],"parents":[2147483647,0,0,1,1,2,2,3,3,4,4,5,5,6,6,7,7,8,8,9,9,10,10,11,11,12,12,13,13,14,14],"right_children":[2,4,6,8,10,12,14,16,18,20,22,24,26,28,30,-1,-1,-1,-1,-1,-1,-1,-1,-1,-1,-1,-1,-1,-1,-1,-1],"split_conditions":[7.000999E1,-1.2470421E2,2.25E0,-2.998692E2,2E1,2.0372458E2,3.4E0,1.1871954E3,2.6E1,3.75E-1,1.52E2,8.3E1,1.4777805E3,2.793968E2,6.1E0,-1.1676869E-2,-8.999811E-3,1.7448324E-3,-5.886168E-3,9.806319E-3,2.9763724E-3,-3.7531726E-4,-2.9540604E-3,3.8549837E-3,6.0057745E-4,8.175323E-3,4.1432884E-3,5.38743E-3,9.960448E-3,1.2078075E-2,2.1E-2],"split_indices":[31,31,20,31,6,31,26,3,6,16,6,6,30,31,20,0,0,0,0,0,0,0,0,0,0,0,0,0,0,0,0],"split_type":[0,0,0,0,0,0,0,0,0,0,0,0,0,0,0,0,0,0,0,0,0,0,0,0,0,0,0,0,0,0,0],"sum_hessian":[1.3972708E5,8.462889E4,5.5098188E4,2.5165174E4,5.946372E4,3.9168883E4,1.5929303E4,4.432252E3,2.0732922E4,4.9724985E3,5.449122E4,2.731496E4,1.1853923E4,8.910964E3,7.018339E3,1.4753606E3,2.9568914E3,7.642084E2,1.9968715E4,1.2868503E3,3.6856482E3,1.6464426E4,3.8026793E4,4.8471367E3,2.2467822E4,4.2630923E3,7.590831E3,6.672649E3,2.2383145E3,6.1495464E3,8.687922E2],"tree_param":{"num_deleted":"0","num_feature":"36","num_nodes":"31","size_leaf_vector":"1"}},{"base_weights":[1.276346E-3,-1.2968388E-1,1.10359274E-1,-2.1538542E-1,-8.154745E-2,5.9050627E-2,3.0750686E-1,-2.9034334E-1,-1.845711E-1,1.2592037E-1,-1.0082467E-1,4.5742025E-3,1.429588E-1,2.6942164E-1,6.012837E-1,1.921188E-2,-8.821803E-3,-5.784003E-3,2.810157E-4,9.70276E-3,1.7106644E-3,-1.3966172E-3,-3.7566272E-3,2.7946306E-3,-5.372339E-4,3.4550873E-3,8.2177855E-3,6.616347E-3,1.248104E-2,5.1635024E-3,2.0705165E-2],"categories":[],"categories_nodes":[],"categories_segments":[],"categories_sizes":[],"default_left":[0,0,0,0,0,0,0,0,0,1,0,0,0,0,0,0,0,0,0,0,0,0,0,0,0,0,0,0,0,0,0],"id":23,"left_children":[1,3,5,7,9,11,13,15,17,19,21,23,25,27,29,-1,-1,-1,-1,-1,-1,-1,-1,-1,-1,-1,-1,-1,-1,-1,-1],"loss_changes":[2.0000703E3,2.6245203E2,7.7262836E2,5.2799316E1,1.6295667E2,2.77052E2,1.76323E2,2.3242981E1,2.5885681E1,4.712175E1,4.93515E1,7.31913E1,8.680646E1,9.998303E1,6.890662E1,0E0,0E0,0E0,0E0,0E0,0E0,0E0,0E0,0E0,0E0,0E0,0E0,0E0,0E0,0E0,0E0],"parents":[2147483647,0,0,1,1,2,2,3,3,4,4,5,5,6,6,7,7,8,8,9,9,10,10,11,11,12,12,13,13,14,14],"right_children":[2,4,6,8,10,12,14,16,18,20,22,24,26,28,30,-1,-1,-1,-1,-1,-1,-1,-1,-1,-1,-1,-1,-1,-1,-1,-1],"split_conditions":[1.2256099E1,-1.6900162E2,2.6E0,-3.3405234E2,1.9E1,1.8865926E2,5.111111E0,8E0,3.4E0,3.75E-1,1.54E2,8.3E1,4.087898E2,3.66777E2,1E1,1.921188E-2,-8.821803E-3,-5.784003E-3,2.810157E-4,9.70276E-3,1.7106644E-3,-1.3966172E-3,-3.7566272E-3,2.7946306E-3,-5.372339E-4,3.4550873E-3,8.2177855E-3,6.616347E-3,1.248104E-2,5.1635024E-3,2.0705165E-2],"split_indices":[2,2,14,2,6,2,20,6,18,16,6,6,2,2,5,0,0,0,0,0,0,0,0,0,0,0,0,0,0,0,0],"split_type":[0,0,0,0,0,0,0,0,0,0,0,0,0,0,0,0,0,0,0,0,0,0,0,0,0,0,0,0,0,0,0],"sum_hessian":[1.4000475E5,6.3622344E4,7.638241E4,2.2881287E4,4.074106E4,6.0609723E4,1.5772685E4,6.663486E3,1.6217801E4,3.46322E3,3.7277836E4,3.6750766E4,2.3858959E4,1.3964273E4,1.8084113E3,2.5822414E1,6.6376636E3,1.5557679E4,6.601225E2,8.9471594E2,2.5685042E3,1.1561519E4,2.5716318E4,7.438718E3,2.9312047E4,1.9684166E4,4.174793E3,1.0474777E4,3.489496E3,3.1079294E2,1.4976184E3],"tree_param":{"num_deleted":"0","num_feature":"36","num_nodes":"31","size_leaf_vector":"1"}},{"base_weights":[-6.862175E-5,-1.2887411E-1,1.0717309E-1,-2.1825539E-1,-8.160258E-2,5.346507E-2,2.9141003E-1,-2.976381E-1,-1.8753554E-1,-8.96817E-2,2.6060596E-1,4.3319287E-3,1.3392952E-1,1.8959902E-1,4.203575E-1,-9.050733E-3,1.8553892E-2,1.1582005E-2,-5.710318E-3,-1.0390354E-3,-3.578982E-3,1.7607175E-2,5.384743E-3,1.8680764E-3,-8.4010145E-4,3.1159692E-3,7.4132904E-3,4.0374952E-3,8.085366E-3,1.0588804E-2,2.0326981E-2],"categories":[],"categories_nodes":[],"categories_segments":[],"categories_sizes":[],"default_left":[0,0,0,0,0,0,0,1,1,0,0,0,0,0,0,0,0,0,0,0,0,0,0,0,0,0,0,0,0,0,0],"id":24,"left_children":[1,3,5,7,9,11,13,15,17,19,21,23,25,27,29,-1,-1,-1,-1,-1,-1,-1,-1,-1,-1,-1,-1,-1,-1,-1,-1],"loss_changes":[1.9331322E3,2.686245E2,7.5562427E2,5.357837E1,1.1500482E2,2.3376834E2,2.2620935E2,2.2964966E1,2.5622314E1,6.6237885E1,2.5289375E1,6.8781815E1,7.62525E1,4.2318237E1,1.3157898E2,0E0,0E0,0E0,0E0,0E0,0E0,0E0,0E0,0E0,0E0,0E0,0E0,0E0,0E0,0E0,0E0],"parents":[2147483647,0,0,1,1,2,2,3,3,4,4,5,5,6,6,7,7,8,8,9,9,10,10,11,11,12,12,13,13,14,14],"right_children":[2,4,6,8,10,12,14,16,18,20,22,24,26,28,30,-1,-1,-1,-1,-1,-1,-1,-1,-1,-1,-1,-1,-1,-1,-1,-1],"split_conditions":[1.2256099E1,-1.7567865E2,2.3333333E0,-3.437192E2,3.9E0,1.9180984E2,3.4E0,3E0,2E-1,1.5301936E3,1.6666666E0,1.5192605E3,3.855313E2,1.75E0,5.111111E0,-9.050733E-3,1.8553892E-2,1.1582005E-2,-5.710318E-3,-1.0390354E-3,-3.578982E-3,1.7607175E-2,5.384743E-3,1.8680764E-3,-8.4010145E-4,3.1159692E-3,7.4132904E-3,4.0374952E-3,8.085366E-3,1.0588804E-2,2.0326981E-2],"split_indices":[2,2,20,2,20,2,26,20,16,30,13,30,2,26,20,0,0,0,0,0,0,0,0,0,0,0,0,0,0,0,0],"split_type":[0,0,0,0,0,0,0,0,0,0,0,0,0,0,0,0,0,0,0,0,0,0,0,0,0,0,0,0,0,0,0],"sum_hessian":[1.3994494E5,6.358014E4,7.6364805E4,2.199267E4,4.158747E4,5.912903E4,1.7235773E4,6.133776E3,1.5858894E4,4.0629008E4,9.584624E2,3.6712645E4,2.2416389E4,9.632704E3,7.6030693E3,6.107426E3,2.635001E1,7.660315E1,1.578229E4,1.421371E4,2.6415297E4,1.8958447E2,7.688779E2,1.3150001E4,2.3562643E4,1.771318E4,4.703209E3,5.706662E3,3.9260413E3,6.026337E3,1.5767323E3],"tree_param":{"num_deleted":"0","num_feature":"36","num_nodes":"31","size_leaf_vector":"1"}},{"base_weights":[5.600978E-4,-1.0526577E-1,1.3343902E-1,-1.876872E-1,-4.7336716E-2,5.5053264E-2,2.6701608E-1,-2.7315396E-1,-1.5268138E-1,1.1218672E-1,-7.501261E-2,1.9638995E-2,1.5572257E-1,1.7519249E-1,3.7366107E-1,-1.0091734E-2,-7.117821E-3,4.5163017E-3,-4.803149E-3,7.3701604E-3,1.8382618E-3,-5.7069986E-4,-2.9056764E-3,-1.0502017E-3,1.2320557E-3,3.987669E-3,9.141835E-3,4.3075457E-3,7.7723665E-3,1.0306928E-2,2.1E-2],"categories":[],"categories_nodes":[],"categories_segments":[],"categories_sizes":[],"default_left":[0,0,0,0,0,0,0,0,0,0,0,0,0,0,0,0,0,0,0,0,0,0,0,0,0,0,0,0,0,0,0],"id":25,"left_children":[1,3,5,7,9,11,13,15,17,19,21,23,25,27,29,-1,-1,-1,-1,-1,-1,-1,-1,-1,-1,-1,-1,-1,-1,-1,-1],"loss_changes":[1.9644023E3,3.7128186E2,6.484441E2,9.598535E1,2.0163261E2,1.3914423E2,2.242091E2,2.1085815E1,5.1285156E1,4.587171E1,4.759369E1,3.3813892E1,3.446649E1,3.259787E1,1.2542847E2,0E0,0E0,0E0,0E0,0E0,0E0,0E0,0E0,0E0,0E0,0E0,0E0,0E0,0E0,0E0,0E0],"parents":[2147483647,0,0,1,1,2,2,3,3,4,4,5,5,6,6,7,7,8,8,9,9,10,10,11,11,12,12,13,13,14,14],"right_children":[2,4,6,8,10,12,14,16,18,20,22,24,26,28,30,-1,-1,-1,-1,-1,-1,-1,-1,-1,-1,-1,-1,-1,-1,-1,-1],"split_conditions":[5.130281E1,-9.276089E1,2E0,-2.2608409E2,4.3E1,1.9998036E2,2.75E0,-3.2247278E2,1.4E1,5E0,1.61E2,4E1,3.5472577E2,2.3977353E2,5.351417E2,-1.0091734E-2,-7.117821E-3,4.5163017E-3,-4.803149E-3,7.3701604E-3,1.8382618E-3,-5.7069986E-4,-2.9056764E-3,-1.0502017E-3,1.2320557E-3,3.987669E-3,9.141835E-3,4.3075457E-3,7.7723665E-3,1.0306928E-2,2.1E-2],"split_indices":[31,31,20,31,6,31,26,31,6,6,6,32,31,31,31,0,0,0,0,0,0,0,0,0,0,0,0,0,0,0,0],"split_type":[0,0,0,0,0,0,0,0,0,0,0,0,0,0,0,0,0,0,0,0,0,0,0,0,0,0,0,0,0,0,0],"sum_hessian":[1.3969353E5,7.7762805E4,6.193073E4,3.2095334E4,4.5667473E4,3.902908E4,2.2901652E4,9.323995E3,2.2771338E4,6.7511113E3,3.891636E4,2.887307E4,1.0156009E4,1.230738E4,1.0594271E4,3.3730095E3,5.9509863E3,5.437086E2,2.2227629E4,1.8629042E3,4.888207E3,1.0922183E4,2.7994178E4,8.1330356E3,2.0740035E4,8.809849E3,1.3461594E3,8.941148E3,3.366232E3,9.871643E3,7.2262866E2],"tree_param":{"num_deleted":"0","num_feature":"36","num_nodes":"31","size_leaf_vector":"1"}},{"base_weights":[1.9904017E-3,-9.146747E-2,1.505797E-1,-2.0332362E-1,-4.629052E-2,3.284746E-1,9.6900724E-2,-3.38287E-1,-1.8232858E-1,8.64839E-2,-7.425035E-2,2.717223E-1,5.855994E-1,4.986585E-2,1.7953587E-1,-1.02938935E-2,1.3984192E-2,1.2103856E-3,-5.7257162E-3,7.6057753E-3,1.4053547E-3,-3.381515E-3,-1.1809566E-3,6.632358E-3,1.2884981E-2,2.1E-2,1.2603308E-2,3.9444998E-4,2.7762123E-3,3.9849537E-3,8.848869E-3],"categories":[],"categories_nodes":[],"categories_segments":[],"categories_sizes":[],"default_left":[0,0,0,0,0,0,0,0,0,0,0,0,0,0,1,0,0,0,0,0,0,0,0,0,0,0,0,0,0,0,0],"id":26,"left_children":[1,3,5,7,9,11,13,15,17,19,21,23,25,27,29,-1,-1,-1,-1,-1,-1,-1,-1,-1,-1,-1,-1,-1,-1,-1,-1],"loss_changes":[1.9360077E3,4.3247272E2,5.139967E2,6.9704285E1,2.2632384E2,1.8191443E2,1.607197E2,1.3067566E1,4.0475952E1,7.020789E1,6.757373E1,8.159192E1,5.9853638E1,4.129389E1,8.082144E1,0E0,0E0,0E0,0E0,0E0,0E0,0E0,0E0,0E0,0E0,0E0,0E0,0E0,0E0,0E0,0E0],"parents":[2147483647,0,0,1,1,2,2,3,3,4,4,5,5,6,6,7,7,8,8,9,9,10,10,11,11,12,12,13,13,14,14],"right_children":[2,4,6,8,10,12,14,16,18,20,22,24,26,28,30,-1,-1,-1,-1,-1,-1,-1,-1,-1,-1,-1,-1,-1,-1,-1,-1],"split_conditions":[7.676898E1,-1.2470421E2,1.4190148E3,-3.2247278E2,5.7E1,4.108601E2,2E0,3E0,2.6E1,5E0,-1.9950138E1,1.5820613E3,7.9E1,1.5265562E2,2.142857E0,-1.02938935E-2,1.3984192E-2,1.2103856E-3,-5.7257162E-3,7.6057753E-3,1.4053547E-3,-3.381515E-3,-1.1809566E-3,6.632358E-3,1.2884981E-2,2.1E-2,1.2603308E-2,3.9444998E-4,2.7762123E-3,3.9849537E-3,8.848869E-3],"split_indices":[31,31,30,31,6,31,26,20,6,6,31,3,6,31,17,0,0,0,0,0,0,0,0,0,0,0,0,0,0,0,0],"split_type":[0,0,0,0,0,0,0,0,0,0,0,0,0,0,0,0,0,0,0,0,0,0,0,0,0,0,0,0,0,0,0],"sum_hessian":[1.3941112E5,8.5582734E4,5.3828387E4,2.4620342E4,6.096239E4,1.2476271E4,4.1352117E4,3.312343E3,2.1308E4,1.0604082E4,5.035831E4,1.0222114E4,2.254157E3,2.635359E4,1.4998525E4,3.2930916E3,1.9251457E1,7.8587244E2,2.0522127E4,2.0326941E3,8.571388E3,2.3948621E4,2.6409688E4,7.740084E3,2.4820305E3,1.1081061E3,1.146051E3,1.4166196E4,1.2187395E4,1.0679512E4,4.3190137E3],"tree_param":{"num_deleted":"0","num_feature":"36","num_nodes":"31","size_leaf_vector":"1"}},{"base_weights":[9.076171E-4,-8.07355E-2,1.6111788E-1,-2.0328465E-1,-3.6648635E-2,1.0301022E-1,3.2183602E-1,-3.311439E-1,-1.7977983E-1,8.9740664E-2,-6.858934E-2,5.5824526E-2,1.954282E-1,2.864627E-1,6.739834E-1,6.808157E-3,-1.006362E-2,6.262256E-3,-5.5704303E-3,1.1079252E-3,6.2385267E-3,-3.100152E-3,-8.641357E-4,4.331387E-3,1.1128621E-3,5.071727E-3,9.405421E-3,7.820675E-3,1.6782377E-2,5.366277E-3,2.1E-2],"categories":[],"categories_nodes":[],"categories_segments":[],"categories_sizes":[],"default_left":[0,0,0,0,0,0,0,0,0,0,0,0,0,0,0,0,0,0,0,0,0,0,0,0,0,0,0,0,0,0,0],"id":27,"left_children":[1,3,5,7,9,11,13,15,17,19,21,23,25,27,29,-1,-1,-1,-1,-1,-1,-1,-1,-1,-1,-1,-1,-1,-1,-1,-1],"loss_changes":[1.8263972E3,4.9973132E2,4.401681E2,7.348486E1,2.7462323E2,1.5096378E2,1.5571582E2,9.21405E0,4.743799E1,8.566405E1,7.507013E1,3.8009583E1,3.638501E1,7.987891E1,3.9946167E1,0E0,0E0,0E0,0E0,0E0,0E0,0E0,0E0,0E0,0E0,0E0,0E0,0E0,0E0,0E0,0E0],"parents":[2147483647,0,0,1,1,2,2,3,3,4,4,5,5,6,6,7,7,8,8,9,9,10,10,11,11,12,12,13,13,14,14],"right_children":[2,4,6,8,10,12,14,16,18,20,22,24,26,28,30,-1,-1,-1,-1,-1,-1,-1,-1,-1,-1,-1,-1,-1,-1,-1,-1],"split_conditions":[9.94458E1,-1.2470421E2,2.6E0,-3.1096442E2,6.7E1,2.1844891E2,6.2E0,5E0,1E1,2.6E0,1.3106054E0,1.43E2,3.698801E2,4.7549918E2,1.4061973E3,6.808157E-3,-1.006362E-2,6.262256E-3,-5.5704303E-3,1.1079252E-3,6.2385267E-3,-3.100152E-3,-8.641357E-4,4.331387E-3,1.1128621E-3,5.071727E-3,9.405421E-3,7.820675E-3,1.6782377E-2,5.366277E-3,2.1E-2],"split_indices":[31,31,14,31,6,31,14,6,6,14,31,5,31,31,29,0,0,0,0,0,0,0,0,0,0,0,0,0,0,0,0],"split_type":[0,0,0,0,0,0,0,0,0,0,0,0,0,0,0,0,0,0,0,0,0,0,0,0,0,0,0,0,0,0,0],"sum_hessian":[1.3963012E5,9.2495125E4,4.7134996E4,2.4470463E4,6.8024664E4,3.4619832E4,1.2515165E4,3.7979067E3,2.0672557E4,1.3722589E4,5.4302074E4,2.2919477E4,1.1700356E4,1.1374415E4,1.1407499E3,2.8710955E1,3.7691958E3,3.087805E2,2.0363775E4,9.486054E3,4.2365347E3,2.8984598E4,2.5317477E4,3.999994E3,1.8919482E4,9.5664375E3,2.133919E3,1.039483E4,9.795858E2,1.507431E2,9.900067E2],"tree_param":{"num_deleted":"0","num_feature":"36","num_nodes":"31","size_leaf_vector":"1"}},{"base_weights":[1.1706795E-3,-1.01642966E-1,1.2730262E-1,-2.0045657E-1,-5.654522E-2,7.780121E-2,2.9016382E-1,-3.2720023E-1,-1.773173E-1,1.7537637E-1,-7.3611066E-2,4.286986E-2,1.8686846E-1,2.6727962E-1,7E-1,-9.912494E-3,1.7473E-2,1.5248506E-3,-5.5760294E-3,1.7998492E-3,8.593402E-3,-5.2030955E-4,-3.010422E-3,3.5118102E-3,6.2020996E-4,4.861028E-3,9.383076E-3,7.3052216E-3,1.7649423E-2,2.1E-2,1.3291162E-2],"categories":[],"categories_nodes":[],"categories_segments":[],"categories_sizes":[],"default_left":[0,0,0,0,0,0,0,1,0,0,0,0,0,0,0,0,0,0,0,0,0,0,0,0,0,0,0,0,0,0,0],"id":28,"left_children":[1,3,5,7,9,11,13,15,17,19,21,23,25,27,29,-1,-1,-1,-1,-1,-1,-1,-1,-1,-1,-1,-1,-1,-1,-1,-1],"loss_changes":[1.8059222E3,3.4187982E2,5.0414697E2,7.045087E1,2.0851878E2,1.8271933E2,1.5275891E2,1.1047699E1,3.9672485E1,4.626026E1,7.381894E1,5.9821106E1,3.63255E1,1.0589502E2,9.101868E0,0E0,0E0,0E0,0E0,0E0,0E0,0E0,0E0,0E0,0E0,0E0,0E0,0E0,0E0,0E0,0E0],"parents":[2147483647,0,0,1,1,2,2,3,3,4,4,5,5,6,6,7,7,8,8,9,9,10,10,11,11,12,12,13,13,14,14],"right_children":[2,4,6,8,10,12,14,16,18,20,22,24,26,28,30,-1,-1,-1,-1,-1,-1,-1,-1,-1,-1,-1,-1,-1,-1,-1,-1],"split_conditions":[5.130281E1,-1.2470421E2,2.4444444E0,-3.1096442E2,1.3E1,2.1844891E2,5.351417E2,3E0,2.6E1,1E1,1.54E2,1.03E2,3.698801E2,6.111111E0,1.36E2,-9.912494E-3,1.7473E-2,1.5248506E-3,-5.5760294E-3,1.7998492E-3,8.593402E-3,-5.2030955E-4,-3.010422E-3,3.5118102E-3,6.2020996E-4,4.861028E-3,9.383076E-3,7.3052216E-3,1.7649423E-2,2.1E-2,1.3291162E-2],"split_indices":[31,31,20,31,6,31,31,20,6,5,6,6,31,20,6,0,0,0,0,0,0,0,0,0,0,0,0,0,0,0,0],"split_type":[0,0,0,0,0,0,0,0,0,0,0,0,0,0,0,0,0,0,0,0,0,0,0,0,0,0,0,0,0,0,0],"sum_hessian":[1.3925698E5,7.672032E4,6.2536668E4,2.4040896E4,5.2679418E4,4.79606E4,1.4576069E4,3.7094602E3,2.0331436E4,3.610064E3,4.9069355E4,3.6327312E4,1.1633286E4,1.3893468E4,6.826017E2,3.6970254E3,1.2434972E1,7.3426953E2,1.9597166E4,1.7714246E3,1.8386393E3,1.5806258E4,3.3263098E4,8.364571E3,2.7962742E4,9.718566E3,1.91472E3,1.2937239E4,9.5622845E2,5.383345E2,1.4426723E2],"tree_param":{"num_deleted":"0","num_feature":"36","num_nodes":"31","size_leaf_vector":"1"}},{"base_weights":[-5.248272E-4,-1.00988604E-1,1.2168398E-1,-2.0061757E-1,-5.8216777E-2,7.4363865E-2,2.746253E-1,-3.1659174E-1,-1.7503461E-1,1.5692188E-1,-7.385131E-2,3.3272315E-2,1.6975763E-1,2.4571772E-1,5.949537E-1,1.8518409E-2,-9.655964E-3,-5.8542853E-3,-2.2864458E-3,-4.30663E-4,6.427411E-3,-6.780666E-4,-2.9658217E-3,2.9483696E-3,2.7160547E-4,4.2641507E-3,8.854787E-3,5.87124E-3,1.1170778E-2,-5.4586196E-4,1.9291935E-2],"categories":[],"categories_nodes":[],"categories_segments":[],"categories_sizes":[],"default_left":[0,0,0,0,0,0,0,0,0,0,0,0,0,0,0,0,0,0,0,0,0,0,0,0,0,0,0,0,0,0,0],"id":29,"left_children":[1,3,5,7,9,11,13,15,17,19,21,23,25,27,29,-1,-1,-1,-1,-1,-1,-1,-1,-1,-1,-1,-1,-1,-1,-1,-1],"loss_changes":[1.7211482E3,3.2784595E2,4.5772034E2,6.8507996E1,1.8107468E2,1.8934268E2,1.3824048E2,2.0761108E1,3.761023E1,3.5813484E1,6.431915E1,5.3154774E1,5.032724E1,8.6752625E1,3.6482178E1,0E0,0E0,0E0,0E0,0E0,0E0,0E0,0E0,0E0,0E0,0E0,0E0,0E0,0E0,0E0,0E0],"parents":[2147483647,0,0,1,1,2,2,3,3,4,4,5,5,6,6,7,7,8,8,9,9,10,10,11,11,12,12,13,13,14,14],"right_children":[2,4,6,8,10,12,14,16,18,20,22,24,26,28,30,-1,-1,-1,-1,-1,-1,-1,-1,-1,-1,-1,-1,-1,-1,-1,-1],"split_conditions":[5.130281E1,-1.294745E2,2.6E0,-2.998692E2,1.3E1,1.9998036E2,6.2E0,8E0,2.4285715E0,1.5E0,1.54E2,1.18E2,3.5472577E2,3.0283084E2,7E0,1.8518409E-2,-9.655964E-3,-5.8542853E-3,-2.2864458E-3,-4.30663E-4,6.427411E-3,-6.780666E-4,-2.9658217E-3,2.9483696E-3,2.7160547E-4,4.2641507E-3,8.854787E-3,5.87124E-3,1.1170778E-2,-5.4586196E-4,1.9291935E-2],"split_indices":[31,31,14,31,6,31,14,6,18,14,6,6,31,31,5,0,0,0,0,0,0,0,0,0,0,0,0,0,0,0,0],"split_type":[0,0,0,0,0,0,0,0,0,0,0,0,0,0,0,0,0,0,0,0,0,0,0,0,0,0,0,0,0,0,0],"sum_hessian":[1.4018452E5,7.6937195E4,6.3247324E4,2.3107926E4,5.382927E4,4.8303645E4,1.4943681E4,4.1741304E3,1.8933795E4,3.6462385E3,5.018303E4,3.3761836E4,1.4541807E4,1.3708356E4,1.2353246E3,2.2787954E1,4.151343E3,1.5731676E4,3.2021191E3,9.145314E2,2.731707E3,1.6458441E4,3.372459E4,9.16327E3,2.4598568E4,1.1918859E4,2.622947E3,9.829366E3,3.8789902E3,8.9922874E1,1.1454017E3],"tree_param":{"num_deleted":"0","num_feature":"36","num_nodes":"31","size_leaf_vector":"1"}},{"base_weights":[2.5988037E-3,-1.1742002E-1,9.92558E-2,1.6383678E-2,-1.4609179E-1,3.439703E-2,2.2222264E-1,2.6666865E-1,-1.291489E-2,-2.2275192E-1,-1.0862809E-1,-7.7877357E-3,1.05822034E-1,1.3771309E-1,3.2162154E-1,1.1258396E-2,2.049822E-3,-1.494467E-3,1.7926041E-3,-9.932784E-3,-5.9478167E-3,-2.689828E-3,-4.9126903E-3,-1.1242605E-3,1.1271958E-3,2.587113E-3,7.152495E-3,2.9299024E-3,6.2384154E-3,7.779063E-3,1.5004416E-2],"categories":[],"categories_nodes":[],"categories_segments":[],"categories_sizes":[],"default_left":[0,0,0,1,0,0,0,0,0,0,0,0,0,0,0,0,0,0,0,0,0,0,0,0,0,0,0,0,0,0,0],"id":30,"left_children":[1,3,5,7,9,11,13,15,17,19,21,23,25,27,29,-1,-1,-1,-1,-1,-1,-1,-1,-1,-1,-1,-1,-1,-1,-1,-1],"loss_changes":[1.6165215E3,2.3847815E2,6.1558624E2,8.04496E1,1.4699805E2,1.522612E2,2.2384644E2,2.4740814E1,2.6340153E1,4.452234E1,3.594342E1,4.2785824E1,4.870645E1,4.0505188E1,1.3612439E2,0E0,0E0,0E0,0E0,0E0,0E0,0E0,0E0,0E0,0E0,0E0,0E0,0E0,0E0,0E0,0E0],"parents":[2147483647,0,0,1,1,2,2,3,3,4,4,5,5,6,6,7,7,8,8,9,9,10,10,11,11,12,12,13,13,14,14],"right_children":[2,4,6,8,10,12,14,16,18,20,22,24,26,28,30,-1,-1,-1,-1,-1,-1,-1,-1,-1,-1,-1,-1,-1,-1,-1,-1],"split_conditions":[1.2256099E1,7.9E1,2E0,3.75E-1,-1.9609253E2,1.8865926E2,2.75E0,3.25E0,-4.2930782E1,-4.1773483E2,1E0,1E0,4.222096E2,2.4290976E2,4.25E0,1.1258396E-2,2.049822E-3,-1.494467E-3,1.7926041E-3,-9.932784E-3,-5.9478167E-3,-2.689828E-3,-4.9126903E-3,-1.1242605E-3,1.1271958E-3,2.587113E-3,7.152495E-3,2.9299024E-3,6.2384154E-3,7.779063E-3,1.5004416E-2],"split_indices":[2,6,20,16,2,2,26,13,2,2,0,26,2,2,14,0,0,0,0,0,0,0,0,0,0,0,0,0,0,0,0],"split_type":[0,0,0,0,0,0,0,0,0,0,0,0,0,0,0,0,0,0,0,0,0,0,0,0,0,0,0,0,0,0,0],"sum_hessian":[1.3934538E5,6.2160535E4,7.7184836E4,1.0969442E4,5.1191094E4,5.0532688E4,2.665215E4,1.1486783E3,9.820764E3,1.6803E4,3.4388094E4,3.1769812E4,1.8762875E4,1.4406252E4,1.2245898E4,7.416568E2,4.0702158E2,6.5135337E3,3.30723E3,3.0957964E3,1.3707204E4,2.5587285E4,8.800808E3,1.9202453E4,1.256736E4,1.6349601E4,2.4132751E3,9.176128E3,5.2301235E3,9.079052E3,3.1668474E3],"tree_param":{"num_deleted":"0","num_feature":"36","num_nodes":"31","size_leaf_vector":"1"}},{"base_weights":[8.257247E-4,-9.6950516E-2,1.188429E-1,-1.9392243E-1,-5.281686E-2,7.112135E-2,2.7137887E-1,-3.0995515E-1,-1.698365E-1,7.5685345E-2,-7.829846E-2,3.7774134E-2,1.8109725E-1,2.4247123E-1,6.086711E-1,-9.481892E-3,1.3088625E-2,4.8196022E-3,-5.281567E-3,7.913193E-3,1.3095692E-3,-1.5569046E-3,-3.5328625E-3,1.9506807E-3,-1.3674946E-4,1.2491198E-2,4.956172E-3,9.565279E-3,4.217278E-3,2.1E-2,1.231379E-2],"categories":[],"categories_nodes":[],"categories_segments":[],"categories_sizes":[],"default_left":[0,0,0,0,0,0,0,0,0,0,0,0,0,0,0,0,0,0,0,0,0,0,0,0,0,0,0,0,0,0,0],"id":31,"left_children":[1,3,5,7,9,11,13,15,17,19,21,23,25,27,29,-1,-1,-1,-1,-1,-1,-1,-1,-1,-1,-1,-1,-1,-1,-1,-1],"loss_changes":[1.6122845E3,3.270185E2,4.6081537E2,6.674072E1,1.7196321E2,1.7684557E2,1.4694556E2,1.885785E1,4.068878E1,5.2350815E1,4.565555E1,4.268449E1,4.1881042E1,1.0809827E2,3.8613556E1,0E0,0E0,0E0,0E0,0E0,0E0,0E0,0E0,0E0,0E0,0E0,0E0,0E0,0E0,0E0,0E0],"parents":[2147483647,0,0,1,1,2,2,3,3,4,4,5,5,6,6,7,7,8,8,9,9,10,10,11,11,12,12,13,13,14,14],"right_children":[2,4,6,8,10,12,14,16,18,20,22,24,26,28,30,-1,-1,-1,-1,-1,-1,-1,-1,-1,-1,-1,-1,-1,-1,-1,-1],"split_conditions":[5.130281E1,-1.2470421E2,2.6E0,-2.998692E2,5.2E1,2.261538E2,4.7549918E2,3E0,1.4E1,3E0,3.43E2,1.5571536E3,3.7E1,7.9E1,8.6E1,-9.481892E-3,1.3088625E-2,4.8196022E-3,-5.281567E-3,7.913193E-3,1.3095692E-3,-1.5569046E-3,-3.5328625E-3,1.9506807E-3,-1.3674946E-4,1.2491198E-2,4.956172E-3,9.565279E-3,4.217278E-3,2.1E-2,1.231379E-2],"split_indices":[31,31,14,31,6,31,31,20,6,6,6,30,6,6,6,0,0,0,0,0,0,0,0,0,0,0,0,0,0,0,0],"split_type":[0,0,0,0,0,0,0,0,0,0,0,0,0,0,0,0,0,0,0,0,0,0,0,0,0,0,0,0,0,0,0],"sum_hessian":[1.3971945E5,7.641251E4,6.3306945E4,2.3898518E4,5.2513992E4,4.822196E4,1.5084985E4,4.1060347E3,1.9792482E4,8.689812E3,4.382418E4,3.7003113E4,1.121885E4,1.3895767E4,1.1892185E3,4.0732717E3,3.2763E1,3.6491968E2,1.9427562E4,1.2635308E3,7.426281E3,2.6258947E4,1.7565232E4,2.2512027E4,1.4491084E4,7.082289E2,1.0510621E4,7.941451E3,5.954316E3,6.0535596E2,5.838625E2],"tree_param":{"num_deleted":"0","num_feature":"36","num_nodes":"31","size_leaf_vector":"1"}},{"base_weights":[6.375632E-4,-1.06092535E-1,1.10615686E-1,-1.939322E-1,-6.1909255E-2,6.343608E-2,2.6719195E-1,-3.214096E-1,-1.7115316E-1,5.072581E-2,-9.09788E-2,2.973831E-2,1.7101009E-1,1.7582493E-1,3.7545106E-1,-9.784591E-3,7.311875E-3,7.069519E-3,-5.271735E-3,1.2166509E-3,1.5642716E-2,-2.1041373E-3,-4.2002317E-3,1.6123346E-3,-9.4340864E-4,4.2393757E-3,8.494171E-3,2.9945727E-3,7.075422E-3,9.624077E-3,1.6812209E-2],"categories":[],"categories_nodes":[],"categories_segments":[],"categories_sizes":[],"default_left":[0,0,0,0,0,0,0,0,0,1,0,0,0,0,1,0,0,0,0,0,0,0,0,0,0,0,0,0,0,0,0],"id":32,"left_children":[1,3,5,7,9,11,13,15,17,19,21,23,25,27,29,-1,-1,-1,-1,-1,-1,-1,-1,-1,-1,-1,-1,-1,-1,-1,-1],"loss_changes":[1.633562E3,2.740962E2,5.063136E2,6.8579346E1,1.5386972E2,1.909315E2,1.5691357E2,9.681946E0,3.7336304E1,4.6132706E1,3.815738E1,5.8915276E1,4.179669E1,3.9249268E1,7.323035E1,0E0,0E0,0E0,0E0,0E0,0E0,0E0,0E0,0E0,0E0,0E0,0E0,0E0,0E0,0E0,0E0],"parents":[2147483647,0,0,1,1,2,2,3,3,4,4,5,5,6,6,7,7,8,8,9,9,10,10,11,11,12,12,13,13,14,14],"right_children":[2,4,6,8,10,12,14,16,18,20,22,24,26,28,30,-1,-1,-1,-1,-1,-1,-1,-1,-1,-1,-1,-1,-1,-1,-1,-1],"split_conditions":[3.5101826E1,-1.2470421E2,2.6E0,-3.1096442E2,6.9E1,2.1497311E2,3.4E0,3E0,8E0,5.6E0,4.36E2,1E0,3.5472577E2,1.4285715E0,5E0,-9.784591E-3,7.311875E-3,7.069519E-3,-5.271735E-3,1.2166509E-3,1.5642716E-2,-2.1041373E-3,-4.2002317E-3,1.6123346E-3,-9.4340864E-4,4.2393757E-3,8.494171E-3,2.9945727E-3,7.075422E-3,9.624077E-3,1.6812209E-2],"split_indices":[31,31,14,31,6,31,26,20,6,14,6,0,31,17,20,0,0,0,0,0,0,0,0,0,0,0,0,0,0,0,0],"split_type":[0,0,0,0,0,0,0,0,0,0,0,0,0,0,0,0,0,0,0,0,0,0,0,0,0,0,0,0,0,0,0],"sum_hessian":[1.3916697E5,7.062642E4,6.854055E4,2.363496E4,4.6991457E4,5.267109E4,1.586946E4,3.5810989E3,2.0053861E4,9.639763E3,3.7351695E4,4.0108348E4,1.2562742E4,8.607579E3,7.2618813E3,3.551711E3,2.9387878E1,2.2228403E2,1.9831578E4,9.436937E3,2.0282585E2,2.6212072E4,1.1139624E4,2.8806266E4,1.1302081E4,9.933971E3,2.6287712E3,3.799268E3,4.808311E3,5.6077163E3,1.6541649E3],"tree_param":{"num_deleted":"0","num_feature":"36","num_nodes":"31","size_leaf_vector":"1"}},{"base_weights":[6.7119533E-4,-1.0304481E-1,1.06444836E-1,-2.0171082E-1,-6.1823383E-2,7.2932005E-2,3.149433E-1,-3.1485444E-1,-1.7817375E-1,-6.7901075E-2,3.2406056E-1,3.130208E-2,1.6350994E-1,4.455096E-1,2.0933367E-1,-9.605478E-3,7.2057503E-3,-5.7069454E-3,-1.8550551E-3,-5.011551E-4,-2.8976891E-3,2.7523416E-3,1.6797217E-2,1.9413537E-5,2.5332766E-3,3.1878583E-3,7.071234E-3,1.0040631E-2,1.7682184E-2,5.7084775E-3,1.1090863E-2],"categories":[],"categories_nodes":[],"categories_segments":[],"categories_sizes":[],"default_left":[0,0,0,0,0,0,0,0,0,0,0,0,0,0,1,0,0,0,0,0,0,0,0,0,0,0,0,0,0,0,0],"id":33,"left_children":[1,3,5,7,9,11,13,15,17,19,21,23,25,27,29,-1,-1,-1,-1,-1,-1,-1,-1,-1,-1,-1,-1,-1,-1,-1,-1],"loss_changes":[1.5332131E3,2.8698944E2,4.8345496E2,5.5318604E1,1.1675438E2,2.2477985E2,1.3202374E2,1.0662689E1,2.413733E1,7.1969864E1,4.2244415E1,6.6533966E1,7.7558044E1,6.811182E1,1.6117752E1,0E0,0E0,0E0,0E0,0E0,0E0,0E0,0E0,0E0,0E0,0E0,0E0,0E0,0E0,0E0,0E0],"parents":[2147483647,0,0,1,1,2,2,3,3,4,4,5,5,6,6,7,7,8,8,9,9,10,10,11,11,12,12,13,13,14,14],"right_children":[2,4,6,8,10,12,14,16,18,20,22,24,26,28,30,-1,-1,-1,-1,-1,-1,-1,-1,-1,-1,-1,-1,-1,-1,-1,-1],"split_conditions":[3.5101826E1,-1.7567865E2,3.0283084E2,-3.1096442E2,5.4E0,2E0,1.3960101E3,3E0,2.7142856E0,1.5281353E3,8E0,1.4993074E2,1.7142857E0,1.5539816E3,4.3333335E0,-9.605478E-3,7.2057503E-3,-5.7069454E-3,-1.8550551E-3,-5.011551E-4,-2.8976891E-3,2.7523416E-3,1.6797217E-2,1.9413537E-5,2.5332766E-3,3.1878583E-3,7.071234E-3,1.0040631E-2,1.7682184E-2,5.7084775E-3,1.1090863E-2],"split_indices":[31,2,31,31,14,20,30,20,18,30,5,31,17,27,26,0,0,0,0,0,0,0,0,0,0,0,0,0,0,0,0],"split_type":[0,0,0,0,0,0,0,0,0,0,0,0,0,0,0,0,0,0,0,0,0,0,0,0,0,0,0,0,0,0,0],"sum_hessian":[1.3975684E5,7.056479E4,6.9192055E4,2.079258E4,4.977221E4,5.9611754E4,9.580297E3,3.5784502E3,1.721413E4,4.900126E4,7.709488E2,4.0841984E4,1.8769771E4,4.282535E3,5.2977617E3,3.5448447E3,3.3605568E1,1.5596968E4,1.617163E3,1.759818E4,3.1403082E4,3.8908136E2,3.8186743E2,2.5901367E4,1.4940618E4,1.0470138E4,8.299633E3,2.4211846E3,1.8613505E3,4.7371694E3,5.605923E2],"tree_param":{"num_deleted":"0","num_feature":"36","num_nodes":"31","size_leaf_vector":"1"}},{"base_weights":[1.6318677E-3,-1.1300451E-1,9.139545E-2,-1.9929835E-1,-6.647856E-2,3.0504163E-2,2.0519963E-1,-2.8271055E-1,-1.6939834E-1,5.836092E-2,-9.184916E-2,-8.317508E-3,9.752541E-2,1.3847752E-1,3.1243634E-1,-8.583903E-3,1.7055787E-2,-1.4539661E-3,-5.4570907E-3,5.230667E-3,6.0438714E-4,-2.1237575E-3,-4.5666047E-3,-1.1090013E-3,1.0536419E-3,2.3655924E-3,6.533797E-3,2.5604507E-3,5.808314E-3,8.649878E-3,2.0553194E-2],"categories":[],"categories_nodes":[],"categories_segments":[],"categories_sizes":[],"default_left":[0,0,0,0,0,0,0,1,0,0,0,0,0,0,1,0,0,0,0,0,0,0,0,0,0,0,0,0,0,0,0],"id":34,"left_children":[1,3,5,7,9,11,13,15,17,19,21,23,25,27,29,-1,-1,-1,-1,-1,-1,-1,-1,-1,-1,-1,-1,-1,-1,-1,-1],"loss_changes":[1.4363611E3,2.4610028E2,5.4248895E2,5.3504944E1,1.26152145E2,1.3269621E2,1.9519556E2,1.6651306E1,2.389804E1,2.9818235E1,4.2069855E1,4.0191814E1,4.199077E1,4.92601E1,9.3821045E1,0E0,0E0,0E0,0E0,0E0,0E0,0E0,0E0,0E0,0E0,0E0,0E0,0E0,0E0,0E0,0E0],"parents":[2147483647,0,0,1,1,2,2,3,3,4,4,5,5,6,6,7,7,8,8,9,9,10,10,11,11,12,12,13,13,14,14],"right_children":[2,4,6,8,10,12,14,16,18,20,22,24,26,28,30,-1,-1,-1,-1,-1,-1,-1,-1,-1,-1,-1,-1,-1,-1,-1,-1],"split_conditions":[1.2256099E1,-1.6900162E2,2E0,-3.437192E2,5.2E1,1.9180984E2,3.4E0,4E0,7.9E1,6E0,1E0,1E0,4.222096E2,1.5321733E3,7.2E0,-8.583903E-3,1.7055787E-2,-1.4539661E-3,-5.4570907E-3,5.230667E-3,6.0438714E-4,-2.1237575E-3,-4.5666047E-3,-1.1090013E-3,1.0536419E-3,2.3655924E-3,6.533797E-3,2.5604507E-3,5.808314E-3,8.649878E-3,2.0553194E-2],"split_indices":[2,2,20,2,6,2,26,14,6,6,0,26,2,27,14,0,0,0,0,0,0,0,0,0,0,0,0,0,0,0,0],"split_type":[0,0,0,0,0,0,0,0,0,0,0,0,0,0,0,0,0,0,0,0,0,0,0,0,0,0,0,0,0,0,0],"sum_hessian":[1.395837E5,6.1298984E4,7.828472E4,2.1471508E4,3.9827477E4,5.0998875E4,2.7285844E4,5.6635146E3,1.5807993E4,6.726673E3,3.3100805E4,3.229377E4,1.8705104E4,1.682174E4,1.0464105E4,5.6415156E3,2.1999079E1,1.4818549E3,1.4326139E4,1.6660569E3,5.0606157E3,2.4542586E4,8.558219E3,1.9459693E4,1.2834077E4,1.6192734E4,2.5123687E3,8.56784E3,8.253899E3,9.830002E3,6.341035E2],"tree_param":{"num_deleted":"0","num_feature":"36","num_nodes":"31","size_leaf_vector":"1"}},{"base_weights":[-1.9809157E-3,-1.03981055E-1,1.0160246E-1,-1.9059432E-1,-6.137868E-2,1.9563064E-1,3.482278E-2,-3.1734502E-1,-1.682035E-1,5.4390706E-2,-8.561707E-2,1.3802291E-1,3.1489792E-1,3.0916395E-2,4.461865E-1,-9.684949E-3,7.042525E-3,-5.15687E-3,1.0149037E-2,4.9274084E-3,6.996027E-4,-4.1906643E-3,-2.0012765E-3,3.3505415E-3,9.33471E-3,1.3238625E-2,7.2764526E-3,-3.769282E-5,2.3875881E-3,1.492427E-4,2.0521441E-2],"categories":[],"categories_nodes":[],"categories_segments":[],"categories_sizes":[],"default_left":[0,0,0,0,0,0,0,0,0,0,0,0,0,0,0,0,0,0,0,0,0,0,0,0,0,0,0,0,0,0,0],"id":35,"left_children":[1,3,5,7,9,11,13,15,17,19,21,23,25,27,29,-1,-1,-1,-1,-1,-1,-1,-1,-1,-1,-1,-1,-1,-1,-1,-1],"loss_changes":[1.4765319E3,2.5980792E2,4.3537164E2,6.583124E1,1.3244917E2,1.9779028E2,6.513847E1,1.062973E1,3.6958008E1,2.7889168E1,3.989273E1,8.8509766E1,8.564075E1,6.2890537E1,4.001499E1,0E0,0E0,0E0,0E0,0E0,0E0,0E0,0E0,0E0,0E0,0E0,0E0,0E0,0E0,0E0,0E0],"parents":[2147483647,0,0,1,1,2,2,3,3,4,4,5,5,6,6,7,7,8,8,9,9,10,10,11,11,12,12,13,13,14,14],"right_children":[2,4,6,8,10,12,14,16,18,20,22,24,26,28,30,-1,-1,-1,-1,-1,-1,-1,-1,-1,-1,-1,-1,-1,-1,-1,-1],"split_conditions":[3.5101826E1,-1.2470421E2,1.4802026E3,-3.1096442E2,5.5E1,1.55218E3,7.37E2,3E0,3.7E0,5E0,4E1,4.25E0,1.4124905E3,1.4794705E2,2.1111112E0,-9.684949E-3,7.042525E-3,-5.15687E-3,1.0149037E-2,4.9274084E-3,6.996027E-4,-4.1906643E-3,-2.0012765E-3,3.3505415E-3,9.33471E-3,1.3238625E-2,7.2764526E-3,-3.769282E-5,2.3875881E-3,1.492427E-4,2.0521441E-2],"split_indices":[31,31,30,31,6,27,8,20,20,6,32,14,30,31,17,0,0,0,0,0,0,0,0,0,0,0,0,0,0,0,0],"split_type":[0,0,0,0,0,0,0,0,0,0,0,0,0,0,0,0,0,0,0,0,0,0,0,0,0,0,0,0,0,0,0],"sum_hessian":[1.3974806E5,7.041213E4,6.933592E4,2.3213725E4,4.719841E4,2.8792756E4,4.0543164E4,3.4831304E3,1.9730596E4,8.170856E3,3.9027555E4,1.9416486E4,9.376269E3,4.0162844E4,3.8031876E2,3.4492673E3,3.3863018E1,1.9588467E4,1.4212914E2,1.800511E3,6.3703447E3,1.0109765E4,2.8917791E4,1.6854174E4,2.5623132E3,3.411506E3,5.9647627E3,2.4179896E4,1.5982948E4,1.3357329E2,2.4674547E2],"tree_param":{"num_deleted":"0","num_feature":"36","num_nodes":"31","size_leaf_vector":"1"}},{"base_weights":[-2.274605E-4,-7.745354E-2,1.3359682E-1,-1.5564403E-1,-1.9619808E-2,2.5195816E-1,8.272433E-2,-2.548266E-1,-1.261948E-1,5.0558835E-2,-6.155673E-2,1.7928946E-1,3.5285303E-1,1.2645529E-1,4.0718444E-2,-9.539697E-3,-6.563247E-3,-4.3092887E-3,-1.6867722E-4,5.817117E-3,9.021961E-4,-1.2083948E-3,-3.5405883E-3,2.1E-2,5.0388384E-3,1.6556889E-2,8.653769E-3,2.3274997E-3,5.886264E-3,7.673899E-6,2.312205E-3],"categories":[],"categories_nodes":[],"categories_segments":[],"categories_sizes":[],"default_left":[0,0,0,0,0,0,0,0,0,0,0,0,0,0,0,0,0,0,0,0,0,0,0,0,0,0,0,0,0,0,0],"id":36,"left_children":[1,3,5,7,9,11,13,15,17,19,21,23,25,27,29,-1,-1,-1,-1,-1,-1,-1,-1,-1,-1,-1,-1,-1,-1,-1,-1],"loss_changes":[1.4473381E3,4.0156122E2,3.0854065E2,1.10246704E2,1.5023734E2,1.1287677E2,6.583472E1,1.9611572E1,6.1247864E1,5.6065712E1,3.8382217E1,7.244342E1,8.2490906E1,5.984616E1,2.6894594E1,0E0,0E0,0E0,0E0,0E0,0E0,0E0,0E0,0E0,0E0,0E0,0E0,0E0,0E0,0E0,0E0],"parents":[2147483647,0,0,1,1,2,2,3,3,4,4,5,5,6,6,7,7,8,8,9,9,10,10,11,11,12,12,13,13,14,14],"right_children":[2,4,6,8,10,12,14,16,18,20,22,24,26,28,30,-1,-1,-1,-1,-1,-1,-1,-1,-1,-1,-1,-1,-1,-1,-1,-1],"split_conditions":[9.362756E1,-6.400161E1,1.4340277E3,-2.2608409E2,1.44E2,2.8694574E2,1.5192605E3,-3.2247278E2,2.5555556E0,6E0,1E0,4E0,3.7E1,1.7142857E0,1.5480922E2,-9.539697E-3,-6.563247E-3,-4.3092887E-3,-1.6867722E-4,5.817117E-3,9.021961E-4,-1.2083948E-3,-3.5405883E-3,2.1E-2,5.0388384E-3,1.6556889E-2,8.653769E-3,2.3274997E-3,5.886264E-3,7.673899E-6,2.312205E-3],"split_indices":[31,31,30,31,6,31,30,31,18,6,0,6,6,17,31,0,0,0,0,0,0,0,0,0,0,0,0,0,0,0,0],"split_type":[0,0,0,0,0,0,0,0,0,0,0,0,0,0,0,0,0,0,0,0,0,0,0,0,0,0,0,0,0,0,0],"sum_hessian":[1.4004412E5,8.880042E4,5.1243703E4,3.7754758E4,5.104566E4,1.540291E4,3.5840793E4,8.6419E3,2.9112857E4,1.9093596E4,3.1952064E4,8.955536E3,6.4473745E3,1.7558846E4,1.8281947E4,3.1373596E3,5.5045415E3,2.5432322E4,3.6805352E3,2.3864329E3,1.6707164E4,2.3208225E4,8.743841E3,1.1968885E2,8.835847E3,1.5741316E3,4.8732427E3,1.03261E4,7.232746E3,8.652665E3,9.629283E3],"tree_param":{"num_deleted":"0","num_feature":"36","num_nodes":"31","size_leaf_vector":"1"}},{"base_weights":[1.2484555E-3,-9.804403E-2,1.0206497E-1,3.500973E-2,-1.2648864E-1,3.6055177E-2,1.9638343E-1,1.6161962E-1,-7.5978753E-3,-2.6889813E-1,-1.0387643E-1,4.9316534E-3,9.093615E-2,1.6585188E-1,4.2627856E-1,1.6020526E-3,9.50359E-3,-1.7164357E-3,1.7076894E-3,-9.858632E-3,-7.056372E-3,-4.171857E-3,-2.0757704E-3,8.9052494E-4,-1.8803483E-3,2.5973204E-3,1.1112389E-2,8.551159E-3,3.6809754E-3,1.7438857E-2,9.239956E-3],"categories":[],"categories_nodes":[],"categories_segments":[],"categories_sizes":[],"default_left":[0,0,0,0,0,0,0,0,0,0,0,0,0,0,0,0,0,0,0,0,0,0,0,0,0,0,0,0,0,0,0],"id":37,"left_children":[1,3,5,7,9,11,13,15,17,19,21,23,25,27,29,-1,-1,-1,-1,-1,-1,-1,-1,-1,-1,-1,-1,-1,-1,-1,-1],"loss_changes":[1.400405E3,2.6675037E2,4.3216882E2,6.69719E1,1.869599E2,6.975299E1,2.005282E2,5.247296E1,2.974213E1,1.5928772E1,6.1145996E1,4.361356E1,1.7970459E1,1.2973022E2,6.1242676E1,0E0,0E0,0E0,0E0,0E0,0E0,0E0,0E0,0E0,0E0,0E0,0E0,0E0,0E0,0E0,0E0],"parents":[2147483647,0,0,1,1,2,2,3,3,4,4,5,5,6,6,7,7,8,8,9,9,10,10,11,11,12,12,13,13,14,14],"right_children":[2,4,6,8,10,12,14,16,18,20,22,24,26,28,30,-1,-1,-1,-1,-1,-1,-1,-1,-1,-1,-1,-1,-1,-1,-1,-1],"split_conditions":[3.669393E1,7.3E1,2E0,1E1,-2.2608409E2,1.5265562E2,4.108601E2,1.4E1,1.5021249E3,-3.2247278E2,-6.400161E1,1E0,4.5E0,3.5E1,8.3E1,1.6020526E-3,9.50359E-3,-1.7164357E-3,1.7076894E-3,-9.858632E-3,-7.056372E-3,-4.171857E-3,-2.0757704E-3,8.9052494E-4,-1.8803483E-3,2.5973204E-3,1.1112389E-2,8.551159E-3,3.6809754E-3,1.7438857E-2,9.239956E-3],"split_indices":[31,6,26,6,31,31,31,5,27,31,31,0,11,6,6,0,0,0,0,0,0,0,0,0,0,0,0,0,0,0,0],"split_type":[0,0,0,0,0,0,0,0,0,0,0,0,0,0,0,0,0,0,0,0,0,0,0,0,0,0,0,0,0,0,0],"sum_hessian":[1.3989408E5,7.047977E4,6.941431E4,1.2413519E4,5.8066254E4,4.0836105E4,2.8578205E4,3.124921E3,9.288598E3,7.9550767E3,5.0111176E4,2.605893E4,1.4777178E4,2.522931E4,3.3488945E3,1.8417644E3,1.2831566E3,5.250821E3,4.037777E3,2.8656614E3,5.0894155E3,2.4874287E4,2.523689E4,1.9075723E4,6.983207E3,1.4551538E4,2.256401E2,6.704906E3,1.8524406E4,1.4476731E3,1.9012213E3],"tree_param":{"num_deleted":"0","num_feature":"36","num_nodes":"31","size_leaf_vector":"1"}},{"base_weights":[1.3317955E-3,-9.967732E-2,1.01755805E-1,-1.9015203E-1,-5.8979306E-2,3.8183164E-2,1.9506496E-1,-2.565774E-1,-1.4737023E-1,1.0380786E-2,-9.9474475E-2,8.759956E-3,1.3234594E-1,1.502056E-1,3.187308E-1,7.340441E-3,-7.828017E-3,-1.5576328E-3,-5.0683855E-3,4.64306E-3,-2.5313775E-4,-2.1583429E-3,-3.8387557E-3,8.937628E-4,-1.3266673E-3,3.4093873E-3,9.423405E-3,1.2411723E-2,4.0143155E-3,1.5373149E-2,8.101606E-3],"categories":[],"categories_nodes":[],"categories_segments":[],"categories_sizes":[],"default_left":[0,0,0,0,0,0,0,0,0,0,0,0,1,0,0,0,0,0,0,0,0,0,0,0,0,0,0,0,0,0,0],"id":38,"left_children":[1,3,5,7,9,11,13,15,17,19,21,23,25,27,29,-1,-1,-1,-1,-1,-1,-1,-1,-1,-1,-1,-1,-1,-1,-1,-1],"loss_changes":[1.4185671E3,2.5670837E2,4.15976E2,6.143335E1,1.3507396E2,1.1556094E2,1.5759644E2,1.8565857E1,2.709198E1,4.8171726E1,2.380017E1,3.541607E1,3.371753E1,9.0044464E1,7.117731E1,0E0,0E0,0E0,0E0,0E0,0E0,0E0,0E0,0E0,0E0,0E0,0E0,0E0,0E0,0E0,0E0],"parents":[2147483647,0,0,1,1,2,2,3,3,4,4,5,5,6,6,7,7,8,8,9,9,10,10,11,11,12,12,13,13,14,14],"right_children":[2,4,6,8,10,12,14,16,18,20,22,24,26,28,30,-1,-1,-1,-1,-1,-1,-1,-1,-1,-1,-1,-1,-1,-1,-1,-1],"split_conditions":[3.5101826E1,-1.3154529E2,1.9E0,-2.2608409E2,1.54E2,1.9998036E2,2.9444818E2,8E0,1.2E2,6E0,3.67E2,1E0,3.3333333E0,6E0,3.5E1,7.340441E-3,-7.828017E-3,-1.5576328E-3,-5.0683855E-3,4.64306E-3,-2.5313775E-4,-2.1583429E-3,-3.8387557E-3,8.937628E-4,-1.3266673E-3,3.4093873E-3,9.423405E-3,1.2411723E-2,4.0143155E-3,1.5373149E-2,8.101606E-3],"split_indices":[31,31,20,31,6,31,31,6,6,6,6,0,26,6,6,0,0,0,0,0,0,0,0,0,0,0,0,0,0,0,0],"split_type":[0,0,0,0,0,0,0,0,0,0,0,0,0,0,0,0,0,0,0,0,0,0,0,0,0,0,0,0,0,0,0],"sum_hessian":[1.3984456E5,6.971918E4,7.012538E4,2.1630125E4,4.8089055E4,4.1709566E4,2.8415812E4,8.471623E3,1.3158503E4,1.7727004E4,3.036205E4,3.1780234E4,9.929333E3,2.0853494E4,7.56232E3,7.251819E1,8.3991045E3,2.426667E3,1.0731836E4,2.0431981E3,1.5683805E4,1.5441465E4,1.4920587E4,2.274978E4,9.030455E3,9.004592E3,9.2474036E2,1.2200096E3,1.9633484E4,1.5168005E3,6.045519E3],"tree_param":{"num_deleted":"0","num_feature":"36","num_nodes":"31","size_leaf_vector":"1"}},{"base_weights":[5.670178E-4,-1.06076926E-1,8.125179E-2,-1.9045599E-1,-6.430627E-2,2.3520509E-2,1.7153017E-1,-3.032095E-1,-1.7024925E-1,4.891014E-2,-8.843123E-2,6.817044E-2,-1.0612943E-2,1.261953E-1,3.0665588E-1,-9.191659E-3,2.1E-2,1.4730444E-3,-5.3740027E-3,7.4503414E-4,6.4335125E-3,-2.0338453E-3,-4.4394643E-3,4.083226E-4,3.758262E-3,3.5442648E-4,-2.2350182E-3,5.3875754E-3,2.240867E-3,8.705013E-3,2.1E-2],"categories":[],"categories_nodes":[],"categories_segments":[],"categories_sizes":[],"default_left":[0,0,0,0,0,0,0,1,0,0,0,0,0,0,1,0,0,0,0,0,0,0,0,0,0,0,0,0,0,0,0],"id":39,"left_children":[1,3,5,7,9,11,13,15,17,19,21,23,25,27,29,-1,-1,-1,-1,-1,-1,-1,-1,-1,-1,-1,-1,-1,-1,-1,-1],"loss_changes":[1.2025361E3,2.121477E2,4.1466077E2,4.535901E1,1.0998044E2,7.396248E1,1.9006519E2,1.1535706E1,3.295114E1,2.8185575E1,4.0780243E1,6.550721E1,3.9410046E1,6.388321E1,6.3791687E1,0E0,0E0,0E0,0E0,0E0,0E0,0E0,0E0,0E0,0E0,0E0,0E0,0E0,0E0,0E0,0E0],"parents":[2147483647,0,0,1,1,2,2,3,3,4,4,5,5,6,6,7,7,8,8,9,9,10,10,11,11,12,12,13,13,14,14],"right_children":[2,4,6,8,10,12,14,16,18,20,22,24,26,28,30,-1,-1,-1,-1,-1,-1,-1,-1,-1,-1,-1,-1,-1,-1,-1,-1],"split_conditions":[1.2256099E1,-1.7567865E2,2E0,-4.1773483E2,5.5E1,1.5182623E3,3.2E0,3E0,3.7E1,4.2222223E0,1E0,1.4285715E0,1E0,1.4849276E3,8.6E0,-9.191659E-3,2.1E-2,1.4730444E-3,-5.3740027E-3,7.4503414E-4,6.4335125E-3,-2.0338453E-3,-4.4394643E-3,4.083226E-4,3.758262E-3,3.5442648E-4,-2.2350182E-3,5.3875754E-3,2.240867E-3,8.705013E-3,2.1E-2],"split_indices":[2,2,26,2,6,30,14,20,6,20,0,17,0,30,20,0,0,0,0,0,0,0,0,0,0,0,0,0,0,0,0],"split_type":[0,0,0,0,0,0,0,0,0,0,0,0,0,0,0,0,0,0,0,0,0,0,0,0,0,0,0,0,0,0,0],"sum_hessian":[1.3975395E5,6.01936E4,7.956034E4,1.9930107E4,4.0263492E4,4.852854E4,3.1031803E4,3.0267654E3,1.6903344E4,7.07238E3,3.3191113E4,2.1024898E4,2.7503643E4,2.3237516E4,7.794288E3,3.0195398E3,7.2255363E0,6.577966E2,1.6245547E4,6.175399E3,8.96981E2,2.4650893E4,8.540221E3,1.0752702E4,1.0272195E4,2.0357982E4,7.1456616E3,1.1408089E4,1.1829427E4,7.5623657E3,2.3192223E2],"tree_param":{"num_deleted":"0","num_feature":"36","num_nodes":"31","size_leaf_vector":"1"}},{"base_weights":[7.3684944E-4,-1.06289685E-1,8.2044065E-2,-1.8620141E-1,-6.409334E-2,4.827252E-2,2.5180975E-1,-2.631179E-1,-1.562842E-1,7.9021156E-2,-8.423059E-2,-9.7319577E-4,1.0518778E-1,1.6229068E-1,3.3264875E-1,1.3477455E-2,-8.085225E-3,-4.9242633E-3,1.0577153E-3,-4.7436252E-4,4.325578E-3,-1.6741887E-3,-3.6483814E-3,-8.891724E-4,1.4059482E-3,2.5253787E-3,6.5310244E-3,3.2938041E-3,6.9601047E-3,9.4238855E-3,2.1E-2],"categories":[],"categories_nodes":[],"categories_segments":[],"categories_sizes":[],"default_left":[0,0,0,0,0,0,0,0,0,0,0,0,0,0,1,0,0,0,0,0,0,0,0,0,0,0,0,0,0,0,0],"id":40,"left_children":[1,3,5,7,9,11,13,15,17,19,21,23,25,27,29,-1,-1,-1,-1,-1,-1,-1,-1,-1,-1,-1,-1,-1,-1,-1,-1],"loss_changes":[1.2177048E3,2.0369598E2,4.5590454E2,4.7996582E1,1.1395001E2,1.8590723E2,9.542804E1,2.6723633E1,2.2631073E1,3.014394E1,3.6822296E1,4.8767086E1,7.270947E1,2.2895157E1,5.844513E1,0E0,0E0,0E0,0E0,0E0,0E0,0E0,0E0,0E0,0E0,0E0,0E0,0E0,0E0,0E0,0E0],"parents":[2147483647,0,0,1,1,2,2,3,3,4,4,5,5,6,6,7,7,8,8,9,9,10,10,11,11,12,12,13,13,14,14],"right_children":[2,4,6,8,10,12,14,16,18,20,22,24,26,28,30,-1,-1,-1,-1,-1,-1,-1,-1,-1,-1,-1,-1,-1,-1,-1,-1],"split_conditions":[1.2256099E1,-1.6900162E2,2.7142856E0,-3.3405234E2,3.1E1,1.2E0,3.5E0,2.1E1,3.4E0,1.6666666E0,3.03E2,1.5457916E2,3.9623572E2,5.5E1,8.666667E0,1.3477455E-2,-8.085225E-3,-4.9242633E-3,1.0577153E-3,-4.7436252E-4,4.325578E-3,-1.6741887E-3,-3.6483814E-3,-8.891724E-4,1.4059482E-3,2.5253787E-3,6.5310244E-3,3.2938041E-3,6.9601047E-3,9.4238855E-3,2.1E-2],"split_indices":[2,2,20,2,6,26,26,6,18,14,6,2,2,32,20,0,0,0,0,0,0,0,0,0,0,0,0,0,0,0,0],"split_type":[0,0,0,0,0,0,0,0,0,0,0,0,0,0,0,0,0,0,0,0,0,0,0,0,0,0,0,0,0,0,0],"sum_hessian":[1.3993142E5,6.041089E4,7.952054E4,2.0874748E4,3.953614E4,6.6327305E4,1.319323E4,5.8434844E3,1.5031265E4,4.8764585E3,3.4659684E4,3.556007E4,3.0767236E4,6.2619336E3,6.9312964E3,5.1331165E1,5.792153E3,1.4439051E4,5.9221436E2,1.9864164E3,2.890042E3,1.9690266E4,1.4969418E4,2.223603E4,1.332404E4,2.5927744E4,4.839492E3,3.5734927E3,2.688441E3,6.67767E3,2.5362688E2],"tree_param":{"num_deleted":"0","num_feature":"36","num_nodes":"31","size_leaf_vector":"1"}},{"base_weights":[3.4684964E-4,-8.85236E-2,1.01556584E-1,-1.8767443E-1,-4.792703E-2,5.6263134E-2,2.1073006E-1,-3.0545613E-1,-1.6300732E-1,1.6082847E-2,-8.6093396E-2,2.4996324E-2,1.289406E-1,2.8262058E-1,1.3016792E-1,-1.06609855E-2,-8.139336E-3,-5.4909913E-3,-1.9466621E-3,4.243292E-3,-2.4698E-4,-3.4272019E-3,-1.853454E-3,1.359838E-3,-8.3477085E-4,3.2440156E-3,6.821751E-3,7.0973267E-3,1.3585337E-2,2.4585389E-3,7.0177526E-3],"categories":[],"categories_nodes":[],"categories_segments":[],"categories_sizes":[],"default_left":[0,0,0,0,0,0,0,0,0,0,0,0,0,0,0,0,0,0,0,0,0,0,0,0,0,0,0,0,0,0,0],"id":41,"left_children":[1,3,5,7,9,11,13,15,17,19,21,23,25,27,29,-1,-1,-1,-1,-1,-1,-1,-1,-1,-1,-1,-1,-1,-1,-1,-1],"loss_changes":[1.2645316E3,3.0130634E2,3.2501788E2,6.3128784E1,1.2975726E2,1.05568665E2,1.1158917E2,6.3189087E0,3.5321533E1,6.0478374E1,2.2761627E1,3.488856E1,2.8601715E1,7.971185E1,4.5458893E1,0E0,0E0,0E0,0E0,0E0,0E0,0E0,0E0,0E0,0E0,0E0,0E0,0E0,0E0,0E0,0E0],"parents":[2147483647,0,0,1,1,2,2,3,3,4,4,5,5,6,6,7,7,8,8,9,9,10,10,11,11,12,12,13,13,14,14],"right_children":[2,4,6,8,10,12,14,16,18,20,22,24,26,28,30,-1,-1,-1,-1,-1,-1,-1,-1,-1,-1,-1,-1,-1,-1,-1,-1],"split_conditions":[5.130281E1,-1.294745E2,2.3333333E0,-2.998692E2,1.54E2,1.9998036E2,7.8E1,1.2172072E3,2.5E0,1E1,-3.636464E1,1E0,3.5472577E2,3.3100873E2,3.0283084E2,-1.06609855E-2,-8.139336E-3,-5.4909913E-3,-1.9466621E-3,4.243292E-3,-2.4698E-4,-3.4272019E-3,-1.853454E-3,1.359838E-3,-8.3477085E-4,3.2440156E-3,6.821751E-3,7.0973267E-3,1.3585337E-2,2.4585389E-3,7.0177526E-3],"split_indices":[31,31,14,31,6,31,6,3,18,6,31,0,31,31,31,0,0,0,0,0,0,0,0,0,0,0,0,0,0,0,0],"split_type":[0,0,0,0,0,0,0,0,0,0,0,0,0,0,0,0,0,0,0,0,0,0,0,0,0,0,0,0,0,0,0],"sum_hessian":[1.405866E5,7.485654E4,6.5730055E4,2.1744742E4,5.3111797E4,4.6457477E4,1.9272576E4,3.7634517E3,1.7981291E4,1.9839312E4,3.3272484E4,3.2483842E4,1.3973636E4,1.0183082E4,9.089494E3,1.524973E3,2.2384785E3,1.4932703E4,3.0485876E3,3.2222056E3,1.6617107E4,1.5418302E4,1.7854184E4,2.3455701E4,9.028141E3,1.1537408E4,2.4362273E3,8.0169956E3,2.1660864E3,6.2068984E3,2.8825957E3],"tree_param":{"num_deleted":"0","num_feature":"36","num_nodes":"31","size_leaf_vector":"1"}},{"base_weights":[-7.9313584E-4,-1.042858E-1,7.693586E-2,5.358922E-2,-1.2612002E-1,1.7354945E-2,1.6776699E-1,1.5183361E-2,2.6174638E-1,-2.0401523E-1,-9.06422E-2,-1.7689403E-2,6.1640278E-2,1.3106062E-1,3.1732306E-1,-3.2946535E-3,1.2731581E-3,2.8373096E-3,1.0850655E-2,-9.3500335E-3,-5.4260055E-3,-2.092581E-3,-4.5338054E-3,3.128563E-4,-1.8188454E-3,2.870062E-3,6.38663E-4,2.9776115E-3,6.731419E-3,8.8995285E-3,2.1E-2],"categories":[],"categories_nodes":[],"categories_segments":[],"categories_sizes":[],"default_left":[0,0,0,0,0,0,0,1,0,0,0,0,0,1,1,0,0,0,0,0,0,0,0,0,0,0,0,0,0,0,0],"id":42,"left_children":[1,3,5,7,9,11,13,15,17,19,21,23,25,27,29,-1,-1,-1,-1,-1,-1,-1,-1,-1,-1,-1,-1,-1,-1,-1,-1],"loss_changes":[1.1231804E3,2.0644061E2,4.3151447E2,5.8169888E1,1.4537439E2,7.473136E1,1.7334875E2,2.0938812E1,1.8901863E1,4.0968384E1,4.5663635E1,3.245616E1,2.9206322E1,7.525839E1,5.708618E1,0E0,0E0,0E0,0E0,0E0,0E0,0E0,0E0,0E0,0E0,0E0,0E0,0E0,0E0,0E0,0E0],"parents":[2147483647,0,0,1,1,2,2,3,3,4,4,5,5,6,6,7,7,8,8,9,9,10,10,11,11,12,12,13,13,14,14],"right_children":[2,4,6,8,10,12,14,16,18,20,22,24,26,28,30,-1,-1,-1,-1,-1,-1,-1,-1,-1,-1,-1,-1,-1,-1,-1,-1],"split_conditions":[1.2256099E1,4.7E1,2E0,3.9E0,-1.9609253E2,1.5457916E2,3.4285715E0,8E-1,1E1,-4.1773483E2,1E0,1.566373E3,1.5281353E3,2.2E0,8.6E0,-3.2946535E-3,1.2731581E-3,2.8373096E-3,1.0850655E-2,-9.3500335E-3,-5.4260055E-3,-2.092581E-3,-4.5338054E-3,3.128563E-4,-1.8188454E-3,2.870062E-3,6.38663E-4,2.9776115E-3,6.731419E-3,8.8995285E-3,2.1E-2],"split_indices":[2,6,26,20,2,2,20,17,5,2,0,30,30,17,20,0,0,0,0,0,0,0,0,0,0,0,0,0,0,0,0],"split_type":[0,0,0,0,0,0,0,0,0,0,0,0,0,0,0,0,0,0,0,0,0,0,0,0,0,0,0,0,0,0,0],"sum_hessian":[1.39621E5,5.9885633E4,7.9735375E4,7.2757754E3,5.2609855E4,4.8151477E4,3.1583895E4,6.143371E3,1.1324045E3,1.646171E4,3.6148145E4,2.6880617E4,2.127086E4,2.5361225E4,6.2226694E3,1.0991466E3,5.0442246E3,4.244273E2,7.0797723E2,2.9110908E3,1.355062E4,2.6870182E4,9.277964E3,1.6244111E4,1.0636506E4,1.1538806E4,9.732055E3,1.8916016E4,6.445208E3,5.9549766E3,2.6769284E2],"tree_param":{"num_deleted":"0","num_feature":"36","num_nodes":"31","size_leaf_vector":"1"}},{"base_weights":[2.2120832E-3,-6.404209E-2,1.2869321E-1,-1.5078227E-1,-1.6206404E-2,2.3595443E-1,7.9043336E-2,-2.412077E-1,-1.2071466E-1,4.760199E-2,-5.4896113E-2,1.5636219E-1,3.2581642E-1,4.4058837E-2,1.3390227E-1,-9.558163E-3,-6.3847695E-3,-4.2657065E-3,-4.7912388E-4,4.340773E-3,6.546799E-4,-1.0512832E-3,-3.247618E-3,4.253741E-3,1.425147E-2,8.545001E-3,1.5602974E-2,2.235981E-3,3.9713804E-4,3.8333004E-3,1.37282275E-2],"categories":[],"categories_nodes":[],"categories_segments":[],"categories_sizes":[],"default_left":[0,0,0,0,0,0,0,0,0,0,0,0,0,0,0,0,0,0,0,0,0,0,0,0,0,0,0,0,0,0,0],"id":43,"left_children":[1,3,5,7,9,11,13,15,17,19,21,23,25,27,29,-1,-1,-1,-1,-1,-1,-1,-1,-1,-1,-1,-1,-1,-1,-1,-1],"loss_changes":[1.1724196E3,3.8095898E2,2.5610925E2,8.8703064E1,1.4610028E2,1.0879016E2,6.3093918E1,1.781955E1,5.509485E1,5.5909233E1,3.902356E1,3.7414536E1,5.675641E1,1.8855946E1,2.5326385E1,0E0,0E0,0E0,0E0,0E0,0E0,0E0,0E0,0E0,0E0,0E0,0E0,0E0,0E0,0E0,0E0],"parents":[2147483647,0,0,1,1,2,2,3,3,4,4,5,5,6,6,7,7,8,8,9,9,10,10,11,11,12,12,13,13,14,14],"right_children":[2,4,6,8,10,12,14,16,18,20,22,24,26,28,30,-1,-1,-1,-1,-1,-1,-1,-1,-1,-1,-1,-1,-1,-1,-1,-1],"split_conditions":[1.0726798E2,-7.902961E1,1.4340277E3,-2.2608409E2,1.44E2,1.5229814E3,2E0,-3.5396228E2,2.4E0,1.4E1,1E0,4.367929E2,4.875E0,1.5342714E3,7.37E2,-9.558163E-3,-6.3847695E-3,-4.2657065E-3,-4.7912388E-4,4.340773E-3,6.546799E-4,-1.0512832E-3,-3.247618E-3,4.253741E-3,1.425147E-2,8.545001E-3,1.5602974E-2,2.235981E-3,3.9713804E-4,3.8333004E-3,1.37282275E-2],"split_indices":[31,31,30,31,6,27,26,31,18,6,0,31,20,30,8,0,0,0,0,0,0,0,0,0,0,0,0,0,0,0,0],"split_type":[0,0,0,0,0,0,0,0,0,0,0,0,0,0,0,0,0,0,0,0,0,0,0,0,0,0,0,0,0,0,0],"sum_hessian":[1.399065E5,9.181294E4,4.8093562E4,3.263462E4,5.917832E4,1.52166E4,3.287696E4,8.1418306E3,2.449279E4,2.233781E4,3.6840508E4,8.0708535E3,7.145746E3,2.007597E4,1.2800991E4,2.1818118E3,5.9600186E3,2.0325176E4,4.1676143E3,4.6857314E3,1.7652078E4,2.685134E4,9.98917E3,7.719358E3,3.5149536E2,5.903001E3,1.2427454E3,1.0094105E4,9.981865E3,1.2564622E4,2.3636981E2],"tree_param":{"num_deleted":"0","num_feature":"36","num_nodes":"31","size_leaf_vector":"1"}},{"base_weights":[1.4975497E-3,-9.3771845E-2,9.230919E-2,-1.9031408E-1,-5.881391E-2,3.6415506E-2,1.7056027E-1,-2.945803E-1,-1.6446538E-1,5.6819576E-3,-9.604413E-2,6.2350146E-3,8.646052E-2,1.578344E-1,5.19881E-1,7.5255353E-3,-8.9421095E-3,1.9371179E-3,-5.1968046E-3,5.274555E-3,-3.8519324E-4,-1.980165E-3,-3.6586977E-3,-1.5591498E-3,8.1970566E-4,1.5520636E-3,4.1691507E-3,6.4113596E-3,2.5763628E-3,2.1E-2,1.2995941E-2],"categories":[],"categories_nodes":[],"categories_segments":[],"categories_sizes":[],"default_left":[0,0,0,0,0,0,0,0,0,0,0,0,0,0,0,0,0,0,0,0,0,0,0,0,0,0,0,0,0,0,0],"id":44,"left_children":[1,3,5,7,9,11,13,15,17,19,21,23,25,27,29,-1,-1,-1,-1,-1,-1,-1,-1,-1,-1,-1,-1,-1,-1,-1,-1],"loss_changes":[1.2077006E3,2.2990369E2,3.1257916E2,4.876001E1,1.200983E2,6.29693E1,1.3229504E2,6.920807E0,2.913678E1,5.7688496E1,2.4674896E1,3.1926386E1,2.8591896E1,1.1550897E2,2.7846558E1,0E0,0E0,0E0,0E0,0E0,0E0,0E0,0E0,0E0,0E0,0E0,0E0,0E0,0E0,0E0,0E0],"parents":[2147483647,0,0,1,1,2,2,3,3,4,4,5,5,6,6,7,7,8,8,9,9,10,10,11,11,12,12,13,13,14,14],"right_children":[2,4,6,8,10,12,14,16,18,20,22,24,26,28,30,-1,-1,-1,-1,-1,-1,-1,-1,-1,-1,-1,-1,-1,-1,-1,-1],"split_conditions":[3.5101826E1,-1.4674956E2,2E0,-2.998692E2,1.54E2,1.8E0,5.351417E2,5E0,2.6E1,5E0,3.43E2,4E1,1.75E0,1.21E2,3.1E1,7.5255353E-3,-8.9421095E-3,1.9371179E-3,-5.1968046E-3,5.274555E-3,-3.8519324E-4,-1.980165E-3,-3.6586977E-3,-1.5591498E-3,8.1970566E-4,1.5520636E-3,4.1691507E-3,6.4113596E-3,2.5763628E-3,2.1E-2,1.2995941E-2],"split_indices":[31,31,26,31,6,14,31,6,6,6,6,32,11,6,6,0,0,0,0,0,0,0,0,0,0,0,0,0,0,0,0],"split_type":[0,0,0,0,0,0,0,0,0,0,0,0,0,0,0,0,0,0,0,0,0,0,0,0,0,0,0,0,0,0,0],"sum_hessian":[1.3959123E5,6.812358E4,7.146766E4,1.8108754E4,5.0014824E4,4.16903E4,2.9777354E4,3.595429E3,1.4513325E4,1.8304984E4,3.1709838E4,2.600729E4,1.568301E4,2.8732084E4,1.0452684E3,2.2408792E1,3.57302E3,5.344957E2,1.397883E4,1.7962781E3,1.6508707E4,1.4687326E4,1.7022512E4,6.916234E3,1.9091057E4,9.44146E3,6.2415503E3,1.6171801E4,1.2560284E4,1.713371E2,8.7393134E2],"tree_param":{"num_deleted":"0","num_feature":"36","num_nodes":"31","size_leaf_vector":"1"}},{"base_weights":[1.763372E-3,-9.0193294E-2,8.921135E-2,-2.2462934E-1,-6.6613205E-2,3.6394533E-2,1.7687972E-1,-3.063474E-1,-1.9249435E-1,3.7387067E-3,-1.05396636E-1,1.06959E-2,1.1370289E-1,