{"learner":{"attributes":{"scikit_learn":"{\"_estimator_type\": \"regressor\"}"},"feature_names":["neutral","comp_importance","elo_diff","home_elo","away_elo","home_played","away_played","home_rest_days","away_rest_days","home_form5_ppg","away_form5_ppg","home_form5_gf","away_form5_gf","home_form5_ga","away_form5_ga","home_form10_ppg","away_form10_ppg","home_form10_gf","away_form10_gf","home_form10_ga","away_form10_ga","home_xg5","away_xg5","home_xga5","away_xga5","h2h_home_winrate","h2h_home_gd","home_off_elo","away_off_elo","home_def_elo","away_def_elo","off_def_diff","home_advantage","home_squad_value","away_squad_value","squad_value_logratio"],"feature_types":["float","float","float","float","float","float","float","float","float","float","float","float","float","float","float","float","float","float","float","float","float","float","float","float","float","float","float","float","float","float","float","float","float","float","float","float"],"gradient_booster":{"model":{"cats":{"enc":[],"feature_segments":[],"sorted_idx":[]},"gbtree_model_param":{"num_parallel_tree":"1","num_trees":"400"},"iteration_indptr":[0,1,2,3,4,5,6,7,8,9,10,11,12,13,14,15,16,17,18,19,20,21,22,23,24,25,26,27,28,29,30,31,32,33,34,35,36,37,38,39,40,41,42,43,44,45,46,47,48,49,50,51,52,53,54,55,56,57,58,59,60,61,62,63,64,65,66,67,68,69,70,71,72,73,74,75,76,77,78,79,80,81,82,83,84,85,86,87,88,89,90,91,92,93,94,95,96,97,98,99,100,101,102,103,104,105,106,107,108,109,110,111,112,113,114,115,116,117,118,119,120,121,122,123,124,125,126,127,128,129,130,131,132,133,134,135,136,137,138,139,140,141,142,143,144,145,146,147,148,149,150,151,152,153,154,155,156,157,158,159,160,161,162,163,164,165,166,167,168,169,170,171,172,173,174,175,176,177,178,179,180,181,182,183,184,185,186,187,188,189,190,191,192,193,194,195,196,197,198,199,200,201,202,203,204,205,206,207,208,209,210,211,212,213,214,215,216,217,218,219,220,221,222,223,224,225,226,227,228,229,230,231,232,233,234,235,236,237,238,239,240,241,242,243,244,245,246,247,248,249,250,251,252,253,254,255,256,257,258,259,260,261,262,263,264,265,266,267,268,269,270,271,272,273,274,275,276,277,278,279,280,281,282,283,284,285,286,287,288,289,290,291,292,293,294,295,296,297,298,299,300,301,302,303,304,305,306,307,308,309,310,311,312,313,314,315,316,317,318,319,320,321,322,323,324,325,326,327,328,329,330,331,332,333,334,335,336,337,338,339,340,341,342,343,344,345,346,347,348,349,350,351,352,353,354,355,356,357,358,359,360,361,362,363,364,365,366,367,368,369,370,371,372,373,374,375,376,377,378,379,380,381,382,383,384,385,386,387,388,389,390,391,392,393,394,395,396,397,398,399,400],"tree_info":[0,0,0,0,0,0,0,0,0,0,0,0,0,0,0,0,0,0,0,0,0,0,0,0,0,0,0,0,0,0,0,0,0,0,0,0,0,0,0,0,0,0,0,0,0,0,0,0,0,0,0,0,0,0,0,0,0,0,0,0,0,0,0,0,0,0,0,0,0,0,0,0,0,0,0,0,0,0,0,0,0,0,0,0,0,0,0,0,0,0,0,0,0,0,0,0,0,0,0,0,0,0,0,0,0,0,0,0,0,0,0,0,0,0,0,0,0,0,0,0,0,0,0,0,0,0,0,0,0,0,0,0,0,0,0,0,0,0,0,0,0,0,0,0,0,0,0,0,0,0,0,0,0,0,0,0,0,0,0,0,0,0,0,0,0,0,0,0,0,0,0,0,0,0,0,0,0,0,0,0,0,0,0,0,0,0,0,0,0,0,0,0,0,0,0,0,0,0,0,0,0,0,0,0,0,0,0,0,0,0,0,0,0,0,0,0,0,0,0,0,0,0,0,0,0,0,0,0,0,0,0,0,0,0,0,0,0,0,0,0,0,0,0,0,0,0,0,0,0,0,0,0,0,0,0,0,0,0,0,0,0,0,0,0,0,0,0,0,0,0,0,0,0,0,0,0,0,0,0,0,0,0,0,0,0,0,0,0,0,0,0,0,0,0,0,0,0,0,0,0,0,0,0,0,0,0,0,0,0,0,0,0,0,0,0,0,0,0,0,0,0,0,0,0,0,0,0,0,0,0,0,0,0,0,0,0,0,0,0,0,0,0,0,0,0,0,0,0,0,0,0,0,0,0,0,0,0,0,0,0,0,0,0,0,0,0,0,0,0,0,0,0,0,0,0,0,0,0,0,0,0,0,0,0,0,0,0,0,0,0,0,0,0,0,0,0,0,0,0,0],"trees":[{"base_weights":[-7.9184974E-4,1.9488464E-1,-7.4750364E-2,1.0173958E-1,2.6825768E-1,-1.3577788E-2,-1.3459428E-1,1.6993718E-1,5.8305394E-2,3.288772E-1,1.5293767E-1,-2.8754443E-2,1.4730714E-1,-1.5487438E-1,-2.5594255E-2,1.8727563E-2,4.610254E-3,1.5462632E-3,2.1E-2,1.231384E-2,7.5024148E-3,3.355191E-3,1.0203356E-2,1.5295816E-3,-1.4165428E-3,3.6201368E-3,1.1053545E-2,-5.056725E-3,-2.4147558E-3,-9.725987E-4,1.4605002E-2],"categories":[],"categories_nodes":[],"categories_segments":[],"categories_sizes":[],"default_left":[0,0,0,0,0,0,0,0,0,0,0,0,1,0,0,0,0,0,0,0,0,0,0,0,0,0,0,0,0,0,0],"id":0,"left_children":[1,3,5,7,9,11,13,15,17,19,21,23,25,27,29,-1,-1,-1,-1,-1,-1,-1,-1,-1,-1,-1,-1,-1,-1,-1,-1],"loss_changes":[2.6107034E2,3.3790054E1,4.792401E1,6.453171E0,1.9294418E1,1.5814323E1,1.4624359E1,6.172331E0,5.803853E0,1.1551788E1,7.3106747E0,8.715086E0,3.2442446E0,5.664917E0,3.650889E0,0E0,0E0,0E0,0E0,0E0,0E0,0E0,0E0,0E0,0E0,0E0,0E0,0E0,0E0,0E0,0E0],"parents":[2147483647,0,0,1,1,2,2,3,3,4,4,5,5,6,6,7,7,8,8,9,9,10,10,11,11,12,12,13,13,14,14],"right_children":[2,4,6,8,10,12,14,16,18,20,22,24,26,28,30,-1,-1,-1,-1,-1,-1,-1,-1,-1,-1,-1,-1,-1,-1,-1,-1],"split_conditions":[-5.9559235E1,4.5E2,3.7822365E1,1.415338E3,-1.1763337E2,7E2,1.739308E0,1.096575E0,2.6666667E0,1.4974778E3,2.470536E0,1.4848108E3,2.589122E0,3.8E2,1.5514465E3,1.8727563E-2,4.610254E-3,1.5462632E-3,2.1E-2,1.231384E-2,7.5024148E-3,3.355191E-3,1.0203356E-2,1.5295816E-3,-1.4165428E-3,3.6201368E-3,1.1053545E-2,-5.056725E-3,-2.4147558E-3,-9.725987E-4,1.4605002E-2],"split_indices":[31,34,31,3,31,34,23,23,16,29,22,29,22,34,28,0,0,0,0,0,0,0,0,0,0,0,0,0,0,0,0],"split_type":[0,0,0,0,0,0,0,0,0,0,0,0,0,0,0,0,0,0,0,0,0,0,0,0,0,0,0,0,0,0,0],"sum_hessian":[1.8037754E4,4.9471494E3,1.30906045E4,2.1809192E3,2.76623E3,6.4740474E3,6.6165576E3,8.4742834E2,1.3334908E3,1.8119188E3,9.543112E2,5.9167295E3,5.5731775E2,5.578267E3,1.0382905E3,2.7993128E1,8.194352E2,1.3207667E3,1.272415E1,8.881456E2,9.2377325E2,7.838076E2,1.705036E2,1.1120907E3,4.8046387E3,4.9878665E2,5.8531086E1,4.71048E3,8.67787E2,1.0255664E3,1.272415E1],"tree_param":{"num_deleted":"0","num_feature":"36","num_nodes":"31","size_leaf_vector":"1"}},{"base_weights":[1.1124529E-3,1.8013752E-1,-7.669695E-2,3.8935637E-1,1.4100227E-1,-4.4414457E-3,-1.2929228E-1,2.0075366E-1,4.625057E-1,4.628265E-2,1.823511E-1,-2.3276178E-2,1.6993572E-1,-1.4975706E-1,-3.9684292E-2,2.7481404E-3,1.178995E-2,1.2082969E-2,2.1E-2,-3.2178594E-3,2.504232E-3,5.2386443E-3,2.1E-2,-1.9618806E-3,2.0658554E-4,1.212464E-2,3.950433E-3,-3.7466364E-3,-6.1095427E-3,-2.0433466E-3,4.6657287E-3],"categories":[],"categories_nodes":[],"categories_segments":[],"categories_sizes":[],"default_left":[0,0,0,0,0,1,1,0,1,1,1,1,0,0,0,0,0,0,0,0,0,0,0,0,0,0,0,0,0,0,0],"id":1,"left_children":[1,3,5,7,9,11,13,15,17,19,21,23,25,27,29,-1,-1,-1,-1,-1,-1,-1,-1,-1,-1,-1,-1,-1,-1,-1,-1],"loss_changes":[2.5360388E2,4.5105484E1,4.8226288E1,1.1889999E1,1.8195602E1,1.756538E1,1.3462013E1,5.0943336E0,1.1062912E1,8.082485E0,1.284742E1,6.132386E0,4.6181326E0,7.987549E0,7.5953536E0,0E0,0E0,0E0,0E0,0E0,0E0,0E0,0E0,0E0,0E0,0E0,0E0,0E0,0E0,0E0,0E0],"parents":[2147483647,0,0,1,1,2,2,3,3,4,4,5,5,6,6,7,7,8,8,9,9,10,10,11,11,12,12,13,13,14,14],"right_children":[2,4,6,8,10,12,14,16,18,20,22,24,26,28,30,-1,-1,-1,-1,-1,-1,-1,-1,-1,-1,-1,-1,-1,-1,-1,-1],"split_conditions":[-5.1082563E-1,-1.5649861E0,2.2314355E-1,1.7142857E0,1.4480606E0,2.25E0,1.5714285E0,1.8042502E0,2.4E0,1.217612E0,3.4285715E0,1.4327762E0,-1.4620734E2,1.1394343E0,1.825068E0,2.7481404E-3,1.178995E-2,1.2082969E-2,2.1E-2,-3.2178594E-3,2.504232E-3,5.2386443E-3,2.1E-2,-1.9618806E-3,2.0658554E-4,1.212464E-2,3.950433E-3,-3.7466364E-3,-6.1095427E-3,-2.0433466E-3,4.6657287E-3],"split_indices":[35,35,35,18,22,12,18,22,13,23,18,23,2,35,23,0,0,0,0,0,0,0,0,0,0,0,0,0,0,0,0],"split_type":[0,0,0,0,0,0,0,0,0,0,0,0,0,0,0,0,0,0,0,0,0,0,0,0,0,0,0,0,0,0,0],"sum_hessian":[1.8203816E4,5.514547E3,1.268927E4,8.675635E2,4.6469834E3,5.346007E3,7.343263E3,2.43496E2,6.2406744E2,1.4127812E3,3.2342021E3,4.825648E3,5.2035876E2,5.9774536E3,1.3658093E3,1.562563E2,8.723969E1,5.2882275E2,9.5244705E1,2.7511133E2,1.1376699E3,3.188027E3,4.6175243E1,2.0131887E3,2.8124592E3,7.1714195E1,4.486446E2,4.092374E3,1.8850796E3,1.1927642E3,1.7304526E2],"tree_param":{"num_deleted":"0","num_feature":"36","num_nodes":"31","size_leaf_vector":"1"}},{"base_weights":[3.5874406E-3,1.6981606E-1,-7.861517E-2,8.485196E-2,2.4936171E-1,-2.169146E-2,-1.2542787E-1,1.1138761E-1,5.4374808E-3,1.9271977E-1,3.9914605E-1,-9.267385E-2,1.38830235E-2,-1.4247492E-1,-3.7017226E-2,3.6182976E-3,-4.721302E-3,7.403205E-4,-9.930219E-3,1.8398942E-2,5.426627E-3,1.07810795E-2,2.0030942E-2,-4.2696513E-4,-4.4414005E-3,8.624662E-5,6.038862E-3,-3.1056888E-3,-5.201963E-3,-2.1148408E-3,2.1181977E-3],"categories":[],"categories_nodes":[],"categories_segments":[],"categories_sizes":[],"default_left":[0,0,0,0,1,0,0,0,1,0,0,0,0,0,0,0,0,0,0,0,0,0,0,0,0,0,0,0,0,0,0],"id":2,"left_children":[1,3,5,7,9,11,13,15,17,19,21,23,25,27,29,-1,-1,-1,-1,-1,-1,-1,-1,-1,-1,-1,-1,-1,-1,-1,-1],"loss_changes":[2.4642073E2,4.0307755E1,3.2151894E1,6.0828E0,2.6065186E1,1.3754513E1,9.9737625E0,5.382103E0,4.6951447E0,1.1024948E1,8.781723E0,7.8964386E0,7.486299E0,6.6678925E0,3.8661075E0,0E0,0E0,0E0,0E0,0E0,0E0,0E0,0E0,0E0,0E0,0E0,0E0,0E0,0E0,0E0,0E0],"parents":[2147483647,0,0,1,1,2,2,3,3,4,4,5,5,6,6,7,7,8,8,9,9,10,10,11,11,12,12,13,13,14,14],"right_children":[2,4,6,8,10,12,14,16,18,20,22,24,26,28,30,-1,-1,-1,-1,-1,-1,-1,-1,-1,-1,-1,-1,-1,-1,-1,-1],"split_conditions":[-4.1630814E1,4.5E2,3.7822365E1,7E1,1.865009E0,1.8E2,1.739308E0,4E2,1E0,9E1,3E0,1.4970626E3,9E2,9.710022E1,1.8694535E0,3.6182976E-3,-4.721302E-3,7.403205E-4,-9.930219E-3,1.8398942E-2,5.426627E-3,1.07810795E-2,2.0030942E-2,-4.2696513E-4,-4.4414005E-3,8.624662E-5,6.038862E-3,-3.1056888E-3,-5.201963E-3,-2.1148408E-3,2.1181977E-3],"split_indices":[31,34,31,32,23,34,23,33,26,33,12,29,34,31,21,0,0,0,0,0,0,0,0,0,0,0,0,0,0,0,0],"split_type":[0,0,0,0,0,0,0,0,0,0,0,0,0,0,0,0,0,0,0,0,0,0,0,0,0,0,0,0,0,0,0],"sum_hessian":[1.8031762E4,5.9661196E3,1.2065644E4,2.885806E3,3.0803135E3,5.445473E3,6.6201704E3,2.1627422E3,7.230639E2,2.236756E3,8.4355743E2,1.8174594E3,3.6280137E3,5.549519E3,1.070651E3,2.0915251E3,7.121688E1,6.848281E2,3.82358E1,5.981412E1,2.176942E3,7.3676874E2,1.0678869E2,7.5259015E2,1.0648691E3,3.4276948E3,2.0031891E2,2.4578887E3,3.0916306E3,8.168931E2,2.5375784E2],"tree_param":{"num_deleted":"0","num_feature":"36","num_nodes":"31","size_leaf_vector":"1"}},{"base_weights":[-1.1715658E-3,1.8286067E-1,-7.153569E-2,8.246322E-2,2.6045686E-1,-1.536095E-2,-1.2729304E-1,1.4665563E-1,4.869605E-2,2.1481428E-1,3.948286E-1,-6.594888E-2,2.695123E-2,-1.4499506E-1,-2.9140322E-2,3.9386656E-3,2.1E-2,-7.042508E-4,3.401768E-3,5.082658E-3,9.90173E-3,2.1E-2,1.0057058E-2,9.5112383E-4,-2.91879E-3,2.527758E-3,-4.4237418E-4,-4.841788E-3,-1.7288236E-3,-1.72177E-3,4.218821E-3],"categories":[],"categories_nodes":[],"categories_segments":[],"categories_sizes":[],"default_left":[0,0,0,0,0,0,0,0,0,0,0,0,0,1,0,0,0,0,0,0,0,0,0,0,0,0,0,0,0,0,0],"id":3,"left_children":[1,3,5,7,9,11,13,15,17,19,21,23,25,27,29,-1,-1,-1,-1,-1,-1,-1,-1,-1,-1,-1,-1,-1,-1,-1,-1],"loss_changes":[2.3417284E2,3.8945374E1,4.097287E1,4.722602E0,1.7215591E1,1.3952911E1,1.1402908E1,9.148102E0,6.685985E0,1.0970398E1,1.5468559E1,9.090296E0,8.483872E0,7.95887E0,4.825401E0,0E0,0E0,0E0,0E0,0E0,0E0,0E0,0E0,0E0,0E0,0E0,0E0,0E0,0E0,0E0,0E0],"parents":[2147483647,0,0,1,1,2,2,3,3,4,4,5,5,6,6,7,7,8,8,9,9,10,10,11,11,12,12,13,13,14,14],"right_children":[2,4,6,8,10,12,14,16,18,20,22,24,26,28,30,-1,-1,-1,-1,-1,-1,-1,-1,-1,-1,-1,-1,-1,-1,-1,-1],"split_conditions":[-5.9559235E1,4.5E2,3.7822365E1,1.2E2,1.5940253E3,1.3767606E0,1.739308E0,2.105347E0,1.1428572E0,1.857076E0,1.5508645E3,1.4848108E3,5.3E1,1.5555556E0,1.4992181E3,3.9386656E-3,2.1E-2,-7.042508E-4,3.401768E-3,5.082658E-3,9.90173E-3,2.1E-2,1.0057058E-2,9.5112383E-4,-2.91879E-3,2.527758E-3,-4.4237418E-4,-4.841788E-3,-1.7288236E-3,-1.72177E-3,4.218821E-3],"split_indices":[31,34,31,33,28,22,23,21,20,23,30,29,5,18,28,0,0,0,0,0,0,0,0,0,0,0,0,0,0,0,0],"split_type":[0,0,0,0,0,0,0,0,0,0,0,0,0,0,0,0,0,0,0,0,0,0,0,0,0,0,0,0,0,0,0],"sum_hessian":[1.8081857E4,5.0008643E3,1.3080994E4,2.181022E3,2.8198423E3,6.5167427E3,6.5642515E3,7.5065704E2,1.4303649E3,2.106812E3,7.1303033E2,2.9678538E3,3.548889E3,5.5608623E3,1.00338904E3,7.4038513E2,1.0271879E1,6.764247E2,7.539402E2,1.5132427E3,5.9356934E2,9.430948E1,6.187209E2,7.2113556E2,2.2467183E3,1.4942323E3,2.0546567E3,4.6813755E3,8.7948676E2,8.6080023E2,1.4258878E2],"tree_param":{"num_deleted":"0","num_feature":"36","num_nodes":"31","size_leaf_vector":"1"}},{"base_weights":[1.0688006E-4,2.1044211E-1,-6.0299367E-2,1.8313846E-1,4.5479307E-1,2.7858585E-2,-1.0463777E-1,2.1394284E-1,6.2320657E-2,3.8635036E-1,7E-1,-7.690576E-2,5.349712E-2,-1.2572439E-1,-2.1250851E-2,1.1123624E-2,5.9486455E-3,2.3395924E-3,-1.0930429E-2,1.3153569E-2,1.461379E-3,2.1E-2,9.3602985E-3,-6.118431E-4,-5.0986335E-3,9.4400323E-4,4.0930724E-3,-2.7756908E-3,-5.031894E-3,-2.1014628E-3,7.7204796E-4],"categories":[],"categories_nodes":[],"categories_segments":[],"categories_sizes":[],"default_left":[0,0,0,0,0,0,0,0,1,1,0,0,0,0,0,0,0,0,0,0,0,0,0,0,0,0,0,0,0,0,0],"id":4,"left_children":[1,3,5,7,9,11,13,15,17,19,21,23,25,27,29,-1,-1,-1,-1,-1,-1,-1,-1,-1,-1,-1,-1,-1,-1,-1,-1],"loss_changes":[2.3055553E2,2.6927902E1,5.51066E1,1.3546326E1,1.0013252E1,1.2677556E1,1.6490738E1,7.053787E0,4.985475E0,6.224743E0,1.277977E0,4.8766356E0,6.922941E0,1.0425613E1,4.3454094E0,0E0,0E0,0E0,0E0,0E0,0E0,0E0,0E0,0E0,0E0,0E0,0E0,0E0,0E0,0E0,0E0],"parents":[2147483647,0,0,1,1,2,2,3,3,4,4,5,5,6,6,7,7,8,8,9,9,10,10,11,11,12,12,13,13,14,14],"right_children":[2,4,6,8,10,12,14,16,18,20,22,24,26,28,30,-1,-1,-1,-1,-1,-1,-1,-1,-1,-1,-1,-1,-1,-1,-1,-1],"split_conditions":[-7.8075325E1,1.6095054E3,-2.36432E0,7E1,2.25E0,1.4511702E3,1.739308E0,4E0,1E0,3.3333334E-1,1.6218722E0,-3.189814E1,1.5428578E3,1.0955066E2,1.4677322E3,1.1123624E-2,5.9486455E-3,2.3395924E-3,-1.0930429E-2,1.3153569E-2,1.461379E-3,2.1E-2,9.3602985E-3,-6.118431E-4,-5.0986335E-3,9.4400323E-4,4.0930724E-3,-2.7756908E-3,-5.031894E-3,-2.1014628E-3,7.7204796E-4],"split_indices":[31,28,31,32,13,27,23,8,26,25,21,31,28,2,28,0,0,0,0,0,0,0,0,0,0,0,0,0,0,0,0],"split_type":[0,0,0,0,0,0,0,0,0,0,0,0,0,0,0,0,0,0,0,0,0,0,0,0,0,0,0,0,0,0,0],"sum_hessian":[1.8144033E4,4.0476357E3,1.4096397E4,3.6423867E3,4.0524908E2,4.7173247E3,9.379073E3,2.9017654E3,7.4062134E2,3.5406165E2,5.1187447E1,9.2708093E2,3.7902437E3,7.485625E3,1.8934484E3,2.6128238E2,2.6404832E3,7.151796E2,2.5441671E1,3.064706E2,4.7591022E1,4.04429E1,1.0744547E1,5.775428E2,3.4953818E2,2.995857E3,7.943868E2,4.1827524E3,3.3028723E3,9.285724E2,9.64876E2],"tree_param":{"num_deleted":"0","num_feature":"36","num_nodes":"31","size_leaf_vector":"1"}},{"base_weights":[1.9367157E-3,1.6360866E-1,-8.010006E-2,2.6678982E-1,7.450494E-2,-1.2097001E-2,-1.2603047E-1,2.0653673E-1,3.62215E-1,1.3476402E-1,2.6887065E-2,-1.6045688E-1,6.72845E-3,-9.748514E-2,-1.8485253E-1,5.21006E-3,1.0379479E-2,1.6278794E-2,9.349814E-3,3.174863E-3,1.0945273E-2,1.5922541E-3,-1.1073382E-3,-5.1822835E-3,1.3585549E-2,-5.4025728E-5,9.6247075E-3,-3.4596105E-3,-9.6985814E-4,-6.0269674E-3,-1.8893791E-3],"categories":[],"categories_nodes":[],"categories_segments":[],"categories_sizes":[],"default_left":[0,0,0,0,0,0,0,0,0,0,0,0,1,0,1,0,0,0,0,0,0,0,0,0,0,0,0,0,0,0,0],"id":5,"left_children":[1,3,5,7,9,11,13,15,17,19,21,23,25,27,29,-1,-1,-1,-1,-1,-1,-1,-1,-1,-1,-1,-1,-1,-1,-1,-1],"loss_changes":[2.4167708E2,5.63732E1,3.775441E1,1.6265625E1,9.44482E0,1.3614457E1,1.2096397E1,7.93486E0,9.850998E0,9.636095E0,3.077131E0,4.214119E0,1.1590851E1,5.6436005E0,4.595146E0,0E0,0E0,0E0,0E0,0E0,0E0,0E0,0E0,0E0,0E0,0E0,0E0,0E0,0E0,0E0,0E0],"parents":[2147483647,0,0,1,1,2,2,3,3,4,4,5,5,6,6,7,7,8,8,9,9,10,10,11,11,12,12,13,13,14,14],"right_children":[2,4,6,8,10,12,14,16,18,20,22,24,26,28,30,-1,-1,-1,-1,-1,-1,-1,-1,-1,-1,-1,-1,-1,-1,-1,-1],"split_conditions":[-4.1630814E1,-9.1629076E-1,2.2314355E-1,8E2,6.5E1,1.4467281E3,1.0986123E0,2.098552E0,1.4728942E3,2.6666667E0,7E1,7.4657524E1,2.5E0,1.5555556E0,1.6925716E0,5.21006E-3,1.0379479E-2,1.6278794E-2,9.349814E-3,3.174863E-3,1.0945273E-2,1.5922541E-3,-1.1073382E-3,-5.1822835E-3,1.3585549E-2,-5.4025728E-5,9.6247075E-3,-3.4596105E-3,-9.6985814E-4,-6.0269674E-3,-1.8893791E-3],"split_indices":[31,35,35,34,32,27,35,23,29,12,32,31,18,18,23,0,0,0,0,0,0,0,0,0,0,0,0,0,0,0,0],"split_type":[0,0,0,0,0,0,0,0,0,0,0,0,0,0,0,0,0,0,0,0,0,0,0,0,0,0,0,0,0,0,0],"sum_hessian":[1.8219854E4,6.1327983E3,1.2087055E4,2.8409797E3,3.2918186E3,4.8732075E3,7.213847E3,1.743358E3,1.0976216E3,1.4522313E3,1.8395873E3,5.478872E2,4.3253203E3,4.858674E3,2.3551736E3,1.4126381E3,3.3071994E2,2.3812024E2,8.5950134E2,1.2912948E3,1.609365E2,1.3043451E3,5.352421E2,5.378316E2,1.005559E1,4.2119385E3,1.1338166E2,3.8139233E3,1.0447502E3,2.0805857E3,2.7458792E2],"tree_param":{"num_deleted":"0","num_feature":"36","num_nodes":"31","size_leaf_vector":"1"}},{"base_weights":[4.734244E-3,1.6712534E-1,-6.714154E-2,3.3402738E-1,1.329573E-1,-2.5624956E-4,-1.2019983E-1,5.400098E-1,2.4504124E-1,1.1808865E-1,3.6458272E-1,-1.6698835E-2,1.2436019E-1,-1.3973689E-1,-3.489428E-2,1.0425883E-2,2.003732E-2,6.6987635E-3,2.0391256E-2,4.6201097E-3,1.3745598E-3,2.9585897E-3,1.39842415E-2,-1.8863117E-3,4.8597396E-4,4.6932427E-3,-2.2112117E-3,-3.0844177E-3,-5.0890534E-3,-1.8476852E-3,5.687316E-3],"categories":[],"categories_nodes":[],"categories_segments":[],"categories_sizes":[],"default_left":[0,0,0,0,1,1,1,0,1,0,0,0,0,0,0,0,0,0,0,0,0,0,0,0,0,0,0,0,0,0,0],"id":6,"left_children":[1,3,5,7,9,11,13,15,17,19,21,23,25,27,29,-1,-1,-1,-1,-1,-1,-1,-1,-1,-1,-1,-1,-1,-1,-1,-1],"loss_changes":[2.1159113E2,3.1673569E1,4.4595314E1,1.717958E1,1.586261E1,1.1394223E1,1.1673851E1,6.761963E0,6.100662E0,1.1261173E1,7.4659386E0,7.4641113E0,4.13035E0,6.2763824E0,7.844498E0,0E0,0E0,0E0,0E0,0E0,0E0,0E0,0E0,0E0,0E0,0E0,0E0,0E0,0E0,0E0,0E0],"parents":[2147483647,0,0,1,1,2,2,3,3,4,4,5,5,6,6,7,7,8,8,9,9,10,10,11,11,12,12,13,13,14,14],"right_children":[2,4,6,8,10,12,14,16,18,20,22,24,26,28,30,-1,-1,-1,-1,-1,-1,-1,-1,-1,-1,-1,-1,-1,-1,-1,-1],"split_conditions":[-5.1082563E-1,-1.5293952E0,2.6236427E-1,1.4775737E3,2.670584E0,2.1E0,1.5714285E0,1.8333334E0,2.4E0,-7.8275937E-1,1.4814066E3,1.4327762E0,1.4E1,8.679434E1,1.843914E0,1.0425883E-2,2.003732E-2,6.6987635E-3,2.0391256E-2,4.6201097E-3,1.3745598E-3,2.9585897E-3,1.39842415E-2,-1.8863117E-3,4.8597396E-4,4.6932427E-3,-2.2112117E-3,-3.0844177E-3,-5.0890534E-3,-1.8476852E-3,5.687316E-3],"split_indices":[35,35,35,29,22,18,18,18,13,35,3,23,7,31,23,0,0,0,0,0,0,0,0,0,0,0,0,0,0,0,0],"split_type":[0,0,0,0,0,0,0,0,0,0,0,0,0,0,0,0,0,0,0,0,0,0,0,0,0,0,0,0,0,0,0],"sum_hessian":[1.8126154E4,5.5609067E3,1.2565247E4,9.4347943E2,4.6174272E3,5.5588125E3,7.0064346E3,2.830999E2,6.603795E2,4.3403203E3,2.771067E2,4.9116133E3,6.471995E2,5.7002905E3,1.3061439E3,1.1450158E2,1.6859834E2,6.303527E2,3.002676E1,2.898675E3,1.4416454E3,7.7118614E1,1.9998807E2,2.0429929E3,2.86862E3,5.5716486E2,9.0034676E1,2.5525034E3,3.1477874E3,1.167969E3,1.3817488E2],"tree_param":{"num_deleted":"0","num_feature":"36","num_nodes":"31","size_leaf_vector":"1"}},{"base_weights":[2.332824E-3,1.9865943E-1,-5.4367147E-2,5.2284765E-1,1.8490887E-1,1.5687205E-2,-1.20484576E-1,7E-1,4.3768185E-1,1.1908303E-1,2.3891595E-1,7.912878E-3,2.7873755E-1,-7.8908615E-2,-1.5938023E-1,2.1E-2,5.496668E-3,1.0898639E-2,2.1E-2,6.9970787E-3,2.417236E-3,4.5626955E-3,8.4814625E-3,-9.0296246E-4,1.3451482E-3,-1.650403E-3,1.0471796E-2,-3.082016E-3,-1.344731E-4,-5.207752E-3,-1.1612764E-3],"categories":[],"categories_nodes":[],"categories_segments":[],"categories_sizes":[],"default_left":[0,0,0,0,1,1,0,0,1,0,0,1,0,0,1,0,0,0,0,0,0,0,0,0,0,0,0,0,0,0,0],"id":7,"left_children":[1,3,5,7,9,11,13,15,17,19,21,23,25,27,29,-1,-1,-1,-1,-1,-1,-1,-1,-1,-1,-1,-1,-1,-1,-1,-1],"loss_changes":[2.0245596E2,1.8071152E1,6.536514E1,3.78693E0,1.3876282E1,1.401202E1,1.1727776E1,1.2764626E0,3.1646538E0,7.7387695E0,8.123848E0,9.345222E0,4.6354914E0,6.225464E0,6.424103E0,0E0,0E0,0E0,0E0,0E0,0E0,0E0,0E0,0E0,0E0,0E0,0E0,0E0,0E0,0E0,0E0],"parents":[2147483647,0,0,1,1,2,2,3,3,4,4,5,5,6,6,7,7,8,8,9,9,10,10,11,11,12,12,13,13,14,14],"right_children":[2,4,6,8,10,12,14,16,18,20,22,24,26,28,30,-1,-1,-1,-1,-1,-1,-1,-1,-1,-1,-1,-1,-1,-1,-1,-1],"split_conditions":[-7.8275937E-1,-2.2380466E0,2.2314355E-1,9.5E2,1.714182E0,2.622154E0,7.985077E-1,2.6E0,1.3E1,1.4126104E3,6.4E1,1.43217E0,9.49044E-1,1.7277519E0,1.7E0,2.1E-2,5.496668E-3,1.0898639E-2,2.1E-2,6.9970787E-3,2.417236E-3,4.5626955E-3,8.4814625E-3,-9.0296246E-4,1.3451482E-3,-1.650403E-3,1.0471796E-2,-3.082016E-3,-1.344731E-4,-5.207752E-3,-1.1612764E-3],"split_indices":[35,35,35,34,22,22,35,13,7,3,6,22,23,23,18,0,0,0,0,0,0,0,0,0,0,0,0,0,0,0,0],"split_type":[0,0,0,0,0,0,0,0,0,0,0,0,0,0,0,0,0,0,0,0,0,0,0,0,0,0,0,0,0,0,0],"sum_hessian":[1.8185344E4,4.0745383E3,1.4110806E4,1.6428462E2,3.9102537E3,6.851791E3,7.259014E3,2.7747318E1,1.3653731E2,1.7637433E3,2.1465103E3,6.6561035E3,1.9568785E2,3.5100808E3,3.7489333E3,2.213282E1,5.614497E0,1.14710754E2,2.182655E1,4.4362473E2,1.3201185E3,7.21236E2,1.4252743E3,3.2799019E3,3.3762017E3,3.409414E1,1.6159372E2,2.6586238E3,8.514571E2,3.3535454E3,3.9538797E2],"tree_param":{"num_deleted":"0","num_feature":"36","num_nodes":"31","size_leaf_vector":"1"}},{"base_weights":[-3.944916E-3,1.2243595E-1,-8.733108E-2,2.1803664E-1,6.1952323E-2,-4.0921874E-2,-1.453807E-1,6.02887E-1,2.0959243E-1,3.7082035E-2,1.8751208E-1,1.8455048E-1,-4.9699552E-2,-1.6601479E-1,-7.830741E-2,2.1E-2,-3.67847E-3,5.438927E-3,8.950033E-3,-1.0799721E-3,2.0067024E-3,2.313308E-3,8.3306935E-3,2.7029552E-3,1.34933265E-2,-3.1692435E-3,-8.2663284E-4,-6.640484E-3,-4.0490497E-3,-6.008049E-3,-1.6635649E-3],"categories":[],"categories_nodes":[],"categories_segments":[],"categories_sizes":[],"default_left":[0,0,0,0,0,1,1,0,0,0,0,1,0,0,0,0,0,0,0,0,0,0,0,0,0,0,0,0,0,0,0],"id":8,"left_children":[1,3,5,7,9,11,13,15,17,19,21,23,25,27,29,-1,-1,-1,-1,-1,-1,-1,-1,-1,-1,-1,-1,-1,-1,-1,-1],"loss_changes":[1.9154121E2,4.176406E1,2.9494835E1,8.970917E0,1.3816435E1,1.2055543E1,6.719673E0,5.2752457E0,6.827942E0,8.054047E0,7.2624035E0,5.678424E0,7.255992E0,6.3597107E0,3.18431E0,0E0,0E0,0E0,0E0,0E0,0E0,0E0,0E0,0E0,0E0,0E0,0E0,0E0,0E0,0E0,0E0],"parents":[2147483647,0,0,1,1,2,2,3,3,4,4,5,5,6,6,7,7,8,8,9,9,10,10,11,11,12,12,13,13,14,14],"right_children":[2,4,6,8,10,12,14,16,18,20,22,24,26,28,30,-1,-1,-1,-1,-1,-1,-1,-1,-1,-1,-1,-1,-1,-1,-1,-1],"split_conditions":[-2.6778002E1,-9.963334E-1,5.753642E-1,-2.469639E0,1.5694562E3,6.902756E-1,1.5684732E0,1.2222222E0,1.985976E0,1.4908668E3,1.4051152E0,2E0,1.0910178E0,1.4574854E3,3.1E1,2.1E-2,-3.67847E-3,5.438927E-3,8.950033E-3,-1.0799721E-3,2.0067024E-3,2.313308E-3,8.3306935E-3,2.7029552E-3,1.34933265E-2,-3.1692435E-3,-8.2663284E-4,-6.640484E-3,-4.0490497E-3,-6.008049E-3,-1.6635649E-3],"split_indices":[31,35,35,35,28,24,23,17,23,28,23,17,22,28,5,0,0,0,0,0,0,0,0,0,0,0,0,0,0,0,0],"split_type":[0,0,0,0,0,0,0,0,0,0,0,0,0,0,0,0,0,0,0,0,0,0,0,0,0,0,0,0,0,0,0],"sum_hessian":[1.8173508E4,7.22411E3,1.0949397E4,2.7983774E3,4.4257324E3,6.0857217E3,4.863676E3,5.8570927E1,2.7398066E3,3.6951162E3,7.3061597E2,2.2729015E2,5.8584316E3,3.7183171E3,1.1453589E3,5.0221012E1,8.349917E0,2.0797378E3,6.600687E2,1.0704531E3,2.624663E3,3.293086E2,4.0130737E2,1.6859149E2,5.8698647E1,1.6603551E3,4.1980767E3,1.3342063E3,2.3841108E3,1.7953835E2,9.6582056E2],"tree_param":{"num_deleted":"0","num_feature":"36","num_nodes":"31","size_leaf_vector":"1"}},{"base_weights":[1.2185331E-3,1.3559806E-1,-8.3817914E-2,2.2058894E-1,7.121329E-2,-3.082147E-2,-1.3997893E-1,1.9336772E-1,4.3716976E-1,9.892373E-3,1.1242309E-1,-4.645273E-2,8.055166E-2,-1.5590462E-1,-6.5497905E-2,4.1182367E-3,8.702296E-3,2.1E-2,1.1621434E-2,3.5685254E-3,-1.0503959E-3,5.2344115E-3,1.66911E-3,-2.4221467E-3,-9.164549E-5,1.421198E-2,1.7467499E-3,-5.2279085E-3,-2.327127E-3,1.6017152E-2,-2.176322E-3],"categories":[],"categories_nodes":[],"categories_segments":[],"categories_sizes":[],"default_left":[0,0,0,0,0,0,0,1,0,0,0,0,0,1,0,0,0,0,0,0,0,0,0,0,0,0,0,0,0,0,0],"id":9,"left_children":[1,3,5,7,9,11,13,15,17,19,21,23,25,27,29,-1,-1,-1,-1,-1,-1,-1,-1,-1,-1,-1,-1,-1,-1,-1,-1],"loss_changes":[2.0687152E2,3.837755E1,3.299533E1,1.7741776E1,1.0090521E1,9.93676E0,6.3745117E0,1.4541008E1,4.711975E0,7.870185E0,8.406649E0,7.445405E0,6.1401386E0,6.362808E0,4.050691E0,0E0,0E0,0E0,0E0,0E0,0E0,0E0,0E0,0E0,0E0,0E0,0E0,0E0,0E0,0E0,0E0],"parents":[2147483647,0,0,1,1,2,2,3,3,4,4,5,5,6,6,7,7,8,8,9,9,10,10,11,11,12,12,13,13,14,14],"right_children":[2,4,6,8,10,12,14,16,18,20,22,24,26,28,30,-1,-1,-1,-1,-1,-1,-1,-1,-1,-1,-1,-1,-1,-1,-1,-1],"split_conditions":[-3.1845373E-1,-9.963334E-1,5.1082563E-1,1.6095054E3,1.4480606E0,1.546897E3,1.5044923E3,1.7142857E0,1.1E2,1.4798767E3,6.5E1,1.5535556E0,2.9E1,1.6973876E0,1.4789924E3,4.1182367E-3,8.702296E-3,2.1E-2,1.1621434E-2,3.5685254E-3,-1.0503959E-3,5.2344115E-3,1.66911E-3,-2.4221467E-3,-9.164549E-5,1.421198E-2,1.7467499E-3,-5.2279085E-3,-2.327127E-3,1.6017152E-2,-2.176322E-3],"split_indices":[35,35,35,28,22,28,28,19,33,29,32,23,5,23,29,0,0,0,0,0,0,0,0,0,0,0,0,0,0,0,0],"split_type":[0,0,0,0,0,0,0,0,0,0,0,0,0,0,0,0,0,0,0,0,0,0,0,0,0,0,0,0,0,0,0],"sum_hessian":[1.8101506E4,7.0151553E3,1.108635E4,3.0226677E3,3.9924875E3,5.704674E3,5.3816763E3,2.6868591E3,3.3580844E2,1.6051844E3,2.387303E3,5.0030737E3,7.016003E2,4.4327607E3,9.4891547E2,1.7020524E3,9.848068E2,4.5511646E1,2.9029678E2,4.6769153E2,1.1374929E3,1.1397178E3,1.2475852E3,2.7944905E3,2.2085833E3,3.6613014E1,6.6498724E2,3.5901223E3,8.4263824E2,1.0156422E1,9.3875903E2],"tree_param":{"num_deleted":"0","num_feature":"36","num_nodes":"31","size_leaf_vector":"1"}},{"base_weights":[1.2962371E-3,1.4162211E-1,-7.0267946E-2,2.2194946E-1,6.2850796E-2,-3.2842875E-2,-1.453928E-1,1.9711313E-1,4.074179E-1,-7.6335676E-2,8.551157E-2,-7.121275E-2,9.739807E-3,-1.6958934E-1,-9.366325E-2,7.5697713E-3,3.5701625E-3,1.0261381E-2,2.1E-2,-3.338388E-3,5.7698092E-3,2.3468854E-3,1.23057375E-2,-2.777277E-3,-5.359435E-4,2.8446498E-3,-8.579457E-4,-6.506819E-3,-4.236223E-3,-7.132891E-3,-1.9859888E-3],"categories":[],"categories_nodes":[],"categories_segments":[],"categories_sizes":[],"default_left":[0,0,0,0,0,0,1,0,0,0,0,1,0,0,0,0,0,0,0,0,0,0,0,0,0,0,0,0,0,0,0],"id":10,"left_children":[1,3,5,7,9,11,13,15,17,19,21,23,25,27,29,-1,-1,-1,-1,-1,-1,-1,-1,-1,-1,-1,-1,-1,-1,-1,-1],"loss_changes":[1.8134892E2,3.857811E1,3.3619675E1,1.382782E1,9.723517E0,1.3045607E1,4.961342E0,1.14615555E1,7.185528E0,4.075928E0,6.23316E0,4.7848244E0,1.2349243E1,3.6050873E0,5.0081816E0,0E0,0E0,0E0,0E0,0E0,0E0,0E0,0E0,0E0,0E0,0E0,0E0,0E0,0E0,0E0,0E0],"parents":[2147483647,0,0,1,1,2,2,3,3,4,4,5,5,6,6,7,7,8,8,9,9,10,10,11,11,12,12,13,13,14,14],"right_children":[2,4,6,8,10,12,14,16,18,20,22,24,26,28,30,-1,-1,-1,-1,-1,-1,-1,-1,-1,-1,-1,-1,-1,-1,-1,-1],"split_conditions":[-4.1630814E1,-9.0445626E-1,7.3396915E-1,1.6095054E3,1.4786342E3,1.3767606E0,1.4279662E0,1.502027E3,1.99693E0,2.3333333E0,-4.2878796E1,1.6666666E0,4.6E1,1.4574854E3,3.5E1,7.5697713E-3,3.5701625E-3,1.0261381E-2,2.1E-2,-3.338388E-3,5.7698092E-3,2.3468854E-3,1.23057375E-2,-2.777277E-3,-5.359435E-4,2.8446498E-3,-8.579457E-4,-6.506819E-3,-4.236223E-3,-7.132891E-3,-1.9859888E-3],"split_indices":[31,35,35,28,28,22,23,29,23,19,31,19,5,28,5,0,0,0,0,0,0,0,0,0,0,0,0,0,0,0,0],"split_type":[0,0,0,0,0,0,0,0,0,0,0,0,0,0,0,0,0,0,0,0,0,0,0,0,0,0,0,0,0,0,0],"sum_hessian":[1.8056502E4,6.098109E3,1.1958393E4,3.0183342E3,3.0797747E3,7.98295E3,3.975442E3,2.6636975E3,3.5463657E2,4.3087802E2,2.6488967E3,4.19884E3,3.7841106E3,2.706974E3,1.2684678E3,1.559261E3,1.1044366E3,2.965045E2,5.813208E1,3.8180405E2,4.9073986E1,2.592003E3,5.6893627E1,2.997684E3,1.2011556E3,1.1750034E3,2.6091072E3,1.0126051E3,1.6943689E3,2.0182872E2,1.0666392E3],"tree_param":{"num_deleted":"0","num_feature":"36","num_nodes":"31","size_leaf_vector":"1"}},{"base_weights":[-1.2131002E-3,1.5693222E-1,-6.226617E-2,1.01027876E-1,2.4079543E-1,-2.1889519E-2,-1.3104108E-1,-1.9321067E-2,1.2257597E-1,5.56323E-1,2.2530203E-1,-5.9583098E-2,2.6139127E-2,-1.4670147E-1,-4.1517574E-2,1.802039E-2,-1.1662861E-3,6.971425E-3,2.931504E-3,2.1E-2,9.476949E-3,1.2036917E-2,6.017668E-3,-2.7733983E-3,1.3145391E-4,2.0102991E-3,-8.6778007E-4,-2.9328635E-3,-5.0911386E-3,-2.7700252E-4,-9.046269E-3],"categories":[],"categories_nodes":[],"categories_segments":[],"categories_sizes":[],"default_left":[0,0,0,0,0,0,0,0,0,0,0,1,0,0,0,0,0,0,0,0,0,0,0,0,0,0,0,0,0,0,0],"id":11,"left_children":[1,3,5,7,9,11,13,15,17,19,21,23,25,27,29,-1,-1,-1,-1,-1,-1,-1,-1,-1,-1,-1,-1,-1,-1,-1,-1],"loss_changes":[1.7454109E2,2.3581604E1,3.621415E1,7.841501E0,9.7163925E0,1.4880894E1,6.7574615E0,5.5993414E0,6.9759827E0,5.840355E0,8.27002E0,9.681116E0,8.137051E0,4.605377E0,6.038578E0,0E0,0E0,0E0,0E0,0E0,0E0,0E0,0E0,0E0,0E0,0E0,0E0,0E0,0E0,0E0,0E0],"parents":[2147483647,0,0,1,1,2,2,3,3,4,4,5,5,6,6,7,7,8,8,9,9,10,10,11,11,12,12,13,13,14,14],"right_children":[2,4,6,8,10,12,14,16,18,20,22,24,26,28,30,-1,-1,-1,-1,-1,-1,-1,-1,-1,-1,-1,-1,-1,-1,-1,-1],"split_conditions":[-6.2114735E1,2E0,8.046266E1,2.2E2,-3.25E0,1.4668415E0,3.8E2,-1.7044681E2,1.5208513E3,1.460885E3,7.345188E-1,1.6666666E0,1.5262643E3,1.25595436E2,2.6E0,1.802039E-2,-1.1662861E-3,6.971425E-3,2.931504E-3,2.1E-2,9.476949E-3,1.2036917E-2,6.017668E-3,-2.7733983E-3,1.3145391E-4,2.0102991E-3,-8.6778007E-4,-2.9328635E-3,-5.0911386E-3,-2.7700252E-4,-9.046269E-3],"split_indices":[31,18,2,34,26,22,34,31,30,29,24,19,29,2,26,0,0,0,0,0,0,0,0,0,0,0,0,0,0,0,0],"split_type":[0,0,0,0,0,0,0,0,0,0,0,0,0,0,0,0,0,0,0,0,0,0,0,0,0,0,0,0,0,0,0],"sum_hessian":[1.80753E4,5.0340547E3,1.3041245E4,3.0218525E3,2.0122023E3,8.21794E3,4.823304E3,4.589058E2,2.5629468E3,9.2547165E1,1.9196552E3,4.604232E3,3.6137087E3,4.1046387E3,7.186656E2,1.312292E1,4.4578287E2,4.7158243E2,2.0913645E3,3.755024E1,5.4996925E1,2.3456789E2,1.6850873E3,3.041264E3,1.5629681E3,2.0740645E3,1.5396442E3,1.3141106E3,2.790528E3,6.4021344E2,7.845213E1],"tree_param":{"num_deleted":"0","num_feature":"36","num_nodes":"31","size_leaf_vector":"1"}},{"base_weights":[-4.7453903E-4,1.5748264E-1,-6.222439E-2,2.8627577E-1,1.2747738E-1,3.7513976E-3,-1.14908874E-1,5.2899295E-1,2.1576715E-1,1.4770453E-1,-3.332473E-2,-1.440302E-2,1.6390179E-1,-7.881615E-2,-1.4983012E-1,1.9270038E-2,7.919184E-3,5.296368E-3,1.2111282E-2,4.047381E-3,9.645062E-3,1.3072556E-2,-1.6973559E-3,2.1E-2,-4.6845948E-4,1.0412257E-2,3.5012183E-3,-3.041274E-3,-8.984969E-4,-5.811106E-3,-3.261179E-3],"categories":[],"categories_nodes":[],"categories_segments":[],"categories_sizes":[],"default_left":[0,0,0,0,0,1,0,0,0,0,0,0,0,1,0,0,0,0,0,0,0,0,0,0,0,0,0,0,0,0,0],"id":12,"left_children":[1,3,5,7,9,11,13,15,17,19,21,23,25,27,29,-1,-1,-1,-1,-1,-1,-1,-1,-1,-1,-1,-1,-1,-1,-1,-1],"loss_changes":[1.7692558E2,1.9664917E1,4.532962E1,1.635759E1,1.3459488E1,1.6839602E1,9.127228E0,6.317787E0,5.4389687E0,8.1259E0,5.0751357E0,4.5966396E0,5.05742E0,3.9300709E0,6.626091E0,0E0,0E0,0E0,0E0,0E0,0E0,0E0,0E0,0E0,0E0,0E0,0E0,0E0,0E0,0E0,0E0],"parents":[2147483647,0,0,1,1,2,2,3,3,4,4,5,5,6,6,7,7,8,8,9,9,10,10,11,11,12,12,13,13,14,14],"right_children":[2,4,6,8,10,12,14,16,18,20,22,24,26,28,30,-1,-1,-1,-1,-1,-1,-1,-1,-1,-1,-1,-1,-1,-1,-1,-1],"split_conditions":[-6.1903924E-1,-1.5649861E0,2.2314355E-1,1.4686929E3,-2.340262E1,2.4E0,7.985077E-1,1.3216292E0,1.4907212E3,3E0,2E-1,4.4785815E-1,-1.4075108E2,1.6E0,1.4677322E3,1.9270038E-2,7.919184E-3,5.296368E-3,1.2111282E-2,4.047381E-3,9.645062E-3,1.3072556E-2,-1.6973559E-3,2.1E-2,-4.6845948E-4,1.0412257E-2,3.5012183E-3,-3.041274E-3,-8.984969E-4,-5.811106E-3,-3.261179E-3],"split_indices":[35,35,35,29,2,12,35,24,27,12,9,24,2,19,28,0,0,0,0,0,0,0,0,0,0,0,0,0,0,0,0],"split_type":[0,0,0,0,0,0,0,0,0,0,0,0,0,0,0,0,0,0,0,0,0,0,0,0,0,0,0,0,0,0,0],"sum_hessian":[1.813708E4,5.097089E3,1.303999E4,9.614908E2,4.135598E3,5.7900933E3,7.249897E3,2.1497238E2,7.4651843E2,3.6735833E3,4.6201498E2,5.2013823E3,5.887111E2,3.5667515E3,3.6831455E3,1.4957826E2,6.539412E1,6.192309E2,1.2728753E2,3.4233916E3,2.5019148E2,2.098409E1,4.4103088E2,7.678585E0,5.1937036E3,1.19305E2,4.6940613E2,2.439469E3,1.1272825E3,1.7802118E3,1.9029338E3],"tree_param":{"num_deleted":"0","num_feature":"36","num_nodes":"31","size_leaf_vector":"1"}},{"base_weights":[-2.0211148E-3,1.2224687E-1,-8.144473E-2,8.0803744E-2,2.5715607E-1,-4.098562E-2,-1.4497855E-1,1.6005614E-1,4.6681542E-2,3.9198512E-1,2.055345E-1,-6.3378826E-2,1.6580636E-2,-1.6259007E-1,-5.63031E-2,1.6282778E-2,4.4814586E-3,-2.2031901E-4,2.719191E-3,1.6212154E-2,7.5748414E-3,1.5699875E-2,5.5623082E-3,-2.2830812E-3,1.3444085E-3,3.4227336E-4,1.2060766E-2,-2.8542776E-3,-5.424925E-3,2.4070914E-4,-4.383374E-3],"categories":[],"categories_nodes":[],"categories_segments":[],"categories_sizes":[],"default_left":[0,0,0,0,0,1,0,0,0,0,0,0,1,0,0,0,0,0,0,0,0,0,0,0,0,0,0,0,0,0,0],"id":13,"left_children":[1,3,5,7,9,11,13,15,17,19,21,23,25,27,29,-1,-1,-1,-1,-1,-1,-1,-1,-1,-1,-1,-1,-1,-1,-1,-1],"loss_changes":[1.7889075E2,3.949312E1,2.841809E1,1.4617096E1,1.147583E1,8.711476E0,6.708809E0,6.566166E0,8.981789E0,9.357994E0,7.595196E0,6.7005367E0,3.7690861E0,4.397545E0,4.1278267E0,0E0,0E0,0E0,0E0,0E0,0E0,0E0,0E0,0E0,0E0,0E0,0E0,0E0,0E0,0E0,0E0],"parents":[2147483647,0,0,1,1,2,2,3,3,4,4,5,5,6,6,7,7,8,8,9,9,10,10,11,11,12,12,13,13,14,14],"right_children":[2,4,6,8,10,12,14,16,18,20,22,24,26,28,30,-1,-1,-1,-1,-1,-1,-1,-1,-1,-1,-1,-1,-1,-1,-1,-1],"split_conditions":[-3.1365755E-1,1.5682084E3,6.931472E-1,-1.0726368E0,-1.5649861E0,1.7277519E0,1.5036307E3,-2.2380466E0,1.4434286E0,1.4970626E3,6.6039115E-1,1.5524927E3,2.622154E0,4E-1,2.2E0,1.6282778E-2,4.4814586E-3,-2.2031901E-4,2.719191E-3,1.6212154E-2,7.5748414E-3,1.5699875E-2,5.5623082E-3,-2.2830812E-3,1.3444085E-3,3.4227336E-4,1.2060766E-2,-2.8542776E-3,-5.424925E-3,2.4070914E-4,-4.383374E-3],"split_indices":[35,28,35,35,35,23,28,35,22,29,24,28,22,25,9,0,0,0,0,0,0,0,0,0,0,0,0,0,0,0,0],"split_type":[0,0,0,0,0,0,0,0,0,0,0,0,0,0,0,0,0,0,0,0,0,0,0,0,0,0,0,0,0,0,0],"sum_hessian":[1.8123031E4,7.066339E3,1.1056691E4,5.4069595E3,1.6593793E3,6.756021E3,4.300671E3,1.6262146E3,3.7807449E3,4.5759796E2,1.2017812E3,4.863878E3,1.8921432E3,3.5873643E3,7.133068E2,4.2774303E1,1.5834403E3,1.6965193E3,2.0842256E3,2.2031021E2,2.3728773E2,7.008105E1,1.1317003E3,4.3523228E3,5.1155475E2,1.8681083E3,2.4034847E1,7.649787E2,2.8223855E3,4.1614795E2,2.9715887E2],"tree_param":{"num_deleted":"0","num_feature":"36","num_nodes":"31","size_leaf_vector":"1"}},{"base_weights":[3.0231667E-3,1.5444909E-1,-5.8509175E-2,2.773527E-1,1.2286541E-1,6.991278E-3,-1.1669369E-1,2.4094571E-1,4.8497573E-1,1.4001474E-1,-2.0698993E-2,-7.7375574E-3,1.4605817E-1,-1.375004E-1,-2.6410226E-2,1.2170099E-2,6.138583E-3,1.9344114E-2,4.774372E-3,6.1311168E-3,3.1164554E-3,-3.1568245E-3,3.8200032E-3,-1.3726741E-3,5.6454167E-4,1.0662824E-2,3.0813734E-3,-4.575106E-3,-1.6062222E-3,-4.796004E-3,5.8366393E-4],"categories":[],"categories_nodes":[],"categories_segments":[],"categories_sizes":[],"default_left":[0,0,0,1,0,1,1,0,1,0,0,0,0,1,1,0,0,0,0,0,0,0,0,0,0,0,0,0,0,0,0],"id":14,"left_children":[1,3,5,7,9,11,13,15,17,19,21,23,25,27,29,-1,-1,-1,-1,-1,-1,-1,-1,-1,-1,-1,-1,-1,-1,-1,-1],"loss_changes":[1.7081305E2,2.0527344E1,4.9680176E1,8.062859E0,1.0382416E1,1.2563562E1,1.2964188E1,5.438072E0,8.253376E0,8.736298E0,5.653374E0,5.6008067E0,5.2944155E0,7.058632E0,7.9249573E0,0E0,0E0,0E0,0E0,0E0,0E0,0E0,0E0,0E0,0E0,0E0,0E0,0E0,0E0,0E0,0E0],"parents":[2147483647,0,0,1,1,2,2,3,3,4,4,5,5,6,6,7,7,8,8,9,9,10,10,11,11,12,12,13,13,14,14],"right_children":[2,4,6,8,10,12,14,16,18,20,22,24,26,28,30,-1,-1,-1,-1,-1,-1,-1,-1,-1,-1,-1,-1,-1,-1,-1,-1],"split_conditions":[-6.1903924E-1,-1.5293952E0,2.6236427E-1,2.4E0,-2.6843306E1,2.25E0,1.7277519E0,1.4007719E3,-1.6E0,6.5E1,1.6666666E0,1.4327762E0,-1.4075108E2,1.7266116E0,9E-1,1.2170099E-2,6.138583E-3,1.9344114E-2,4.774372E-3,6.1311168E-3,3.1164554E-3,-3.1568245E-3,3.8200032E-3,-1.3726741E-3,5.6454167E-4,1.0662824E-2,3.0813734E-3,-4.575106E-3,-1.6062222E-3,-4.796004E-3,5.8366393E-4],"split_indices":[35,35,35,13,2,12,23,3,26,32,13,23,2,22,18,0,0,0,0,0,0,0,0,0,0,0,0,0,0,0,0],"split_type":[0,0,0,0,0,0,0,0,0,0,0,0,0,0,0,0,0,0,0,0,0,0,0,0,0,0,0,0,0,0,0],"sum_hessian":[1.8330348E4,5.2959497E3,1.3034397E4,1.0811237E3,4.214826E3,6.132122E3,6.902276E3,9.216684E2,1.5945522E2,3.7650955E3,4.497307E2,5.54571E3,5.864122E2,5.6090845E3,1.2931915E3,1.6469212E2,7.569763E2,1.0632237E2,5.3132843E1,1.3521473E3,2.4129482E3,2.86452E2,1.6327873E2,2.2803425E3,3.2653672E3,9.93466E1,4.8706555E2,4.758033E3,8.51051E2,3.3012698E2,9.630645E2],"tree_param":{"num_deleted":"0","num_feature":"36","num_nodes":"31","size_leaf_vector":"1"}},{"base_weights":[1.4293494E-4,1.3869716E-1,-5.529026E-2,6.319157E-2,1.9456798E-1,4.957251E-3,-9.33769E-2,-1.44756315E-2,1.010147E-1,2.7711785E-1,1.5582946E-1,-6.8176673E-3,2.2658017E-1,-1.1023695E-1,-1.45647125E-2,-2.7772228E-3,1.5725469E-3,1.6830502E-3,7.206538E-3,7.0797494E-3,1.5866404E-2,6.472383E-3,2.9518888E-3,-2.858829E-3,3.0790007E-4,2.22832E-3,1.0325319E-2,-2.419808E-3,-4.448068E-3,-2.0869235E-3,1.5748272E-3],"categories":[],"categories_nodes":[],"categories_segments":[],"categories_sizes":[],"default_left":[0,0,0,0,1,0,1,0,1,1,0,0,1,0,0,0,0,0,0,0,0,0,0,0,0,0,0,0,0,0,0],"id":15,"left_children":[1,3,5,7,9,11,13,15,17,19,21,23,25,27,29,-1,-1,-1,-1,-1,-1,-1,-1,-1,-1,-1,-1,-1,-1,-1,-1],"loss_changes":[1.3883484E2,2.1778313E1,2.962603E1,6.4589043E0,9.448769E0,1.305358E1,1.0509415E1,3.770446E0,9.229589E0,9.67778E0,6.938545E0,7.179818E0,4.4942617E0,7.317787E0,5.149291E0,0E0,0E0,0E0,0E0,0E0,0E0,0E0,0E0,0E0,0E0,0E0,0E0,0E0,0E0,0E0,0E0],"parents":[2147483647,0,0,1,1,2,2,3,3,4,4,5,5,6,6,7,7,8,8,9,9,10,10,11,11,12,12,13,13,14,14],"right_children":[2,4,6,8,10,12,14,16,18,20,22,24,26,28,30,-1,-1,-1,-1,-1,-1,-1,-1,-1,-1,-1,-1,-1,-1,-1,-1],"split_conditions":[-6.1140263E1,1.7075396E0,1.298786E1,3E2,-1.8E0,9E2,1.739308E0,5.5E1,2E0,2.125694E0,1.4689705E3,1.4486584E3,1.0492134E0,1.0005958E2,1.8E2,-2.7772228E-3,1.5725469E-3,1.6830502E-3,7.206538E-3,7.0797494E-3,1.5866404E-2,6.472383E-3,2.9518888E-3,-2.858829E-3,3.0790007E-4,2.22832E-3,1.0325319E-2,-2.419808E-3,-4.448068E-3,-2.0869235E-3,1.5748272E-3],"split_indices":[31,22,31,34,26,34,23,5,19,23,3,27,24,31,34,0,0,0,0,0,0,0,0,0,0,0,0,0,0,0,0],"split_type":[0,0,0,0,0,0,0,0,0,0,0,0,0,0,0,0,0,0,0,0,0,0,0,0,0,0,0,0,0,0,0],"sum_hessian":[1.807427E4,5.1644136E3,1.2909855E4,2.1971912E3,2.9672222E3,5.000563E3,7.9092925E3,7.1978326E2,1.477408E3,9.457411E2,2.0214812E3,4.7492046E3,2.5135799E2,6.5151313E3,1.3941615E3,3.319031E2,3.8788016E2,1.1180721E3,3.593358E2,8.146093E2,1.3113179E2,9.8800116E2,1.03348E3,7.677603E2,3.9814446E3,1.1022918E2,1.411288E2,3.66672E3,2.8484111E3,7.6593286E2,6.2822864E2],"tree_param":{"num_deleted":"0","num_feature":"36","num_nodes":"31","size_leaf_vector":"1"}},{"base_weights":[-4.5774235E-5,1.4149557E-1,-5.8651436E-2,2.8764468E-1,1.1296488E-1,1.9773906E-3,-1.0869572E-1,4.345099E-1,2.1812193E-1,1.3328804E-1,1.7298318E-2,-1.2891948E-2,1.7071076E-1,-1.3269326E-1,-2.0040607E-2,6.6425255E-3,1.5561647E-2,-2.3890226E-3,8.08875E-3,2.9280225E-3,5.999552E-3,6.195471E-5,1.1375304E-2,-3.0049903E-3,4.544851E-5,4.257481E-3,1.7601032E-2,-2.7780891E-3,-5.1952456E-3,-1.5421971E-3,5.523479E-3],"categories":[],"categories_nodes":[],"categories_segments":[],"categories_sizes":[],"default_left":[0,0,0,0,0,0,0,0,0,0,0,0,1,0,1,0,0,0,0,0,0,0,0,0,0,0,0,0,0,0,0],"id":16,"left_children":[1,3,5,7,9,11,13,15,17,19,21,23,25,27,29,-1,-1,-1,-1,-1,-1,-1,-1,-1,-1,-1,-1,-1,-1,-1,-1],"loss_changes":[1.4995177E2,2.2038803E1,3.8788136E1,8.726044E0,8.611309E0,1.4508E1,1.4896843E1,4.847847E0,9.043993E0,8.677643E0,4.2847123E0,6.6821165E0,5.5262165E0,8.928268E0,9.570198E0,0E0,0E0,0E0,0E0,0E0,0E0,0E0,0E0,0E0,0E0,0E0,0E0,0E0,0E0,0E0,0E0],"parents":[2147483647,0,0,1,1,2,2,3,3,4,4,5,5,6,6,7,7,8,8,9,9,10,10,11,11,12,12,13,13,14,14],"right_children":[2,4,6,8,10,12,14,16,18,20,22,24,26,28,30,-1,-1,-1,-1,-1,-1,-1,-1,-1,-1,-1,-1,-1,-1,-1,-1],"split_conditions":[-5.9559235E1,-1.5649861E0,2.2314355E-1,1.4722369E3,7E1,2.2E0,1.6865902E0,1.6666666E0,1.5824052E0,2.003516E0,1.5921998E3,1.4486584E3,3E0,9.710022E1,1.6666666E0,6.6425255E-3,1.5561647E-2,-2.3890226E-3,8.08875E-3,2.9280225E-3,5.999552E-3,6.195471E-5,1.1375304E-2,-3.0049903E-3,4.544851E-5,4.257481E-3,1.7601032E-2,-2.7780891E-3,-5.1952456E-3,-1.5421971E-3,5.523479E-3],"split_indices":[31,35,35,29,32,18,23,10,22,22,3,27,11,31,18,0,0,0,0,0,0,0,0,0,0,0,0,0,0,0,0],"split_type":[0,0,0,0,0,0,0,0,0,0,0,0,0,0,0,0,0,0,0,0,0,0,0,0,0,0,0,0,0,0,0],"sum_hessian":[1.8075096E4,5.292211E3,1.2782886E4,8.629004E2,4.4293105E3,5.780613E3,7.002273E3,2.7555237E2,5.87348E2,3.6529038E3,7.7640674E2,5.31331E3,4.6730276E2,5.5102407E3,1.4920322E3,7.907849E1,1.9647386E2,8.653203E1,5.0081598E2,2.3812446E3,1.271659E3,7.460094E2,3.0397322E1,7.519826E2,4.5613276E3,4.383046E2,2.8998148E1,2.7701523E3,2.7400881E3,1.2939778E3,1.980544E2],"tree_param":{"num_deleted":"0","num_feature":"36","num_nodes":"31","size_leaf_vector":"1"}},{"base_weights":[-4.283744E-3,1.4077356E-1,-6.33542E-2,2.6812115E-1,1.11480005E-1,-1.3250906E-2,-1.23131916E-1,4.3468073E-1,2.035415E-1,1.4615884E-1,5.4867737E-2,-3.5876997E-2,6.493179E-2,-1.3877054E-1,-5.020685E-2,1.6114345E-2,4.8284773E-3,4.547235E-3,1.2233735E-2,4.238281E-3,1.9592205E-2,7.698877E-4,5.699533E-3,1.9220358E-2,-1.1274529E-3,1.4910165E-3,9.316478E-3,-4.76742E-3,-2.8181474E-3,-5.459005E-3,-2.2371083E-4],"categories":[],"categories_nodes":[],"categories_segments":[],"categories_sizes":[],"default_left":[0,0,0,0,0,1,1,0,0,0,1,0,0,0,0,0,0,0,0,0,0,0,0,0,0,0,0,0,0,0,0],"id":17,"left_children":[1,3,5,7,9,11,13,15,17,19,21,23,25,27,29,-1,-1,-1,-1,-1,-1,-1,-1,-1,-1,-1,-1,-1,-1,-1,-1],"loss_changes":[1.5426234E2,1.9404999E1,3.8315365E1,1.0383606E1,8.3106575E0,1.2316143E1,6.6456985E0,7.518173E0,7.404663E0,6.410034E0,6.3529806E0,6.2514544E0,5.83081E0,4.322342E0,5.809512E0,0E0,0E0,0E0,0E0,0E0,0E0,0E0,0E0,0E0,0E0,0E0,0E0,0E0,0E0,0E0,0E0],"parents":[2147483647,0,0,1,1,2,2,3,3,4,4,5,5,6,6,7,7,8,8,9,9,10,10,11,11,12,12,13,13,14,14],"right_children":[2,4,6,8,10,12,14,16,18,20,22,24,26,28,30,-1,-1,-1,-1,-1,-1,-1,-1,-1,-1,-1,-1,-1,-1,-1,-1],"split_conditions":[-6.1903924E-1,-1.5649861E0,4.054651E-1,1.4722369E3,-7.649525E1,1.7777778E0,1.5555556E0,1.3447654E0,1.4907212E3,4E0,1.75E0,5.18368E-1,1.7642505E3,2E2,8.333333E-1,1.6114345E-2,4.8284773E-3,4.547235E-3,1.2233735E-2,4.238281E-3,1.9592205E-2,7.698877E-4,5.699533E-3,1.9220358E-2,-1.1274529E-3,1.4910165E-3,9.316478E-3,-4.76742E-3,-2.8181474E-3,-5.459005E-3,-2.2371083E-4],"split_indices":[35,35,35,29,31,18,18,24,27,12,11,24,4,34,19,0,0,0,0,0,0,0,0,0,0,0,0,0,0,0,0],"split_type":[0,0,0,0,0,0,0,0,0,0,0,0,0,0,0,0,0,0,0,0,0,0,0,0,0,0,0,0,0,0,0],"sum_hessian":[1.800117E4,5.2087754E3,1.2792395E4,9.725717E2,4.2362036E3,6.960012E3,5.832383E3,2.701326E2,7.024391E2,2.626012E3,1.6101918E3,5.3982876E3,1.5617246E3,4.801755E3,1.0306282E3,1.9585658E2,7.4276024E1,5.61356E2,1.4108307E2,2.6022249E3,2.3786993E1,1.3249912E3,2.8520047E2,1.26262E1,5.385661E3,1.4716659E3,9.005865E1,3.3113826E3,1.4903721E3,2.5167615E2,7.78952E2],"tree_param":{"num_deleted":"0","num_feature":"36","num_nodes":"31","size_leaf_vector":"1"}},{"base_weights":[-1.120419E-3,1.1279468E-1,-7.57335E-2,1.951581E-1,5.9658024E-2,-2.655282E-2,-1.3053332E-1,1.17009796E-1,2.41953E-1,1.4828011E-1,3.4032673E-2,-4.2243972E-2,8.719646E-2,-1.721759E-1,-8.889707E-2,3.8720001E-3,-8.63359E-3,6.7431116E-3,1.4001659E-2,4.1263746E-3,2.1E-2,4.3147398E-4,4.5896512E-3,1.5198601E-2,-1.3201083E-3,6.9565563E-3,1.3993721E-3,-6.32017E-3,-4.5621893E-3,-2.0734847E-3,-6.21093E-3],"categories":[],"categories_nodes":[],"categories_segments":[],"categories_sizes":[],"default_left":[0,0,0,0,0,0,1,0,0,0,0,0,0,0,0,0,0,0,0,0,0,0,0,0,0,0,0,0,0,0,0],"id":18,"left_children":[1,3,5,7,9,11,13,15,17,19,21,23,25,27,29,-1,-1,-1,-1,-1,-1,-1,-1,-1,-1,-1,-1,-1,-1,-1,-1],"loss_changes":[1.5547304E2,3.1671356E1,2.9784237E1,1.0351852E1,9.991421E0,1.04025955E1,9.048172E0,5.2351017E0,6.7481995E0,8.618208E0,7.982296E0,4.9677677E0,4.134934E0,1.9896927E0,6.0986595E0,0E0,0E0,0E0,0E0,0E0,0E0,0E0,0E0,0E0,0E0,0E0,0E0,0E0,0E0,0E0,0E0],"parents":[2147483647,0,0,1,1,2,2,3,3,4,4,5,5,6,6,7,7,8,8,9,9,10,10,11,11,12,12,13,13,14,14],"right_children":[2,4,6,8,10,12,14,16,18,20,22,24,26,28,30,-1,-1,-1,-1,-1,-1,-1,-1,-1,-1,-1,-1,-1,-1,-1,-1],"split_conditions":[-3.2850406E-1,-1.0726368E0,5.1082563E-1,1.5384957E3,1.48138E3,2.2E0,1.2700799E0,3.2E2,3.25E0,2.1774435E0,1.575919E3,5.18368E-1,3.4E1,1.4574854E3,1.7109482E2,3.8720001E-3,-8.63359E-3,6.7431116E-3,1.4001659E-2,4.1263746E-3,2.1E-2,4.3147398E-4,4.5896512E-3,1.5198601E-2,-1.3201083E-3,6.9565563E-3,1.3993721E-3,-6.32017E-3,-4.5621893E-3,-2.0734847E-3,-6.21093E-3],"split_indices":[35,35,35,28,29,12,23,33,12,21,28,24,5,28,31,0,0,0,0,0,0,0,0,0,0,0,0,0,0,0,0],"split_type":[0,0,0,0,0,0,0,0,0,0,0,0,0,0,0,0,0,0,0,0,0,0,0,0,0,0,0,0,0,0,0],"sum_hessian":[1.8289896E4,7.23832E3,1.1051576E4,2.8374753E3,4.400844E3,5.8251855E3,5.22639E3,1.064029E3,1.7734463E3,9.8602234E2,3.414822E3,5.119592E3,7.055938E2,2.611429E3,2.6149612E3,1.0339149E3,3.0114073E1,1.64936E3,1.2408634E2,9.7749884E2,8.523501E0,2.9316636E3,4.8315845E2,1.5443877E1,5.104148E3,1.5342847E2,5.5216534E2,8.9261664E2,1.7188124E3,2.241259E3,3.7370203E2],"tree_param":{"num_deleted":"0","num_feature":"36","num_nodes":"31","size_leaf_vector":"1"}},{"base_weights":[-1.9778223E-3,1.4562088E-1,-6.1389618E-2,1.8559754E-1,5.762612E-2,-1.1357451E-2,-1.2685552E-1,7.592851E-2,2.1801549E-1,2.1408195E-2,2.0534067E-1,-2.5748888E-2,1.13513306E-1,-1.4333919E-1,-5.846939E-2,5.4248944E-3,-5.0414243E-4,7.4149747E-3,3.1281954E-3,4.7552786E-3,-3.4188916E-4,-8.89945E-3,7.0121447E-3,3.0884397E-4,-1.9005473E-3,-3.0860654E-4,4.744126E-3,-4.836843E-3,-2.0863372E-3,-4.33762E-3,-2.459043E-4],"categories":[],"categories_nodes":[],"categories_segments":[],"categories_sizes":[],"default_left":[0,0,0,0,1,0,1,0,0,0,0,0,1,0,1,0,0,0,0,0,0,0,0,0,0,0,0,0,0,0,0],"id":19,"left_children":[1,3,5,7,9,11,13,15,17,19,21,23,25,27,29,-1,-1,-1,-1,-1,-1,-1,-1,-1,-1,-1,-1,-1,-1,-1,-1],"loss_changes":[1.5807552E2,1.8188553E1,4.209674E1,1.2629295E1,8.649663E0,1.3096841E1,6.2676773E0,7.912502E0,9.075241E0,5.849511E0,4.6082706E0,8.856589E0,4.1624002E0,5.910164E0,4.6876926E0,0E0,0E0,0E0,0E0,0E0,0E0,0E0,0E0,0E0,0E0,0E0,0E0,0E0,0E0,0E0,0E0],"parents":[2147483647,0,0,1,1,2,2,3,3,4,4,5,5,6,6,7,7,8,8,9,9,10,10,11,11,12,12,13,13,14,14],"right_children":[2,4,6,8,10,12,14,16,18,20,22,24,26,28,30,-1,-1,-1,-1,-1,-1,-1,-1,-1,-1,-1,-1,-1,-1,-1,-1],"split_conditions":[-6.241543E-1,-7.361859E1,4.4183275E-1,1.4821306E0,1.875E0,2.25E0,1.6865902E0,1.4202941E3,7E1,-1.2039728E0,-7.10292E1,-1.1188437E0,9.920104E-1,1.5049846E3,1.0910178E0,5.4248944E-3,-5.0414243E-4,7.4149747E-3,3.1281954E-3,4.7552786E-3,-3.4188916E-4,-8.89945E-3,7.0121447E-3,3.0884397E-4,-1.9005473E-3,-3.0860654E-4,4.744126E-3,-4.836843E-3,-2.0863372E-3,-4.33762E-3,-2.459043E-4],"split_indices":[35,31,35,22,19,12,23,3,32,35,31,31,23,28,22,0,0,0,0,0,0,0,0,0,0,0,0,0,0,0,0],"split_type":[0,0,0,0,0,0,0,0,0,0,0,0,0,0,0,0,0,0,0,0,0,0,0,0,0,0,0,0,0,0,0],"sum_hessian":[1.8024398E4,5.172567E3,1.2851831E4,3.5559592E3,1.6166075E3,7.2852607E3,5.5665703E3,8.120748E2,2.7438843E3,1.2992028E3,3.174048E2,6.5331094E3,7.521513E2,4.4845312E3,1.082039E3,3.8059256E2,4.3148227E2,2.1831938E3,5.606906E2,2.5010356E2,1.0490992E3,1.6488438E1,3.0091635E2,3.3360742E3,3.197035E3,1.9948715E2,5.526642E2,3.6085737E3,8.759575E2,3.9814032E2,6.8389856E2],"tree_param":{"num_deleted":"0","num_feature":"36","num_nodes":"31","size_leaf_vector":"1"}},{"base_weights":[2.1132317E-3,1.4047289E-1,-5.3595077E-2,1.0286891E-1,2.3116955E-1,5.5299946E-3,-1.0317075E-1,1.9314663E-1,5.369856E-2,4.698388E-1,2.1553892E-1,-3.4890674E-2,4.7148675E-2,-8.241104E-2,-1.5457283E-1,2.1E-2,5.55907E-3,-2.02694E-3,2.376034E-3,2.1E-2,4.0892987E-3,5.8910293E-3,1.1701519E-2,3.8657212E-4,-1.9214109E-3,7.3924377E-3,1.0502903E-3,-3.0919202E-3,-1.0998909E-3,-6.678447E-3,-3.8839306E-3],"categories":[],"categories_nodes":[],"categories_segments":[],"categories_sizes":[],"default_left":[0,0,0,0,0,1,0,0,0,0,0,0,0,0,0,0,0,0,0,0,0,0,0,0,0,0,0,0,0,0,0],"id":20,"left_children":[1,3,5,7,9,11,13,15,17,19,21,23,25,27,29,-1,-1,-1,-1,-1,-1,-1,-1,-1,-1,-1,-1,-1,-1,-1,-1],"loss_changes":[1.3936467E2,1.7677887E1,3.7785618E1,1.6284405E1,5.5707397E0,9.8935E0,7.4693756E0,6.4409904E0,7.358934E0,7.404892E0,4.703682E0,4.156892E0,7.0002255E0,4.717243E0,3.4153824E0,0E0,0E0,0E0,0E0,0E0,0E0,0E0,0E0,0E0,0E0,0E0,0E0,0E0,0E0,0E0,0E0],"parents":[2147483647,0,0,1,1,2,2,3,3,4,4,5,5,6,6,7,7,8,8,9,9,10,10,11,11,12,12,13,13,14,14],"right_children":[2,4,6,8,10,12,14,16,18,20,22,24,26,28,30,-1,-1,-1,-1,-1,-1,-1,-1,-1,-1,-1,-1,-1,-1,-1,-1],"split_conditions":[-6.241543E-1,1.5670492E3,2.2314355E-1,1.4860471E3,4.2857143E-1,1.4668415E0,1.1394343E0,-2.469639E0,1.2487384E0,1.569641E3,1.6335629E3,1.4953658E3,-1.8072066E2,1.4983406E3,1.4459963E3,2.1E-2,5.55907E-3,-2.02694E-3,2.376034E-3,2.1E-2,4.0892987E-3,5.8910293E-3,1.1701519E-2,3.8657212E-4,-1.9214109E-3,7.3924377E-3,1.0502903E-3,-3.0919202E-3,-1.0998909E-3,-6.678447E-3,-3.8839306E-3],"split_indices":[35,28,35,29,15,22,35,35,22,30,28,29,2,28,28,0,0,0,0,0,0,0,0,0,0,0,0,0,0,0,0],"split_type":[0,0,0,0,0,0,0,0,0,0,0,0,0,0,0,0,0,0,0,0,0,0,0,0,0,0,0,0,0,0,0],"sum_hessian":[1.8079055E4,5.1892583E3,1.2889796E4,3.6698335E3,1.5194248E3,5.8791167E3,7.010679E3,1.2929761E3,2.3768574E3,9.160591E1,1.427819E3,2.9825664E3,2.8965503E3,4.9956807E3,2.0149983E3,1.2978188E1,1.2799978E3,4.1272504E2,1.9641324E3,5.2320282E1,3.928563E1,1.2884044E3,1.3941455E2,1.1305591E3,1.8520073E3,1.6521346E2,2.731337E3,3.4409905E3,1.5546902E3,5.410169E2,1.4739814E3],"tree_param":{"num_deleted":"0","num_feature":"36","num_nodes":"31","size_leaf_vector":"1"}},{"base_weights":[-9.963603E-4,1.16002426E-1,-6.6214174E-2,6.0156338E-2,1.6462478E-1,-3.6783878E-2,-1.3814662E-1,8.802803E-2,-2.7734015E-2,2.3207487E-1,1.1588532E-1,-8.535007E-2,-7.3054126E-3,-1.5677509E-1,-1.9614866E-2,-1.3837799E-3,3.2004542E-3,-6.605798E-3,2.7894025E-4,5.034609E-3,9.679078E-3,1.7927823E-3,4.909809E-3,-5.568425E-4,-3.1675613E-3,-6.043453E-4,3.4751738E-3,-4.8761074E-3,3.0418383E-3,8.4040966E-4,-8.384016E-3],"categories":[],"categories_nodes":[],"categories_segments":[],"categories_sizes":[],"default_left":[0,0,0,0,0,0,0,0,0,0,0,0,0,1,0,0,0,0,0,0,0,0,0,0,0,0,0,0,0,0,0],"id":21,"left_children":[1,3,5,7,9,11,13,15,17,19,21,23,25,27,29,-1,-1,-1,-1,-1,-1,-1,-1,-1,-1,-1,-1,-1,-1,-1,-1],"loss_changes":[1.3835413E2,1.7611969E1,2.4641533E1,7.4053936E0,1.1376183E1,1.1829639E1,7.4600296E0,5.7472954E0,5.193244E0,8.406815E0,5.394882E0,4.2161446E0,8.13438E0,4.3611603E0,5.703306E0,0E0,0E0,0E0,0E0,0E0,0E0,0E0,0E0,0E0,0E0,0E0,0E0,0E0,0E0,0E0,0E0],"parents":[2147483647,0,0,1,1,2,2,3,3,4,4,5,5,6,6,7,7,8,8,9,9,10,10,11,11,12,12,13,13,14,14],"right_children":[2,4,6,8,10,12,14,16,18,20,22,24,26,28,30,-1,-1,-1,-1,-1,-1,-1,-1,-1,-1,-1,-1,-1,-1,-1,-1],"split_conditions":[-4.1630814E1,4.5E2,9.5762726E1,7E1,1.4974778E3,1.8E2,3.8E2,1.473622E3,2E2,8E2,2.013171E0,1.4909998E3,2.4E0,2.8E0,2.6E0,-1.3837799E-3,3.2004542E-3,-6.605798E-3,2.7894025E-4,5.034609E-3,9.679078E-3,1.7927823E-3,4.909809E-3,-5.568425E-4,-3.1675613E-3,-6.043453E-4,3.4751738E-3,-4.8761074E-3,3.0418383E-3,8.4040966E-4,-8.384016E-3],"split_indices":[31,34,31,32,29,34,34,28,34,34,22,29,12,20,26,0,0,0,0,0,0,0,0,0,0,0,0,0,0,0,0],"split_type":[0,0,0,0,0,0,0,0,0,0,0,0,0,0,0,0,0,0,0,0,0,0,0,0,0,0,0,0,0,0,0],"sum_hessian":[1.8129945E4,6.4886772E3,1.164127E4,3.021042E3,3.4676353E3,8.262342E3,3.378927E3,2.2936733E3,7.2736865E2,1.4530338E3,2.0146013E3,3.1200764E3,5.1422656E3,2.9197378E3,4.5918906E2,2.798169E2,2.0138563E3,1.1657424E2,6.1079443E2,8.5163666E2,6.013972E2,9.273751E2,1.0872262E3,7.25944E2,2.3941323E3,4.657497E3,4.8476865E2,2.85636E3,6.3377724E1,3.8881506E2,7.037399E1],"tree_param":{"num_deleted":"0","num_feature":"36","num_nodes":"31","size_leaf_vector":"1"}},{"base_weights":[-1.8262581E-3,1.4125317E-1,-5.625436E-2,7.506426E-2,1.8516272E-1,-1.6221158E-2,-1.08120814E-1,-9.319122E-3,1.0595403E-1,1.4996628E-1,2.6643783E-1,-3.149145E-2,8.349783E-2,-1.2245878E-1,-1.1430149E-2,4.4444753E-3,-2.561334E-3,2.6819333E-3,8.950209E-3,4.2983755E-3,2.0303065E-2,1.5891565E-2,7.2246427E-3,-2.1381725E-3,-1.6703343E-4,2.890264E-5,4.947455E-3,-2.7492975E-3,-4.3955967E-3,-1.5798145E-3,6.3932124E-3],"categories":[],"categories_nodes":[],"categories_segments":[],"categories_sizes":[],"default_left":[0,0,0,0,1,1,0,0,0,0,0,0,0,0,0,0,0,0,0,0,0,0,0,0,0,0,0,0,0,0,0],"id":22,"left_children":[1,3,5,7,9,11,13,15,17,19,21,23,25,27,29,-1,-1,-1,-1,-1,-1,-1,-1,-1,-1,-1,-1,-1,-1,-1,-1],"loss_changes":[1.4099956E2,1.4487228E1,2.7232597E1,5.192259E0,8.538681E0,1.1276604E1,7.9195175E0,6.4155626E0,4.6173115E0,7.2831E0,5.975685E0,6.621667E0,6.6085224E0,3.675743E0,6.8520646E0,0E0,0E0,0E0,0E0,0E0,0E0,0E0,0E0,0E0,0E0,0E0,0E0,0E0,0E0,0E0,0E0],"parents":[2147483647,0,0,1,1,2,2,3,3,4,4,5,5,6,6,7,7,8,8,9,9,10,10,11,11,12,12,13,13,14,14],"right_children":[2,4,6,8,10,12,14,16,18,20,22,24,26,28,30,-1,-1,-1,-1,-1,-1,-1,-1,-1,-1,-1,-1,-1,-1,-1,-1],"split_conditions":[-6.8938354E1,4.5E2,4.4872772E1,1E0,1.865009E0,2.2E0,1.8117906E0,1.2E2,1.4998729E3,4E0,1.3333334E0,1.4134178E0,4.5E2,1.0005958E2,1.4992181E3,4.4444753E-3,-2.561334E-3,2.6819333E-3,8.950209E-3,4.2983755E-3,2.0303065E-2,1.5891565E-2,7.2246427E-3,-2.1381725E-3,-1.6703343E-4,2.890264E-5,4.947455E-3,-2.7492975E-3,-4.3955967E-3,-1.5798145E-3,6.3932124E-3],"split_indices":[31,34,31,20,23,12,23,33,27,12,16,23,34,31,28,0,0,0,0,0,0,0,0,0,0,0,0,0,0,0,0],"split_type":[0,0,0,0,0,0,0,0,0,0,0,0,0,0,0,0,0,0,0,0,0,0,0,0,0,0,0,0,0,0,0],"sum_hessian":[1.8103766E4,4.9885024E3,1.3115263E4,1.9905988E3,2.9979036E3,7.402751E3,5.712512E3,5.336084E2,1.4569904E3,2.093955E3,9.039484E2,6.4202773E3,9.824738E2,4.97458E3,7.379318E2,1.7348514E2,3.6012323E2,1.3428896E3,1.14100815E2,2.068964E3,2.4990946E1,7.840783E1,8.255406E2,2.532421E3,3.8878562E3,4.8839243E2,4.940814E2,2.1832546E3,2.7913254E3,6.2409814E2,1.1383367E2],"tree_param":{"num_deleted":"0","num_feature":"36","num_nodes":"31","size_leaf_vector":"1"}},{"base_weights":[-4.0175556E-3,1.3123015E-1,-5.8079194E-2,2.545833E-1,1.0281797E-1,2.460166E-4,-1.0726905E-1,3.1351712E-1,1.17472485E-1,6.5791085E-2,1.5704644E-1,-1.8209348E-2,1.2549163E-1,-1.2625426E-1,-2.7442046E-2,6.894921E-3,1.2241454E-2,1.0866344E-3,1.0948871E-2,4.9919856E-4,3.622202E-3,-1.2652203E-3,5.5031776E-3,-1.7660673E-3,2.7470777E-4,4.381528E-3,-5.370027E-3,-4.258997E-3,-1.8725557E-3,-1.7981376E-3,4.022872E-3],"categories":[],"categories_nodes":[],"categories_segments":[],"categories_sizes":[],"default_left":[0,0,0,0,1,1,1,0,0,0,0,0,0,0,0,0,0,0,0,0,0,0,0,0,0,0,0,0,0,0,0],"id":23,"left_children":[1,3,5,7,9,11,13,15,17,19,21,23,25,27,29,-1,-1,-1,-1,-1,-1,-1,-1,-1,-1,-1,-1,-1,-1,-1,-1],"loss_changes":[1.3309213E2,1.8192032E1,3.7309673E1,7.821266E0,8.476505E0,1.3757061E1,1.068811E1,5.282036E0,5.8976007E0,6.786291E0,9.021317E0,5.77249E0,4.8112164E0,5.7072296E0,7.12989E0,0E0,0E0,0E0,0E0,0E0,0E0,0E0,0E0,0E0,0E0,0E0,0E0,0E0,0E0,0E0,0E0],"parents":[2147483647,0,0,1,1,2,2,3,3,4,4,5,5,6,6,7,7,8,8,9,9,10,10,11,11,12,12,13,13,14,14],"right_children":[2,4,6,8,10,12,14,16,18,20,22,24,26,28,30,-1,-1,-1,-1,-1,-1,-1,-1,-1,-1,-1,-1,-1,-1,-1,-1],"split_conditions":[-6.241543E-1,-1.5649861E0,2.2314355E-1,7E1,1.7040466E0,2.1E0,1.5555556E0,9E2,1.3682932E0,1.5376676E3,1.4820632E3,1.4398438E0,1.7E1,1.7448384E0,1.7178392E0,6.894921E-3,1.2241454E-2,1.0866344E-3,1.0948871E-2,4.9919856E-4,3.622202E-3,-1.2652203E-3,5.5031776E-3,-1.7660673E-3,2.7470777E-4,4.381528E-3,-5.370027E-3,-4.258997E-3,-1.8725557E-3,-1.7981376E-3,4.022872E-3],"split_indices":[35,35,35,32,23,18,18,34,24,28,28,23,7,23,23,0,0,0,0,0,0,0,0,0,0,0,0,0,0,0,0],"split_type":[0,0,0,0,0,0,0,0,0,0,0,0,0,0,0,0,0,0,0,0,0,0,0,0,0,0,0,0,0,0,0],"sum_hessian":[1.820055E4,5.197178E3,1.3003372E4,9.714802E2,4.2256978E3,5.949705E3,7.053667E3,6.785395E2,2.929407E2,2.512435E3,1.7132628E3,5.1863354E3,7.633694E2,5.697946E3,1.3557212E3,3.617351E2,3.1680438E2,2.214008E2,7.15399E1,1.3268704E3,1.1855648E3,2.0035191E2,1.5129109E3,2.08596E3,3.1003755E3,7.155742E2,4.779517E1,4.571507E3,1.1264391E3,1.1291947E3,2.265264E2],"tree_param":{"num_deleted":"0","num_feature":"36","num_nodes":"31","size_leaf_vector":"1"}},{"base_weights":[5.9469085E-4,1.4269204E-1,-4.8520956E-2,1.2367957E-1,3.0242005E-1,-1.3486787E-2,-1.1714673E-1,1.5964721E-1,6.832051E-2,2.4849936E-1,5.549572E-1,-5.4073513E-2,2.5456827E-2,-1.525946E-1,-7.953274E-2,3.2097693E-3,7.303509E-3,4.3801134E-4,4.7701774E-3,8.340864E-3,-2.7609991E-3,2.1E-2,1.0254244E-2,-2.4672062E-3,-2.5511172E-4,-1.4318265E-2,8.4934686E-4,7.0354925E-3,-4.737598E-3,-2.971235E-3,1.5700262E-3],"categories":[],"categories_nodes":[],"categories_segments":[],"categories_sizes":[],"default_left":[0,0,0,0,0,1,0,0,0,0,0,0,0,0,0,0,0,0,0,0,0,0,0,0,0,0,0,0,0,0,0],"id":24,"left_children":[1,3,5,7,9,11,13,15,17,19,21,23,25,27,29,-1,-1,-1,-1,-1,-1,-1,-1,-1,-1,-1,-1,-1,-1,-1,-1],"loss_changes":[1.2629596E2,1.4078407E1,3.2330353E1,8.2632065E0,6.58527E0,1.4074943E1,6.0476875E0,1.1085678E1,7.9789734E0,4.135109E0,4.355892E0,5.5960007E0,6.53584E0,4.858284E0,5.6831055E0,0E0,0E0,0E0,0E0,0E0,0E0,0E0,0E0,0E0,0E0,0E0,0E0,0E0,0E0,0E0,0E0],"parents":[2147483647,0,0,1,1,2,2,3,3,4,4,5,5,6,6,7,7,8,8,9,9,10,10,11,11,12,12,13,13,14,14],"right_children":[2,4,6,8,10,12,14,16,18,20,22,24,26,28,30,-1,-1,-1,-1,-1,-1,-1,-1,-1,-1,-1,-1,-1,-1,-1,-1],"split_conditions":[-9.908231E1,1.6095054E3,8.046266E1,1.5070835E3,2.2E0,1.3767606E0,1.4677322E3,5.5E2,2.0700128E0,1.5777559E3,6.5E1,1.6666666E0,2E-1,1.1E1,1.7343762E0,3.2097693E-3,7.303509E-3,4.3801134E-4,4.7701774E-3,8.340864E-3,-2.7609991E-3,2.1E-2,1.0254244E-2,-2.4672062E-3,-2.5511172E-4,-1.4318265E-2,8.4934686E-4,7.0354925E-3,-4.737598E-3,-2.971235E-3,1.5700262E-3],"split_indices":[2,28,2,29,13,22,28,34,22,29,5,19,10,5,23,0,0,0,0,0,0,0,0,0,0,0,0,0,0,0,0],"split_type":[0,0,0,0,0,0,0,0,0,0,0,0,0,0,0,0,0,0,0,0,0,0,0,0,0,0,0,0,0,0,0],"sum_hessian":[1.8094049E4,4.647212E3,1.3446837E4,4.154477E3,4.927346E2,8.902974E3,4.543864E3,2.517157E3,1.6373202E3,4.076738E2,8.506079E1,4.359328E3,4.543646E3,2.337716E3,2.2061477E3,1.5472625E3,9.698946E2,1.0289518E3,6.083684E2,3.75312E2,3.2361805E1,3.4179916E1,5.0880875E1,2.6936055E3,1.6657225E3,2.471677E1,4.518929E3,3.1138597E1,2.3065774E3,1.9220483E3,2.8409933E2],"tree_param":{"num_deleted":"0","num_feature":"36","num_nodes":"31","size_leaf_vector":"1"}},{"base_weights":[-3.4386583E-3,1.4482896E-1,-5.2027203E-2,1.6804062E-1,4.525276E-2,5.642821E-3,-1.0894581E-1,1.11085095E-1,2.0862105E-1,1.17337205E-1,-8.371989E-2,-8.74851E-3,9.076748E-2,-1.4552557E-1,-8.0118574E-2,-6.51581E-4,4.343282E-3,6.7843925E-3,4.5705348E-4,2.8598744E-3,2.1E-2,2.0748215E-2,-2.9945609E-3,-3.2491686E-3,3.0341515E-4,1.7382065E-2,2.2544318E-3,-1.846373E-3,-4.9217236E-3,-3.4555078E-3,-1.350661E-3],"categories":[],"categories_nodes":[],"categories_segments":[],"categories_sizes":[],"default_left":[0,0,0,0,0,0,0,0,0,1,0,0,0,0,1,0,0,0,0,0,0,0,0,0,0,0,0,0,0,0,0],"id":25,"left_children":[1,3,5,7,9,11,13,15,17,19,21,23,25,27,29,-1,-1,-1,-1,-1,-1,-1,-1,-1,-1,-1,-1,-1,-1,-1,-1],"loss_changes":[1.3043901E2,1.0321785E1,4.476447E1,8.352531E0,7.8767624E0,8.300315E0,7.22567E0,6.7587223E0,7.1645584E0,8.117945E0,3.8630776E0,1.0885272E1,7.4347496E0,4.6956787E0,4.7213326E0,0E0,0E0,0E0,0E0,0E0,0E0,0E0,0E0,0E0,0E0,0E0,0E0,0E0,0E0,0E0,0E0],"parents":[2147483647,0,0,1,1,2,2,3,3,4,4,5,5,6,6,7,7,8,8,9,9,10,10,11,11,12,12,13,13,14,14],"right_children":[2,4,6,8,10,12,14,16,18,20,22,24,26,28,30,-1,-1,-1,-1,-1,-1,-1,-1,-1,-1,-1,-1,-1,-1,-1,-1],"split_conditions":[-8.0118546E1,7E1,2.2314355E-1,1.541965E3,-9.963334E-1,2.2E0,1.4691033E3,6.666667E-1,1.66E2,1.9E0,1.25E-1,1E0,-1.6835458E0,1.1E0,1.2801094E0,-6.51581E-4,4.343282E-3,6.7843925E-3,4.5705348E-4,2.8598744E-3,2.1E-2,2.0748215E-2,-2.9945609E-3,-3.2491686E-3,3.0341515E-4,1.7382065E-2,2.2544318E-3,-1.846373E-3,-4.9217236E-3,-3.4555078E-3,-1.350661E-3],"split_indices":[31,32,35,28,35,12,28,14,6,15,15,13,35,15,23,0,0,0,0,0,0,0,0,0,0,0,0,0,0,0,0],"split_type":[0,0,0,0,0,0,0,0,0,0,0,0,0,0,0,0,0,0,0,0,0,0,0,0,0,0,0,0,0,0,0],"sum_hessian":[1.8104154E4,4.4680254E3,1.363613E4,3.622838E3,8.451875E2,6.7738027E3,6.8623267E3,1.5088589E3,2.113979E3,5.422226E2,3.0296487E2,5.794989E3,9.7881415E2,3.0226921E3,3.8396348E3,3.0539508E2,1.2034639E3,1.9381658E3,1.7581316E2,5.2694214E2,1.5280468E1,5.3092346E0,2.9765564E2,9.2229474E2,4.872694E3,2.920164E1,9.4961255E2,5.472182E2,2.475474E3,1.9195383E3,1.9200964E3],"tree_param":{"num_deleted":"0","num_feature":"36","num_nodes":"31","size_leaf_vector":"1"}},{"base_weights":[-2.2378706E-3,1.0350677E-1,-6.2437125E-2,7.045566E-2,1.8005288E-1,-3.6387086E-2,-1.3620669E-1,4.94864E-2,1.5754919E-1,1.0506328E-1,2.526892E-1,-6.591523E-2,-7.1138283E-4,-1.4999579E-1,-2.193104E-2,-1.5899932E-3,2.0583507E-3,5.332514E-3,-2.0675936E-3,2.1E-2,2.859833E-3,4.799019E-3,9.029276E-3,-2.8915813E-3,-6.2850426E-4,1.2485544E-2,-1.5204509E-4,-3.7407775E-3,-5.9272004E-3,-1.6988127E-3,5.73692E-3],"categories":[],"categories_nodes":[],"categories_segments":[],"categories_sizes":[],"default_left":[0,0,0,0,1,1,0,0,0,0,0,0,0,0,0,0,0,0,0,0,0,0,0,0,0,0,0,0,0,0,0],"id":26,"left_children":[1,3,5,7,9,11,13,15,17,19,21,23,25,27,29,-1,-1,-1,-1,-1,-1,-1,-1,-1,-1,-1,-1,-1,-1,-1,-1],"loss_changes":[1.1531418E2,1.6612732E1,2.2177776E1,8.377367E0,1.0764511E1,8.988074E0,4.7430573E0,7.2596264E0,4.086193E0,7.5207424E0,4.454315E0,6.394123E0,7.0220113E0,3.2108765E0,2.418131E0,0E0,0E0,0E0,0E0,0E0,0E0,0E0,0E0,0E0,0E0,0E0,0E0,0E0,0E0,0E0,0E0],"parents":[2147483647,0,0,1,1,2,2,3,3,4,4,5,5,6,6,7,7,8,8,9,9,10,10,11,11,12,12,13,13,14,14],"right_children":[2,4,6,8,10,12,14,16,18,20,22,24,26,28,30,-1,-1,-1,-1,-1,-1,-1,-1,-1,-1,-1,-1,-1,-1,-1,-1],"split_conditions":[-4.1630814E1,1.5670492E3,1.25595436E2,2.078359E0,1.5148798E0,1.3815336E0,1.5133955E3,1.4865369E3,1.35E2,4.2857143E-1,8.8E1,1.5555556E0,1.4551604E3,1.5057043E3,2.6666667E0,-1.5899932E-3,2.0583507E-3,5.332514E-3,-2.0675936E-3,2.1E-2,2.859833E-3,4.799019E-3,9.029276E-3,-2.8915813E-3,-6.2850426E-4,1.2485544E-2,-1.5204509E-4,-3.7407775E-3,-5.9272004E-3,-1.6988127E-3,5.73692E-3],"split_indices":[31,28,2,23,23,22,28,28,5,15,6,19,29,30,15,0,0,0,0,0,0,0,0,0,0,0,0,0,0,0,0],"split_type":[0,0,0,0,0,0,0,0,0,0,0,0,0,0,0,0,0,0,0,0,0,0,0,0,0,0,0,0,0,0,0],"sum_hessian":[1.8112771E4,6.570486E3,1.1542286E4,4.590373E3,1.9801128E3,8.531186E3,3.0111003E3,3.7008884E3,8.8948444E2,9.7547797E2,1.0046349E3,4.667299E3,3.8638867E3,2.6866074E3,3.244929E2,5.8174347E2,3.119145E3,8.1683673E2,7.2647705E1,9.280894E0,9.661971E2,3.4550168E2,6.591332E2,2.7813555E3,1.8859432E3,3.898442E1,3.8249023E3,1.756218E3,9.303894E2,2.797007E2,4.4792168E1],"tree_param":{"num_deleted":"0","num_feature":"36","num_nodes":"31","size_leaf_vector":"1"}},{"base_weights":[-7.071394E-4,1.2746604E-1,-5.5040125E-2,7.6512076E-2,1.8288074E-1,-1.1027143E-2,-1.1820088E-1,1.5780918E-1,4.5979153E-2,2.3378846E-1,1.250282E-1,-2.5829354E-2,9.333954E-2,-1.826191E-1,-9.644263E-2,7.088992E-3,2.1131753E-3,-1.6337188E-3,2.2650668E-3,8.371657E-3,3.2745535E-3,2.1697467E-3,6.471857E-3,-2.5429106E-3,-3.331101E-4,4.766029E-3,2.5621784E-4,-5.123557E-3,-1.0745308E-2,1.7345127E-3,-3.0762823E-3],"categories":[],"categories_nodes":[],"categories_segments":[],"categories_sizes":[],"default_left":[0,0,0,0,0,0,1,0,0,0,0,0,1,0,0,0,0,0,0,0,0,0,0,0,0,0,0,0,0,0,0],"id":27,"left_children":[1,3,5,7,9,11,13,15,17,19,21,23,25,27,29,-1,-1,-1,-1,-1,-1,-1,-1,-1,-1,-1,-1,-1,-1,-1,-1],"loss_changes":[1.2727922E2,1.5349358E1,3.5680298E1,7.033207E0,7.644966E0,1.169005E1,7.3704834E0,5.2911816E0,6.1223226E0,7.7830353E0,5.8249283E0,5.7499156E0,5.2216444E0,2.7014198E0,3.7156677E0,0E0,0E0,0E0,0E0,0E0,0E0,0E0,0E0,0E0,0E0,0E0,0E0,0E0,0E0,0E0,0E0],"parents":[2147483647,0,0,1,1,2,2,3,3,4,4,5,5,6,6,7,7,8,8,9,9,10,10,11,11,12,12,13,13,14,14],"right_children":[2,4,6,8,10,12,14,16,18,20,22,24,26,28,30,-1,-1,-1,-1,-1,-1,-1,-1,-1,-1,-1,-1,-1,-1,-1,-1],"split_conditions":[-6.1903924E-1,1.541965E3,4.8550782E-1,1.4202941E3,-1.2039728E0,2.1E0,9.836042E-1,1.4285715E0,1.2487384E0,7E1,1.4998729E3,6.666667E-1,-3.3333334E-1,2.636948E0,8.333333E-1,7.088992E-3,2.1131753E-3,-1.6337188E-3,2.2650668E-3,8.371657E-3,3.2745535E-3,2.1697467E-3,6.471857E-3,-2.5429106E-3,-3.331101E-4,4.766029E-3,2.5621784E-4,-5.123557E-3,-1.0745308E-2,1.7345127E-3,-3.0762823E-3],"split_indices":[35,28,35,3,35,18,22,16,22,32,27,10,26,21,17,0,0,0,0,0,0,0,0,0,0,0,0,0,0,0,0],"split_type":[0,0,0,0,0,0,0,0,0,0,0,0,0,0,0,0,0,0,0,0,0,0,0,0,0,0,0,0,0,0,0],"sum_hessian":[1.8274652E4,5.440053E3,1.2834599E4,2.8353357E3,2.6047175E3,7.5645127E3,5.2700854E3,7.7299274E2,2.062343E3,1.3839027E3,1.2208148E3,6.6255684E3,9.3894446E2,1.32875E3,3.9413352E3,4.0628976E2,3.6670294E2,4.6831335E2,1.5940297E3,1.01428546E3,3.696172E2,7.732814E2,4.4753342E2,1.3235944E3,5.301974E3,5.2916254E2,4.0978192E2,1.2466873E3,8.20628E1,1.4960646E2,3.7917288E3],"tree_param":{"num_deleted":"0","num_feature":"36","num_nodes":"31","size_leaf_vector":"1"}},{"base_weights":[1.6697128E-4,1.2001322E-1,-4.9522743E-2,9.780479E-2,2.535956E-1,5.3827856E-3,-9.763066E-2,1.404901E-1,4.728329E-2,5.9552854E-1,2.1918868E-1,-1.00654075E-2,1.3399073E-1,-1.17632784E-1,-2.160339E-2,1.0798387E-3,5.048651E-3,7.41964E-4,4.8389058E-3,2.022445E-2,-4.6223374E-3,3.3008682E-3,8.07366E-3,1.593544E-4,-2.0529167E-3,1.0534691E-2,2.974187E-3,-2.6766092E-3,-5.3839637E-3,-1.7155998E-3,2.628219E-3],"categories":[],"categories_nodes":[],"categories_segments":[],"categories_sizes":[],"default_left":[0,0,0,0,0,1,1,0,0,0,0,0,0,0,0,0,0,0,0,0,0,0,0,0,0,0,0,0,0,0,0],"id":28,"left_children":[1,3,5,7,9,11,13,15,17,19,21,23,25,27,29,-1,-1,-1,-1,-1,-1,-1,-1,-1,-1,-1,-1,-1,-1,-1,-1],"loss_changes":[1.0734153E2,1.5648064E1,3.3657265E1,9.76572E0,8.7223015E0,1.1825686E1,1.0325333E1,7.1273804E0,5.3357043E0,4.123945E0,3.7055779E0,4.769886E0,4.7961426E0,9.429787E0,5.5070534E0,0E0,0E0,0E0,0E0,0E0,0E0,0E0,0E0,0E0,0E0,0E0,0E0,0E0,0E0,0E0,0E0],"parents":[2147483647,0,0,1,1,2,2,3,3,4,4,5,5,6,6,7,7,8,8,9,9,10,10,11,11,12,12,13,13,14,14],"right_children":[2,4,6,8,10,12,14,16,18,20,22,24,26,28,30,-1,-1,-1,-1,-1,-1,-1,-1,-1,-1,-1,-1,-1,-1,-1,-1],"split_conditions":[-6.241543E-1,1.5940253E3,2.2314355E-1,1.502027E3,4.1E1,2.25E0,1.6925716E0,1.4939004E3,1.1E1,1.8E0,1E2,7E1,8.333333E-1,1.1394343E0,2.3E2,1.0798387E-3,5.048651E-3,7.41964E-4,4.8389058E-3,2.022445E-2,-4.6223374E-3,3.3008682E-3,8.07366E-3,1.593544E-4,-2.0529167E-3,1.0534691E-2,2.974187E-3,-2.6766092E-3,-5.3839637E-3,-1.7155998E-3,2.628219E-3],"split_indices":[35,28,35,29,6,12,23,28,8,15,6,32,15,35,34,0,0,0,0,0,0,0,0,0,0,0,0,0,0,0,0],"split_type":[0,0,0,0,0,0,0,0,0,0,0,0,0,0,0,0,0,0,0,0,0,0,0,0,0,0,0,0,0,0,0],"sum_hessian":[1.8023066E4,5.2820107E3,1.2741057E4,4.53053E3,7.5148065E2,5.950567E3,6.79049E3,2.4547478E3,2.0757822E3,6.72132E1,6.842674E2,5.3132666E3,6.372998E2,5.375654E3,1.4148362E3,5.162868E2,1.938461E3,1.7340208E3,3.4176135E2,6.092406E1,6.2891426E0,2.1577133E2,4.684961E2,4.206031E3,1.1072362E3,8.687652E1,5.5042334E2,3.6848752E3,1.6907786E3,1.067498E3,3.4733817E2],"tree_param":{"num_deleted":"0","num_feature":"36","num_nodes":"31","size_leaf_vector":"1"}},{"base_weights":[-4.032759E-3,7.065694E-2,-8.146069E-2,1.3455243E-1,1.7801424E-2,-5.9092514E-2,-1.5148684E-1,1.1622665E-1,2.3804832E-1,6.666378E-2,-1.9835396E-2,-7.252138E-2,1.0950458E-2,-1.7128375E-1,-1.184642E-2,4.0963776E-3,3.0679937E-4,4.405864E-3,9.784173E-3,1.0108358E-3,4.7149174E-3,-7.243876E-4,7.865238E-3,-3.42265E-3,-1.3914305E-3,3.7012494E-3,-1.0101126E-3,-5.4056034E-3,-1.6432706E-3,-1.5012433E-3,1.1909299E-2],"categories":[],"categories_nodes":[],"categories_segments":[],"categories_sizes":[],"default_left":[0,0,0,0,0,0,1,0,0,1,1,1,0,1,0,0,0,0,0,0,0,0,0,0,0,0,0,0,0,0,0],"id":29,"left_children":[1,3,5,7,9,11,13,15,17,19,21,23,25,27,29,-1,-1,-1,-1,-1,-1,-1,-1,-1,-1,-1,-1,-1,-1,-1,-1],"loss_changes":[1.0428358E2,3.099588E1,1.3859516E1,7.8532486E0,9.241355E0,6.3141823E0,5.9217873E0,7.6061325E0,4.965416E0,6.51836E0,3.457727E0,6.1147327E0,5.425492E0,1.9367905E0,4.1913686E0,0E0,0E0,0E0,0E0,0E0,0E0,0E0,0E0,0E0,0E0,0E0,0E0,0E0,0E0,0E0,0E0],"parents":[2147483647,0,0,1,1,2,2,3,3,4,4,5,5,6,6,7,7,8,8,9,9,10,10,11,11,12,12,13,13,14,14],"right_children":[2,4,6,8,10,12,14,16,18,20,22,24,26,28,30,-1,-1,-1,-1,-1,-1,-1,-1,-1,-1,-1,-1,-1,-1,-1,-1],"split_conditions":[-3.370166E0,-7.8275937E-1,1.0726368E0,2.4285715E0,6.5E1,1.7887988E0,1.6925716E0,1.54E2,1.316584E0,2.0259285E0,2.8E0,1.2748356E0,3.9E1,1.75E0,1.9068892E0,4.0963776E-3,3.0679937E-4,4.405864E-3,9.784173E-3,1.0108358E-3,4.7149174E-3,-7.243876E-4,7.865238E-3,-3.42265E-3,-1.3914305E-3,3.7012494E-3,-1.0101126E-3,-5.4056034E-3,-1.6432706E-3,-1.5012433E-3,1.1909299E-2],"split_indices":[31,35,35,18,32,22,23,6,21,22,19,23,5,16,22,0,0,0,0,0,0,0,0,0,0,0,0,0,0,0,0],"split_type":[0,0,0,0,0,0,0,0,0,0,0,0,0,0,0,0,0,0,0,0,0,0,0,0,0,0,0,0,0,0,0],"sum_hessian":[1.8030572E4,9.177612E3,8.85296E3,4.154189E3,5.0234233E3,6.7111025E3,2.1418567E3,3.531073E3,6.2311597E2,2.1854155E3,2.8380076E3,5.6313975E3,1.0797053E3,1.8757097E3,2.661471E2,2.9628352E3,5.682379E2,3.074892E2,3.1562677E2,1.6028638E3,5.825519E2,2.796179E3,4.182855E1,2.1728645E3,3.458533E3,3.0627225E2,7.7343304E2,1.7420441E3,1.3366566E2,2.4420903E2,2.1938068E1],"tree_param":{"num_deleted":"0","num_feature":"36","num_nodes":"31","size_leaf_vector":"1"}},{"base_weights":[1.7235186E-3,1.1827582E-1,-5.663607E-2,5.805175E-2,1.5884052E-1,-2.9699104E-2,-1.317186E-1,1.013753E-1,-4.1440994E-2,1.24290995E-1,2.521644E-1,-4.2626034E-2,6.0077097E-2,-1.7876413E-1,-1.0668997E-1,3.3124648E-3,-5.818164E-3,-3.6896E-3,3.8750653E-4,4.329776E-3,-1.1106642E-3,1.3880464E-2,7.0315665E-3,-1.2772069E-4,-2.019413E-3,2.5164406E-3,-2.6736823E-3,2.1822115E-3,-5.6220707E-3,1.5736504E-3,-3.5905435E-3],"categories":[],"categories_nodes":[],"categories_segments":[],"categories_sizes":[],"default_left":[0,0,0,0,1,0,0,1,1,1,0,0,0,0,0,0,0,0,0,0,0,0,0,0,0,0,0,0,0,0,0],"id":30,"left_children":[1,3,5,7,9,11,13,15,17,19,21,23,25,27,29,-1,-1,-1,-1,-1,-1,-1,-1,-1,-1,-1,-1,-1,-1,-1,-1],"loss_changes":[1.2435187E2,1.4892273E1,2.4634289E1,1.0592883E1,1.1718597E1,1.0408859E1,3.76799E0,4.590992E0,3.3079453E0,8.607197E0,3.5730743E0,7.4249086E0,4.0173807E0,2.4368896E0,4.3530045E0,0E0,0E0,0E0,0E0,0E0,0E0,0E0,0E0,0E0,0E0,0E0,0E0,0E0,0E0,0E0,0E0],"parents":[2147483647,0,0,1,1,2,2,3,3,4,4,5,5,6,6,7,7,8,8,9,9,10,10,11,11,12,12,13,13,14,14],"right_children":[2,4,6,8,10,12,14,16,18,20,22,24,26,28,30,-1,-1,-1,-1,-1,-1,-1,-1,-1,-1,-1,-1,-1,-1,-1,-1],"split_conditions":[-5.1082563E-1,4.5E2,8.4729785E-1,7E1,1.865009E0,1.5451239E3,1.4543959E3,1.8333334E0,7E0,1.646368E0,-2.135531E0,6.5E1,1.625E0,8.333333E-1,-2.5E-1,3.3124648E-3,-5.818164E-3,-3.6896E-3,3.8750653E-4,4.329776E-3,-1.1106642E-3,1.3880464E-2,7.0315665E-3,-1.2772069E-4,-2.019413E-3,2.5164406E-3,-2.6736823E-3,2.1822115E-3,-5.6220707E-3,1.5736504E-3,-3.5905435E-3],"split_indices":[35,34,35,32,23,28,28,15,8,24,35,32,20,15,26,0,0,0,0,0,0,0,0,0,0,0,0,0,0,0,0],"split_type":[0,0,0,0,0,0,0,0,0,0,0,0,0,0,0,0,0,0,0,0,0,0,0,0,0,0,0,0,0,0,0],"sum_hessian":[1.8279826E4,6.0987456E3,1.2181079E4,2.4555552E3,3.6431904E3,8.965846E3,3.2152336E3,1.7106455E3,7.449097E2,2.6605552E3,9.8263525E2,7.8378013E3,1.1280444E3,1.1143964E3,2.1008374E3,1.6604419E3,5.0203583E1,2.9743948E2,4.4747028E2,2.3667175E3,2.9383777E2,7.457494E1,9.080603E2,3.069101E3,4.7687E3,9.7321027E2,1.5483415E2,3.6757977E1,1.0776384E3,1.5836276E2,1.9424746E3],"tree_param":{"num_deleted":"0","num_feature":"36","num_nodes":"31","size_leaf_vector":"1"}},{"base_weights":[1.3616643E-3,1.353291E-1,-4.2117447E-2,8.251298E-2,1.7302805E-1,8.630574E-3,-9.4611675E-2,5.457919E-1,7.133446E-2,1.9671431E-1,8.887254E-2,5.3848203E-2,-2.3463791E-2,-1.1193638E-1,-3.2126546E-2,8.265392E-3,2.1E-2,2.8824443E-3,-2.5091798E-3,6.9219894E-3,3.0944627E-3,2.2107349E-3,1.5786445E-2,1.1742327E-3,7.582857E-3,1.823172E-3,-1.1944695E-3,-2.681741E-3,-4.832035E-3,8.1356126E-4,-2.9044438E-3],"categories":[],"categories_nodes":[],"categories_segments":[],"categories_sizes":[],"default_left":[0,0,0,0,0,0,1,0,0,0,1,1,0,0,0,0,0,0,0,0,0,0,0,0,0,0,0,0,0,0,0],"id":31,"left_children":[1,3,5,7,9,11,13,15,17,19,21,23,25,27,29,-1,-1,-1,-1,-1,-1,-1,-1,-1,-1,-1,-1,-1,-1,-1,-1],"loss_changes":[1.0599177E2,8.863449E0,3.659865E1,9.587983E0,5.166664E0,1.0139732E1,7.3066864E0,2.7887268E0,6.97369E0,6.43351E0,3.7659626E0,8.475169E0,5.6314898E0,5.841446E0,5.6259804E0,0E0,0E0,0E0,0E0,0E0,0E0,0E0,0E0,0E0,0E0,0E0,0E0,0E0,0E0,0E0,0E0],"parents":[2147483647,0,0,1,1,2,2,3,3,4,4,5,5,6,6,7,7,8,8,9,9,10,10,11,11,12,12,13,13,14,14],"right_children":[2,4,6,8,10,12,14,16,18,20,22,24,26,28,30,-1,-1,-1,-1,-1,-1,-1,-1,-1,-1,-1,-1,-1,-1,-1,-1],"split_conditions":[-7.8275937E-1,1.714182E0,2.2314355E-1,-2.2380466E0,7E1,6.5E1,1.6865902E0,8E0,1.53E2,-8.7588524E1,2.2E0,2.589122E0,1.4789924E3,1.1451323E0,1E0,8.265392E-3,2.1E-2,2.8824443E-3,-2.5091798E-3,6.9219894E-3,3.0944627E-3,2.2107349E-3,1.5786445E-2,1.1742327E-3,7.582857E-3,1.823172E-3,-1.1944695E-3,-2.681741E-3,-4.832035E-3,8.1356126E-4,-2.9044438E-3],"split_indices":[35,22,35,35,32,32,23,8,6,31,17,22,29,35,26,0,0,0,0,0,0,0,0,0,0,0,0,0,0,0,0],"split_type":[0,0,0,0,0,0,0,0,0,0,0,0,0,0,0,0,0,0,0,0,0,0,0,0,0,0,0,0,0,0,0],"sum_hessian":[1.8194705E4,4.457668E3,1.3737038E4,1.8579186E3,2.5997495E3,6.9851157E3,6.751922E3,4.264695E1,1.8152716E3,2.0276995E3,5.720499E2,2.8994348E3,4.0856807E3,5.28563E3,1.4662919E3,2.2956255E1,1.9690693E1,1.5656418E3,2.4962984E2,1.4859646E3,5.4173486E2,5.53988E2,1.806197E1,2.7009326E3,1.9850243E2,6.6373755E2,3.421943E3,3.6250278E3,1.6606022E3,7.656479E2,7.00644E2],"tree_param":{"num_deleted":"0","num_feature":"36","num_nodes":"31","size_leaf_vector":"1"}},{"base_weights":[-1.4035545E-4,9.402333E-2,-6.484029E-2,1.5475522E-1,4.3268237E-2,-3.2068703E-2,-1.3132347E-1,1.2102363E-1,2.3344806E-1,-2.9765084E-2,6.7947924E-2,-5.888568E-2,4.654369E-3,-1.4622235E-1,-4.4801388E-2,2.794262E-3,7.3829447E-3,-6.8291603E-3,7.4995393E-3,1.7828618E-3,-3.2335233E-3,1.806576E-2,1.9079138E-3,-1.8587993E-3,1.2458164E-2,5.4494855E-3,-1.2464933E-4,-2.4604595E-3,-4.8788576E-3,2.1E-2,-1.7312707E-3],"categories":[],"categories_nodes":[],"categories_segments":[],"categories_sizes":[],"default_left":[0,0,0,1,0,0,1,1,0,0,0,1,0,0,0,0,0,0,0,0,0,0,0,0,0,0,0,0,0,0,0],"id":32,"left_children":[1,3,5,7,9,11,13,15,17,19,21,23,25,27,29,-1,-1,-1,-1,-1,-1,-1,-1,-1,-1,-1,-1,-1,-1,-1,-1],"loss_changes":[1.1016587E2,2.2693825E1,2.3348003E1,8.870239E0,7.2354255E0,7.0717173E0,4.5549164E0,8.1671715E0,7.7178726E0,7.064743E0,6.9344435E0,6.0753393E0,4.7274685E0,3.1661148E0,5.339207E0,0E0,0E0,0E0,0E0,0E0,0E0,0E0,0E0,0E0,0E0,0E0,0E0,0E0,0E0,0E0,0E0],"parents":[2147483647,0,0,1,1,2,2,3,3,4,4,5,5,6,6,7,7,8,8,9,9,10,10,11,11,12,12,13,13,14,14],"right_children":[2,4,6,8,10,12,14,16,18,20,22,24,26,28,30,-1,-1,-1,-1,-1,-1,-1,-1,-1,-1,-1,-1,-1,-1,-1,-1],"split_conditions":[-3.2850406E-1,-9.963334E-1,7.731899E-1,1.875E0,1.2721072E0,1.4954751E3,1.5555556E0,2.4285715E0,9.966148E-1,1.4937294E3,1.4203524E3,2.9E0,-1.4075108E2,4E-1,6E-1,2.794262E-3,7.3829447E-3,-6.8291603E-3,7.4995393E-3,1.7828618E-3,-3.2335233E-3,1.806576E-2,1.9079138E-3,-1.8587993E-3,1.2458164E-2,5.4494855E-3,-1.2464933E-4,-2.4604595E-3,-4.8788576E-3,2.1E-2,-1.7312707E-3],"split_indices":[35,35,35,19,22,28,18,18,22,29,4,17,2,25,11,0,0,0,0,0,0,0,0,0,0,0,0,0,0,0,0],"split_type":[0,0,0,0,0,0,0,0,0,0,0,0,0,0,0,0,0,0,0,0,0,0,0,0,0,0,0,0,0,0,0],"sum_hessian":[1.8080555E4,7.363431E3,1.0717124E4,3.3513118E3,4.0121191E3,7.1795757E3,3.537548E3,2.3475679E3,1.0037439E3,1.01330176E3,2.9988174E3,4.1490986E3,3.030477E3,3.0172888E3,5.2025934E2,1.9210687E3,4.264992E2,3.431029E1,9.694336E2,4.7290277E2,5.4039905E2,2.311461E1,2.9757026E3,4.123234E3,2.5864489E1,1.4275049E2,2.8877266E3,6.15293E2,2.4019958E3,7.4548883E0,5.1280444E2],"tree_param":{"num_deleted":"0","num_feature":"36","num_nodes":"31","size_leaf_vector":"1"}},{"base_weights":[3.2231252E-4,1.14997685E-1,-5.071365E-2,1.400804E-1,4.3476515E-2,-7.993515E-3,-9.150696E-2,1.2937073E-1,2.9492563E-1,3.7416935E-2,6.444153E-1,-2.3338625E-2,7.555815E-2,-1.1185839E-1,-9.924421E-3,3.7134013E-3,1.5885044E-2,1.2689819E-2,4.242538E-3,6.349494E-4,7.6107043E-3,2.1E-2,6.464465E-3,-2.8927493E-4,-2.3230505E-3,1.8568673E-3,1.5841357E-2,-4.6093767E-3,-2.4575635E-3,-4.909495E-3,6.737368E-4],"categories":[],"categories_nodes":[],"categories_segments":[],"categories_sizes":[],"default_left":[0,0,0,0,1,1,1,0,0,1,0,0,0,0,1,0,0,0,0,0,0,0,0,0,0,0,0,0,0,0,0],"id":33,"left_children":[1,3,5,7,9,11,13,15,17,19,21,23,25,27,29,-1,-1,-1,-1,-1,-1,-1,-1,-1,-1,-1,-1,-1,-1,-1,-1],"loss_changes":[1.06343285E2,1.0033058E1,2.1912327E1,6.8318176E0,5.272202E0,7.877966E0,1.0678215E1,8.606125E0,5.1933117E0,5.0595427E0,9.47783E-1,3.8451242E0,5.861524E0,6.427841E0,6.4017897E0,0E0,0E0,0E0,0E0,0E0,0E0,0E0,0E0,0E0,0E0,0E0,0E0,0E0,0E0,0E0,0E0],"parents":[2147483647,0,0,1,1,2,2,3,3,4,4,5,5,6,6,7,7,8,8,9,9,10,10,11,11,12,12,13,13,14,14],"right_children":[2,4,6,8,10,12,14,16,18,20,22,24,26,28,30,-1,-1,-1,-1,-1,-1,-1,-1,-1,-1,-1,-1,-1,-1,-1,-1],"split_conditions":[-6.1903924E-1,-6.2114735E1,2.6236427E-1,2.410114E0,7.1E1,2.013171E0,1.6925716E0,4E0,6.5E1,2.3333333E0,-5E-1,7E1,2.16623E0,1.4666598E3,7.5E-1,3.7134013E-3,1.5885044E-2,1.2689819E-2,4.242538E-3,6.349494E-4,7.6107043E-3,2.1E-2,6.464465E-3,-2.8927493E-4,-2.3230505E-3,1.8568673E-3,1.5841357E-2,-4.6093767E-3,-2.4575635E-3,-4.909495E-3,6.737368E-4],"split_indices":[35,31,35,23,7,22,23,12,32,16,26,32,24,28,18,0,0,0,0,0,0,0,0,0,0,0,0,0,0,0,0],"split_type":[0,0,0,0,0,0,0,0,0,0,0,0,0,0,0,0,0,0,0,0,0,0,0,0,0,0,0,0,0,0,0],"sum_hessian":[1.8168367E4,5.595128E3,1.2573238E4,4.141671E3,1.4534568E3,6.142158E3,6.4310806E3,3.8754648E3,2.6620615E2,1.4399988E3,1.3457998E1,5.189732E3,9.524262E2,5.1467983E3,1.2842822E3,3.8233538E3,5.2111088E1,1.4417137E2,1.22034775E2,1.3403737E3,9.962515E1,8.143168E0,5.3148303E0,4.14219E3,1.0475417E3,9.256147E2,2.6811571E1,2.1465996E3,3.0001985E3,2.2275682E2,1.0615254E3],"tree_param":{"num_deleted":"0","num_feature":"36","num_nodes":"31","size_leaf_vector":"1"}},{"base_weights":[-2.7153583E-3,6.495872E-2,-7.483454E-2,2.032278E-1,4.5549188E-2,-4.057116E-2,-1.2518808E-1,3.293207E-1,1.585259E-1,-2.8161877E-3,7.795771E-2,-5.698115E-2,1.6325548E-2,-1.2828036E-1,3.5332814E-1,1.5603436E-2,5.585736E-3,6.174653E-3,1.7753373E-3,1.8831207E-3,-9.109292E-4,2.8465644E-3,-2.7508053E-4,-2.5626756E-3,-6.451135E-4,3.1110263E-5,9.606844E-3,-5.022947E-3,-2.6967237E-3,-4.9448544E-3,1.7080804E-2],"categories":[],"categories_nodes":[],"categories_segments":[],"categories_sizes":[],"default_left":[0,0,0,0,1,1,1,1,0,0,0,1,0,0,0,0,0,0,0,0,0,0,0,0,0,0,0,0,0,0,0],"id":34,"left_children":[1,3,5,7,9,11,13,15,17,19,21,23,25,27,29,-1,-1,-1,-1,-1,-1,-1,-1,-1,-1,-1,-1,-1,-1,-1,-1],"loss_changes":[8.79331E1,2.4935825E1,1.5042778E1,6.395336E0,1.2778126E1,4.848304E0,5.2705193E0,8.053471E0,3.9649181E0,5.9133162E0,7.200083E0,4.064286E0,5.4030595E0,5.2594414E0,2.661657E0,0E0,0E0,0E0,0E0,0E0,0E0,0E0,0E0,0E0,0E0,0E0,0E0,0E0,0E0,0E0,0E0],"parents":[2147483647,0,0,1,1,2,2,3,3,4,4,5,5,6,6,7,7,8,8,9,9,10,10,11,11,12,12,13,13,14,14],"right_children":[2,4,6,8,10,12,14,16,18,20,22,24,26,28,30,-1,-1,-1,-1,-1,-1,-1,-1,-1,-1,-1,-1,-1,-1,-1,-1],"split_conditions":[-8.0042705E-2,-1.5293952E0,7.6214004E-1,1.471322E3,1.4713286E0,1.8117906E0,4.2E0,-2.6666667E0,1.31E2,1.4789924E3,7E1,1.4230006E0,1.5525017E3,1.4684755E3,1.3813188E3,1.5603436E-2,5.585736E-3,6.174653E-3,1.7753373E-3,1.8831207E-3,-9.109292E-4,2.8465644E-3,-2.7508053E-4,-2.5626756E-3,-6.451135E-4,3.1110263E-5,9.606844E-3,-5.022947E-3,-2.6967237E-3,-4.9448544E-3,1.7080804E-2],"split_indices":[35,35,35,29,22,23,26,26,6,29,32,22,29,28,4,0,0,0,0,0,0,0,0,0,0,0,0,0,0,0,0],"split_type":[0,0,0,0,0,0,0,0,0,0,0,0,0,0,0,0,0,0,0,0,0,0,0,0,0,0,0,0,0,0,0],"sum_hessian":[1.801487E4,9.293901E3,8.720968E3,1.142872E3,8.15103E3,5.1907173E3,3.5302502E3,2.9745596E2,8.4541595E2,3.2707651E3,4.8802646E3,4.028754E3,1.1619635E3,3.5083108E3,2.1939495E1,1.2636953E2,1.7108644E2,5.7202466E2,2.733913E2,9.670715E2,2.3036936E3,4.086263E3,7.9400183E2,2.2353323E3,1.7934216E3,1.1072633E3,5.4700092E1,1.7352604E3,1.7730504E3,6.5253477E0,1.5414147E1],"tree_param":{"num_deleted":"0","num_feature":"36","num_nodes":"31","size_leaf_vector":"1"}},{"base_weights":[-1.2813626E-4,8.878996E-2,-6.1956827E-2,2.1696785E-1,6.723625E-2,-3.434537E-2,-1.148826E-1,3.597689E-1,1.6055071E-1,-1.7037274E-2,8.709409E-2,-6.343602E-2,6.1490433E-3,-1.2978886E-1,-4.0052835E-2,1.4083753E-2,3.577074E-3,1.7110286E-3,7.019154E-3,-2.682274E-3,2.0877472E-3,3.5075527E-3,1.423639E-3,1.6839439E-2,-1.9781855E-3,1.1240081E-2,3.8911778E-5,-4.2173937E-3,-8.312001E-4,-2.937886E-3,2.9983902E-3],"categories":[],"categories_nodes":[],"categories_segments":[],"categories_sizes":[],"default_left":[0,0,0,0,0,0,1,0,0,1,0,0,0,1,0,0,0,0,0,0,0,0,0,0,0,0,0,0,0,0,0],"id":35,"left_children":[1,3,5,7,9,11,13,15,17,19,21,23,25,27,29,-1,-1,-1,-1,-1,-1,-1,-1,-1,-1,-1,-1,-1,-1,-1,-1],"loss_changes":[1.0032896E2,2.0664116E1,1.5726631E1,8.619003E0,1.0726776E1,8.335181E0,4.1107903E0,7.9698296E0,5.867815E0,7.673932E0,6.1265373E0,6.47707E0,5.290032E0,3.3852005E0,4.9881344E0,0E0,0E0,0E0,0E0,0E0,0E0,0E0,0E0,0E0,0E0,0E0,0E0,0E0,0E0,0E0,0E0],"parents":[2147483647,0,0,1,1,2,2,3,3,4,4,5,5,6,6,7,7,8,8,9,9,10,10,11,11,12,12,13,13,14,14],"right_children":[2,4,6,8,10,12,14,16,18,20,22,24,26,28,30,-1,-1,-1,-1,-1,-1,-1,-1,-1,-1,-1,-1,-1,-1,-1,-1],"split_conditions":[-3.2850406E-1,-1.5649861E0,7.3396915E-1,1.4734558E3,1.2545803E0,1.4713286E0,1.6925716E0,1.3447654E0,1.023313E0,1.6666666E0,-7.8075325E1,5.18368E-1,1.4551604E3,2E0,1.827488E0,1.4083753E-2,3.577074E-3,1.7110286E-3,7.019154E-3,-2.682274E-3,2.0877472E-3,3.5075527E-3,1.423639E-3,1.6839439E-2,-1.9781855E-3,1.1240081E-2,3.8911778E-5,-4.2173937E-3,-8.312001E-4,-2.937886E-3,2.9983902E-3],"split_indices":[35,35,35,29,22,22,23,24,24,19,31,24,29,12,21,0,0,0,0,0,0,0,0,0,0,0,0,0,0,0,0],"split_type":[0,0,0,0,0,0,0,0,0,0,0,0,0,0,0,0,0,0,0,0,0,0,0,0,0,0,0,0,0,0,0],"sum_hessian":[1.8247295E4,7.483936E3,1.0763358E4,1.0759998E3,6.4079365E3,7.0743223E3,3.6890356E3,3.0319257E2,7.728072E2,1.2220195E3,5.185917E3,4.1165103E3,2.9578123E3,3.0756292E3,6.134066E2,2.0757915E2,9.561343E1,3.214174E2,4.513898E2,6.657792E2,5.562403E2,2.9582266E3,2.2276904E3,1.5538979E1,4.100971E3,3.7446377E1,2.920366E3,2.7812507E3,2.9437833E2,4.3420398E2,1.7920265E2],"tree_param":{"num_deleted":"0","num_feature":"36","num_nodes":"31","size_leaf_vector":"1"}},{"base_weights":[2.408367E-3,1.0914746E-1,-4.5399442E-2,1.4377096E-1,3.431208E-2,3.0543336E-3,-9.1618225E-2,2.0365214E-1,1.0976756E-1,1.3782001E-2,2.6444262E-1,-9.966687E-3,1.0627165E-1,-1.088083E-1,-1.4997993E-2,1.1283406E-2,5.364306E-3,1.4104865E-2,3.1174484E-3,-3.348158E-3,1.1906181E-3,1.6730895E-2,5.695516E-3,-1.5007992E-3,5.508954E-4,7.079462E-3,2.1092528E-3,-2.6041712E-3,-5.21415E-3,-1.4503145E-3,6.049614E-3],"categories":[],"categories_nodes":[],"categories_segments":[],"categories_sizes":[],"default_left":[0,0,0,0,0,1,1,0,1,1,0,0,0,0,1,0,0,0,0,0,0,0,0,0,0,0,0,0,0,0,0],"id":36,"left_children":[1,3,5,7,9,11,13,15,17,19,21,23,25,27,29,-1,-1,-1,-1,-1,-1,-1,-1,-1,-1,-1,-1,-1,-1,-1,-1],"loss_changes":[9.241673E1,1.4510994E1,2.8011944E1,7.7759323E0,8.374989E0,8.209366E0,8.430157E0,5.870556E0,5.108137E0,5.2964225E0,3.0701513E0,6.1567597E0,3.1752367E0,7.4621964E0,8.4929285E0,0E0,0E0,0E0,0E0,0E0,0E0,0E0,0E0,0E0,0E0,0E0,0E0,0E0,0E0,0E0,0E0],"parents":[2147483647,0,0,1,1,2,2,3,3,4,4,5,5,6,6,7,7,8,8,9,9,10,10,11,11,12,12,13,13,14,14],"right_children":[2,4,6,8,10,12,14,16,18,20,22,24,26,28,30,-1,-1,-1,-1,-1,-1,-1,-1,-1,-1,-1,-1,-1,-1,-1,-1],"split_conditions":[-6.1903924E-1,-7.361859E1,2.6236427E-1,6.5E1,2.4285715E0,2.25E0,1.739308E0,1.3333334E0,4E-1,1E0,-1.7272209E0,1.4327762E0,-1.3855487E2,1.2527629E0,1.6666666E0,1.1283406E-2,5.364306E-3,1.4104865E-2,3.1174484E-3,-3.348158E-3,1.1906181E-3,1.6730895E-2,5.695516E-3,-1.5007992E-3,5.508954E-4,7.079462E-3,2.1092528E-3,-2.6041712E-3,-5.21415E-3,-1.4503145E-3,6.049614E-3],"split_indices":[35,31,35,32,18,12,23,16,17,13,35,23,2,35,18,0,0,0,0,0,0,0,0,0,0,0,0,0,0,0,0],"split_type":[0,0,0,0,0,0,0,0,0,0,0,0,0,0,0,0,0,0,0,0,0,0,0,0,0,0,0,0,0,0,0],"sum_hessian":[1.8108441E4,5.6013E3,1.2507142E4,3.8288938E3,1.7724059E3,6.106395E3,6.4007466E3,1.3849536E3,2.4439404E3,1.628212E3,1.4419386E2,5.4231587E3,6.8323627E2,5.2275117E3,1.1732347E3,1.7259549E2,1.212358E3,3.7786327E1,2.406154E3,2.7822638E2,1.3499857E3,2.7926407E1,1.16267456E2,2.2461775E3,3.1769812E3,1.4710458E2,5.3613165E2,3.9071902E3,1.3203215E3,1.0174166E3,1.5581818E2],"tree_param":{"num_deleted":"0","num_feature":"36","num_nodes":"31","size_leaf_vector":"1"}},{"base_weights":[1.5905006E-3,8.237395E-2,-5.9504703E-2,1.5340954E-1,4.9501322E-2,-2.9855102E-2,-1.1744065E-1,1.8759245E-1,2.6080605E-2,8.215929E-2,1.1916148E-2,-6.2804796E-2,-2.5758985E-3,-1.351274E-1,-2.8434055E-2,1.2827776E-3,6.5633436E-3,-2.3276561E-3,4.7727325E-3,4.6351044E-3,1.709014E-3,-9.028494E-4,2.2196549E-3,-2.2057805E-3,1.6502322E-3,-1.0578297E-3,2.0396688E-3,-4.8485682E-3,-2.4525332E-3,2.677826E-4,-5.5841403E-3],"categories":[],"categories_nodes":[],"categories_segments":[],"categories_sizes":[],"default_left":[0,0,0,0,0,1,0,0,0,0,0,0,0,1,0,0,0,0,0,0,0,0,0,0,0,0,0,0,0,0,0],"id":37,"left_children":[1,3,5,7,9,11,13,15,17,19,21,23,25,27,29,-1,-1,-1,-1,-1,-1,-1,-1,-1,-1,-1,-1,-1,-1,-1,-1],"loss_changes":[8.939173E1,1.8204842E1,1.7711487E1,1.0732384E1,6.5455275E0,6.132626E0,5.491413E0,8.774155E0,7.22779E0,5.1918736E0,6.471514E0,3.907342E0,8.613937E0,4.104141E0,3.4185386E0,0E0,0E0,0E0,0E0,0E0,0E0,0E0,0E0,0E0,0E0,0E0,0E0,0E0,0E0,0E0,0E0],"parents":[2147483647,0,0,1,1,2,2,3,3,4,4,5,5,6,6,7,7,8,8,9,9,10,10,11,11,12,12,13,13,14,14],"right_children":[2,4,6,8,10,12,14,16,18,20,22,24,26,28,30,-1,-1,-1,-1,-1,-1,-1,-1,-1,-1,-1,-1,-1,-1,-1,-1],"split_conditions":[-2.876821E-1,-1.1574528E0,7.731899E-1,1.44E2,-6.2114735E1,1.4007792E0,1.5044923E3,1.5059875E3,2.0374224E0,1.4285715E0,5E-1,1.6982192E3,1.4983406E3,1.4279662E0,1.52E2,1.2827776E-3,6.5633436E-3,-2.3276561E-3,4.7727325E-3,4.6351044E-3,1.709014E-3,-9.028494E-4,2.2196549E-3,-2.2057805E-3,1.6502322E-3,-1.0578297E-3,2.0396688E-3,-4.8485682E-3,-2.4525332E-3,2.677826E-4,-5.5841403E-3],"split_indices":[35,35,35,6,31,23,28,28,22,16,25,3,28,23,5,0,0,0,0,0,0,0,0,0,0,0,0,0,0,0,0],"split_type":[0,0,0,0,0,0,0,0,0,0,0,0,0,0,0,0,0,0,0,0,0,0,0,0,0,0,0,0,0,0,0],"sum_hessian":[1.8110068E4,7.798334E3,1.0311735E4,2.4659373E3,5.3323965E3,6.821992E3,3.4897432E3,1.943665E3,5.222723E2,2.8525845E3,2.4798123E3,3.0892646E3,3.7327275E3,2.9108096E3,5.789335E2,3.4478375E2,1.5988813E3,2.9374353E2,2.2852875E2,7.354534E2,2.117131E3,1.4791948E3,1.00061725E3,2.8319282E3,2.5733643E2,2.5514268E3,1.1813008E3,1.9439613E3,9.668483E2,4.688145E2,1.1011897E2],"tree_param":{"num_deleted":"0","num_feature":"36","num_nodes":"31","size_leaf_vector":"1"}},{"base_weights":[3.5041552E-3,7.555555E-2,-6.6933E-2,1.3199861E-1,4.014935E-2,-1.0464464E-1,-3.5486087E-2,1.5323858E-1,4.567735E-2,-2.864134E-2,6.012041E-2,-1.10782705E-1,1.3699618E-1,1.8907644E-1,-4.1446496E-2,1.6278127E-2,4.4158627E-3,8.2527736E-4,1.681715E-2,1.4808605E-3,-1.8182674E-3,7.749296E-4,2.9854213E-3,-2.8139788E-3,-5.799066E-3,-8.317442E-3,6.303639E-3,7.167285E-3,-1.3368804E-2,-2.7964632E-3,-4.5511406E-4],"categories":[],"categories_nodes":[],"categories_segments":[],"categories_sizes":[],"default_left":[0,0,0,0,0,1,0,0,1,0,0,0,0,0,0,0,0,0,0,0,0,0,0,0,0,0,0,0,0,0,0],"id":38,"left_children":[1,3,5,7,9,11,13,15,17,19,21,23,25,27,29,-1,-1,-1,-1,-1,-1,-1,-1,-1,-1,-1,-1,-1,-1,-1,-1],"loss_changes":[9.172095E1,1.7848686E1,1.0834091E1,6.3064384E0,7.546116E0,6.177845E0,6.6799383E0,6.421562E0,6.3588185E0,3.0856824E0,5.7467537E0,5.6614113E0,3.1896605E0,4.188763E0,6.6051407E0,0E0,0E0,0E0,0E0,0E0,0E0,0E0,0E0,0E0,0E0,0E0,0E0,0E0,0E0,0E0,0E0],"parents":[2147483647,0,0,1,1,2,2,3,3,4,4,5,5,6,6,7,7,8,8,9,9,10,10,11,11,12,12,13,13,14,14],"right_children":[2,4,6,8,10,12,14,16,18,20,22,24,26,28,30,-1,-1,-1,-1,-1,-1,-1,-1,-1,-1,-1,-1,-1,-1,-1,-1],"split_conditions":[-8.088883E0,-1.4075108E2,1.8E2,7E1,1.4518937E3,2.2E0,6.902756E-1,4.4785815E-1,1.9E0,-9.908231E1,1.6179804E0,5E2,1.4840345E3,1.0696013E2,1.1222566E0,1.6278127E-2,4.4158627E-3,8.2527736E-4,1.681715E-2,1.4808605E-3,-1.8182674E-3,7.749296E-4,2.9854213E-3,-2.8139788E-3,-5.799066E-3,-8.317442E-3,6.303639E-3,7.167285E-3,-1.3368804E-2,-2.7964632E-3,-4.5511406E-4],"split_indices":[31,2,34,32,27,12,24,24,15,2,23,33,27,31,23,0,0,0,0,0,0,0,0,0,0,0,0,0,0,0,0],"split_type":[0,0,0,0,0,0,0,0,0,0,0,0,0,0,0,0,0,0,0,0,0,0,0,0,0,0,0,0,0,0,0],"sum_hessian":[1.807076E4,8.932982E3,9.137776E3,3.4424487E3,5.4905337E3,4.153957E3,4.98382E3,2.762051E3,6.803978E2,1.2352518E3,4.255282E3,4.0515818E3,1.0237516E2,1.2806741E2,4.8557524E3,4.085626E1,2.7211948E3,6.5822565E2,2.2172136E1,3.5891858E2,8.7633325E2,2.2759133E3,1.9793688E3,3.3618193E3,6.8976245E2,1.4941592E1,8.743356E1,1.1932252E2,8.744893E0,1.6339674E3,3.2217852E3],"tree_param":{"num_deleted":"0","num_feature":"36","num_nodes":"31","size_leaf_vector":"1"}},{"base_weights":[3.3909464E-3,7.636312E-2,-5.8751322E-2,1.37171E-1,3.135106E-2,-3.466389E-2,-1.0759369E-1,9.024479E-2,1.9205423E-1,1.1099226E-2,1.03963025E-1,2.690532E-1,-3.9418362E-2,-1.181991E-1,5.4244943E-2,2.8783411E-3,-7.6392326E-3,4.6697683E-3,1.0667722E-2,-5.8457823E-3,5.6537916E-4,2.488505E-3,8.861881E-3,9.559098E-3,-9.490503E-3,-1.3798894E-3,3.7089975E-3,-3.9484473E-3,-7.7643624E-4,7.5463546E-3,-1.0931568E-3],"categories":[],"categories_nodes":[],"categories_segments":[],"categories_sizes":[],"default_left":[0,0,0,0,0,0,0,1,1,0,0,0,1,0,0,0,0,0,0,0,0,0,0,0,0,0,0,0,0,0,0],"id":39,"left_children":[1,3,5,7,9,11,13,15,17,19,21,23,25,27,29,-1,-1,-1,-1,-1,-1,-1,-1,-1,-1,-1,-1,-1,-1,-1,-1],"loss_changes":[8.114691E1,2.252256E1,1.1366566E1,8.998199E0,6.955428E0,9.359211E0,5.4843254E0,3.7377768E0,9.542744E0,5.907258E0,4.1249666E0,3.0008793E0,6.8433027E0,3.706707E0,3.5333138E0,0E0,0E0,0E0,0E0,0E0,0E0,0E0,0E0,0E0,0E0,0E0,0E0,0E0,0E0,0E0,0E0],"parents":[2147483647,0,0,1,1,2,2,3,3,4,4,5,5,6,6,7,7,8,8,9,9,10,10,11,11,12,12,13,13,14,14],"right_children":[2,4,6,8,10,12,14,16,18,20,22,24,26,28,30,-1,-1,-1,-1,-1,-1,-1,-1,-1,-1,-1,-1,-1,-1,-1,-1],"split_conditions":[-2.9512175E1,-1.4075108E2,1.1161557E2,7E2,1.9782152E0,1.4551604E3,1.5773226E3,3.2E0,2.0633981E0,1.3E2,2.25E0,2.4285715E0,2.6E0,1.739308E0,5E-1,2.8783411E-3,-7.6392326E-3,4.6697683E-3,1.0667722E-2,-5.8457823E-3,5.6537916E-4,2.488505E-3,8.861881E-3,9.559098E-3,-9.490503E-3,-1.3798894E-3,3.7089975E-3,-3.9484473E-3,-7.7643624E-4,7.5463546E-3,-1.0931568E-3],"split_indices":[2,2,2,34,23,29,4,13,23,34,12,20,12,23,26,0,0,0,0,0,0,0,0,0,0,0,0,0,0,0,0],"split_type":[0,0,0,0,0,0,0,0,0,0,0,0,0,0,0,0,0,0,0,0,0,0,0,0,0,0,0,0,0,0,0],"sum_hessian":[1.7892844E4,8.229229E3,9.663614E3,3.4995515E3,4.7296772E3,6.4730376E3,3.1905767E3,1.8879565E3,1.6115948E3,3.6991257E3,1.0305516E3,9.891215E1,6.3741255E3,2.9946074E3,1.9596918E2,1.8579718E3,2.9984768E1,1.319819E3,2.9177588E2,1.3321648E2,3.5659092E3,9.299121E2,1.00639496E2,9.1608635E1,7.3035126E0,6.127637E3,2.464879E2,2.6142712E3,3.8033636E2,6.115037E1,1.3481882E2],"tree_param":{"num_deleted":"0","num_feature":"36","num_nodes":"31","size_leaf_vector":"1"}},{"base_weights":[3.1090444E-3,8.9663304E-2,-4.835508E-2,7.82725E-2,2.2282255E-1,-1.0445536E-2,-9.799327E-2,1.4752007E-1,5.790837E-2,6.775452E-2,2.828685E-1,-4.5373272E-2,1.8670008E-2,-1.16296224E-1,-2.0905074E-2,1.7721007E-2,4.198306E-3,7.7043974E-4,2.995544E-3,2.1E-2,9.5108635E-4,1.4933704E-2,7.522576E-3,3.215011E-3,-1.7831586E-3,-5.700341E-4,2.3253341E-3,-2.7038055E-3,-4.691833E-3,-5.5571827E-3,3.6955116E-4],"categories":[],"categories_nodes":[],"categories_segments":[],"categories_sizes":[],"default_left":[0,0,0,0,0,0,1,0,0,0,0,0,0,0,1,0,0,0,0,0,0,0,0,0,0,0,0,0,0,0,0],"id":40,"left_children":[1,3,5,7,9,11,13,15,17,19,21,23,25,27,29,-1,-1,-1,-1,-1,-1,-1,-1,-1,-1,-1,-1,-1,-1,-1,-1],"loss_changes":[8.068343E1,1.0226898E1,2.1374117E1,8.767307E0,4.9314346E0,6.5515237E0,6.937359E0,4.66383E0,6.500057E0,3.4849067E0,2.5185032E0,6.2901444E0,7.7901735E0,4.1566353E0,5.1615057E0,0E0,0E0,0E0,0E0,0E0,0E0,0E0,0E0,0E0,0E0,0E0,0E0,0E0,0E0,0E0,0E0],"parents":[2147483647,0,0,1,1,2,2,3,3,4,4,5,5,6,6,7,7,8,8,9,9,10,10,11,11,12,12,13,13,14,14],"right_children":[2,4,6,8,10,12,14,16,18,20,22,24,26,28,30,-1,-1,-1,-1,-1,-1,-1,-1,-1,-1,-1,-1,-1,-1,-1,-1],"split_conditions":[-4.4183275E-1,1.6095054E3,5.1082563E-1,1.415338E3,1E2,1.4398438E0,1.6925716E0,-2.469639E0,1.8E0,1.4316161E3,1.1E2,8.08835E-1,1.4973395E3,1.1451323E0,7.1428573E-1,1.7721007E-2,4.198306E-3,7.7043974E-4,2.995544E-3,2.1E-2,9.5108635E-4,1.4933704E-2,7.522576E-3,3.215011E-3,-1.7831586E-3,-5.700341E-4,2.3253341E-3,-2.7038055E-3,-4.691833E-3,-5.5571827E-3,3.6955116E-4],"split_indices":[35,28,35,3,6,23,23,35,18,27,33,24,28,35,18,0,0,0,0,0,0,0,0,0,0,0,0,0,0,0,0],"split_type":[0,0,0,0,0,0,0,0,0,0,0,0,0,0,0,0,0,0,0,0,0,0,0,0,0,0,0,0,0,0,0],"sum_hessian":[1.8111064E4,6.7529546E3,1.135811E4,6.222272E3,5.306825E2,6.440556E3,4.917554E3,1.4125833E3,4.809689E3,1.4872643E2,3.819561E2,2.9277708E3,3.5127854E3,3.9735989E3,9.439553E2,2.244976E1,1.3901335E3,2.7207832E3,2.0889055E3,6.818468E0,1.4190796E2,4.7770897E1,3.3418518E2,2.4661243E2,2.6811582E3,2.1420706E3,1.3707148E3,2.4063716E3,1.5672272E3,1.5797621E2,7.859791E2],"tree_param":{"num_deleted":"0","num_feature":"36","num_nodes":"31","size_leaf_vector":"1"}},{"base_weights":[-3.7081207E-3,7.064957E-2,-6.0875084E-2,3.1682186E-2,1.200702E-1,-3.3663068E-2,-1.2468286E-1,4.881957E-2,-5.562442E-2,2.1292149E-1,9.159204E-2,-6.972561E-2,-3.4935356E-3,-1.6480747E-1,-8.434767E-2,3.219474E-3,7.3915767E-4,-8.202188E-3,-9.276412E-4,5.079351E-3,1.3051388E-2,1.8985138E-3,4.7513368E-3,3.0659041E-3,-2.4094633E-3,-8.505423E-4,1.7812626E-3,-4.450398E-3,-7.454907E-3,1.4284715E-3,-2.8928195E-3],"categories":[],"categories_nodes":[],"categories_segments":[],"categories_sizes":[],"default_left":[0,0,0,0,0,0,0,0,0,1,0,0,0,0,0,0,0,0,0,0,0,0,0,0,0,0,0,0,0,0,0],"id":41,"left_children":[1,3,5,7,9,11,13,15,17,19,21,23,25,27,29,-1,-1,-1,-1,-1,-1,-1,-1,-1,-1,-1,-1,-1,-1,-1,-1],"loss_changes":[7.7404564E1,1.523827E1,1.7870853E1,6.6260157E0,9.206169E0,7.85316E0,4.9666862E0,5.2322865E0,3.901715E0,7.851795E0,5.041271E0,5.994357E0,6.145489E0,2.086956E0,2.4542437E0,0E0,0E0,0E0,0E0,0E0,0E0,0E0,0E0,0E0,0E0,0E0,0E0,0E0,0E0,0E0,0E0],"parents":[2147483647,0,0,1,1,2,2,3,3,4,4,5,5,6,6,7,7,8,8,9,9,10,10,11,11,12,12,13,13,14,14],"right_children":[2,4,6,8,10,12,14,16,18,20,22,24,26,28,30,-1,-1,-1,-1,-1,-1,-1,-1,-1,-1,-1,-1,-1,-1,-1,-1],"split_conditions":[-2.876821E-1,1.75E0,8.4729785E-1,1.52E2,-1.5649861E0,1.4007792E0,1.4677322E3,1.419081E3,1.0436484E0,2.4E0,1.865009E0,7.773056E-1,1.501808E3,2.2222223E0,6.666667E-1,3.219474E-3,7.3915767E-4,-8.202188E-3,-9.276412E-4,5.079351E-3,1.3051388E-2,1.8985138E-3,4.7513368E-3,3.0659041E-3,-2.4094633E-3,-8.505423E-4,1.7812626E-3,-4.450398E-3,-7.454907E-3,1.4284715E-3,-2.8928195E-3],"split_indices":[35,18,35,6,35,23,28,3,22,13,23,24,28,15,12,0,0,0,0,0,0,0,0,0,0,0,0,0,0,0,0],"split_type":[0,0,0,0,0,0,0,0,0,0,0,0,0,0,0,0,0,0,0,0,0,0,0,0,0,0,0,0,0,0,0],"sum_hessian":[1.8207383E4,7.9137046E3,1.0293679E4,4.425728E3,3.4879766E3,7.2172676E3,3.0764106E3,3.699914E3,7.258141E2,8.171692E2,2.6708074E3,3.2869575E3,3.9303098E3,1.540684E3,1.5357267E3,1.0811251E3,2.6187888E3,7.2916374E1,6.528977E2,6.845363E2,1.3263284E2,1.8771115E3,7.936959E2,1.9021577E2,3.0967417E3,2.8170288E3,1.1132812E3,1.2897715E3,2.5091257E2,1.2854144E2,1.4071853E3],"tree_param":{"num_deleted":"0","num_feature":"36","num_nodes":"31","size_leaf_vector":"1"}},{"base_weights":[2.796819E-3,1.043896E-1,-4.358272E-2,1.8581311E-1,8.439048E-2,-1.7697558E-2,-1.14697315E-1,3.6164823E-1,1.5526181E-1,-1.4277007E-2,9.878743E-2,-4.5711868E-2,1.677088E-2,-1.2274287E-1,5.115488E-2,3.7469357E-4,1.350466E-2,8.778625E-3,3.7335404E-3,4.498345E-3,-2.498918E-3,2.7703205E-3,8.714625E-3,-1.5574913E-3,4.217704E-3,-2.0514392E-4,2.8661215E-3,-3.0522712E-3,-5.4144026E-3,-1.5659167E-3,1.314002E-2],"categories":[],"categories_nodes":[],"categories_segments":[],"categories_sizes":[],"default_left":[0,0,0,0,0,0,1,0,0,0,0,1,0,0,0,0,0,0,0,0,0,0,0,0,0,0,0,0,0,0,0],"id":42,"left_children":[1,3,5,7,9,11,13,15,17,19,21,23,25,27,29,-1,-1,-1,-1,-1,-1,-1,-1,-1,-1,-1,-1,-1,-1,-1,-1],"loss_changes":[8.536108E1,9.230793E0,2.28942E1,5.954262E0,6.4795494E0,8.807206E0,4.435108E0,5.089342E0,4.005121E0,6.604386E0,4.889099E0,5.823084E0,7.605943E0,3.82016E0,6.1905417E0,0E0,0E0,0E0,0E0,0E0,0E0,0E0,0E0,0E0,0E0,0E0,0E0,0E0,0E0,0E0,0E0],"parents":[2147483647,0,0,1,1,2,2,3,3,4,4,5,5,6,6,7,7,8,8,9,9,10,10,11,11,12,12,13,13,14,14],"right_children":[2,4,6,8,10,12,14,16,18,20,22,24,26,28,30,-1,-1,-1,-1,-1,-1,-1,-1,-1,-1,-1,-1,-1,-1,-1,-1],"split_conditions":[-6.1903924E-1,-1.5649861E0,7.8275937E-1,-2.75E0,1E0,1.5535556E0,2.2E0,1.25E0,-2.2380466E0,-1.1727203E0,1.61804E3,2.5555556E0,1.5144434E3,2.1666667E0,1.5555556E0,3.7469357E-4,1.350466E-2,8.778625E-3,3.7335404E-3,4.498345E-3,-2.498918E-3,2.7703205E-3,8.714625E-3,-1.5574913E-3,4.217704E-3,-2.0514392E-4,2.8661215E-3,-3.0522712E-3,-5.4144026E-3,-1.5659167E-3,1.314002E-2],"split_indices":[35,35,35,26,13,23,12,13,35,35,28,18,28,15,19,0,0,0,0,0,0,0,0,0,0,0,0,0,0,0,0],"split_type":[0,0,0,0,0,0,0,0,0,0,0,0,0,0,0,0,0,0,0,0,0,0,0,0,0,0,0,0,0,0,0],"sum_hessian":[1.8114379E4,5.677268E3,1.2437111E4,1.1178429E3,4.5594253E3,9.119084E3,3.318027E3,1.6386955E2,9.5397327E2,5.805711E2,3.978854E3,5.030338E3,4.0887463E3,3.164763E3,1.5326398E2,3.336936E1,1.305002E2,1.7322137E2,7.807519E2,1.7145381E2,4.0911734E2,3.8508994E3,1.27954506E2,4.8689077E3,1.6143028E2,3.1465354E3,9.422109E2,2.3227002E3,8.420629E2,1.21632866E2,3.1631119E1],"tree_param":{"num_deleted":"0","num_feature":"36","num_nodes":"31","size_leaf_vector":"1"}},{"base_weights":[2.380749E-3,8.8539094E-2,-4.38876E-2,4.2806357E-2,1.23215325E-1,-1.7516918E-2,-8.986155E-2,-6.8213505E-4,8.2711756E-2,2.7829176E-1,1.11144625E-1,-4.899549E-2,1.38088E-2,-1.04796685E-1,-1.314409E-3,9.209981E-4,-3.3190218E-3,2.2940796E-3,2.1E-2,1.7144453E-2,6.3642873E-3,-2.3370152E-4,3.8967757E-3,-2.3121845E-3,-3.1678932E-4,-1.4296753E-2,5.116109E-4,-4.799511E-3,-2.5737865E-3,-2.0667969E-3,3.3249957E-3],"categories":[],"categories_nodes":[],"categories_segments":[],"categories_sizes":[],"default_left":[0,0,0,0,0,0,0,0,1,0,0,1,0,1,0,0,0,0,0,0,0,0,0,0,0,0,0,0,0,0,0],"id":43,"left_children":[1,3,5,7,9,11,13,15,17,19,21,23,25,27,29,-1,-1,-1,-1,-1,-1,-1,-1,-1,-1,-1,-1,-1,-1,-1,-1],"loss_changes":[7.243113E1,1.006197E1,1.4330204E1,4.7537174E0,6.7266083E0,7.409689E0,5.6981125E0,4.5295844E0,7.125785E0,4.9219646E0,7.4729767E0,4.043769E0,6.0016537E0,3.852993E0,4.7283545E0,0E0,0E0,0E0,0E0,0E0,0E0,0E0,0E0,0E0,0E0,0E0,0E0,0E0,0E0,0E0,0E0],"parents":[2147483647,0,0,1,1,2,2,3,3,4,4,5,5,6,6,7,7,8,8,9,9,10,10,11,11,12,12,13,13,14,14],"right_children":[2,4,6,8,10,12,14,16,18,20,22,24,26,28,30,-1,-1,-1,-1,-1,-1,-1,-1,-1,-1,-1,-1,-1,-1,-1,-1],"split_conditions":[-5.0355698E1,4.5E2,8.046266E1,1.7040466E0,1.4503165E3,1.3815336E0,1.739308E0,1.75E0,2.231516E0,1.25E0,1.4821306E0,1.5555556E0,2E-1,1.007302E0,1.798353E0,9.209981E-4,-3.3190218E-3,2.2940796E-3,2.1E-2,1.7144453E-2,6.3642873E-3,-2.3370152E-4,3.8967757E-3,-2.3121845E-3,-3.1678932E-4,-1.4296753E-2,5.116109E-4,-4.799511E-3,-2.5737865E-3,-2.0667969E-3,3.3249957E-3],"split_indices":[31,34,2,23,29,22,23,13,21,10,22,19,10,22,21,0,0,0,0,0,0,0,0,0,0,0,0,0,0,0,0],"split_type":[0,0,0,0,0,0,0,0,0,0,0,0,0,0,0,0,0,0,0,0,0,0,0,0,0,0,0,0,0,0,0],"sum_hessian":[1.8167564E4,6.347217E3,1.1820347E4,2.7381907E3,3.6090264E3,7.5125337E3,4.307813E3,1.3107411E3,1.4274495E3,2.5903683E2,3.3499895E3,3.7468435E3,3.7656904E3,3.6859285E3,6.218845E2,1.0202624E3,2.9047873E2,1.4185795E3,8.870029E0,4.6278477E1,2.1275836E2,4.562397E2,2.8937498E3,2.1646008E3,1.5822427E3,2.3795942E1,3.7418945E3,9.4224146E2,2.743687E3,3.882908E2,2.3359375E2],"tree_param":{"num_deleted":"0","num_feature":"36","num_nodes":"31","size_leaf_vector":"1"}},{"base_weights":[-2.1756036E-4,7.124944E-2,-5.5793565E-2,1.7275585E-1,5.5009168E-2,-2.8015114E-2,-1.1272577E-1,3.061446E-1,1.3572739E-1,3.4336902E-2,1.0502772E-1,-5.4557536E-2,1.9475383E-3,-1.2137309E-1,6.562702E-2,1.8169573E-2,6.9453237E-3,3.1422938E-3,8.64482E-3,8.9618325E-4,1.015951E-2,2.5798844E-3,6.090083E-3,-2.3196063E-3,3.5428558E-4,1.7070746E-3,-9.171564E-4,-8.830607E-3,-3.4615872E-3,-1.0407096E-3,1.7256778E-2],"categories":[],"categories_nodes":[],"categories_segments":[],"categories_sizes":[],"default_left":[0,0,0,0,1,0,1,0,0,1,0,1,1,1,0,0,0,0,0,0,0,0,0,0,0,0,0,0,0,0,0],"id":44,"left_children":[1,3,5,7,9,11,13,15,17,19,21,23,25,27,29,-1,-1,-1,-1,-1,-1,-1,-1,-1,-1,-1,-1,-1,-1,-1,-1],"loss_changes":[7.216844E1,1.30937195E1,1.6161821E1,5.3710403E0,7.0831604E0,5.4644017E0,5.176853E0,5.1644936E0,4.029439E0,6.579921E0,3.7188187E0,5.5050087E0,